<?xml version="1.0"?>
<MethodSetup Method="DNN::DNN_CPU">
  <GeneralInfo>
    <Info name="TMVA Release" value="4.2.1 [262657]"/>
    <Info name="ROOT Release" value="6.16/00 [397312]"/>
    <Info name="Creator" value="vardan"/>
    <Info name="Date" value="Wed May  1 21:14:40 2019"/>
    <Info name="Host" value="Linux ec-ubuntu-14-04-x86-64-2 3.13.0-157-generic #207-Ubuntu SMP Mon Aug 20 16:44:59 UTC 2018 x86_64 x86_64 x86_64 GNU/Linux"/>
    <Info name="Dir" value="/home/vardan/Analyse2019/CMS_VBF_Hbb_2017_18/SingleBTag/Analysis/TMVA_BJets_Identification"/>
    <Info name="Training events" value="1000"/>
    <Info name="TrainingTime" value="4.85961030e+01"/>
    <Info name="AnalysisType" value="Regression"/>
  </GeneralInfo>
  <Options>
    <Option name="V" modified="Yes">True</Option>
    <Option name="VerbosityLevel" modified="No">Verbose</Option>
    <Option name="VarTransform" modified="Yes">G</Option>
    <Option name="H" modified="Yes">False</Option>
    <Option name="CreateMVAPdfs" modified="No">False</Option>
    <Option name="IgnoreNegWeightsInTraining" modified="No">False</Option>
    <Option name="Layout" modified="Yes">TANH|50,Layout=TANH|50,Layout=TANH|50,LINEAR</Option>
    <Option name="ValidationSize" modified="No">20%</Option>
    <Option name="ErrorStrategy" modified="Yes">SUMOFSQUARES</Option>
    <Option name="WeightInitialization" modified="Yes">XAVIERUNIFORM</Option>
    <Option name="Architecture" modified="Yes">CPU</Option>
    <Option name="TrainingStrategy" modified="Yes">LearningRate=1e-2,Momentum=0.5,Repetitions=1,ConvergenceSteps=20,BatchSize=50,TestRepetitions=10,WeightDecay=0.01,Regularization=NONE,DropConfig=0.2+0.2+0.2+0.,DropRepetitions=2|LearningRate=1e-3,Momentum=0.9,Repetitions=1,ConvergenceSteps=20,BatchSize=50,TestRepetitions=5,WeightDecay=0.01,Regularization=L2,DropConfig=0.1+0.1+0.1,DropRepetitions=1|LearningRate=1e-4,Momentum=0.3,Repetitions=1,ConvergenceSteps=10,BatchSize=50,TestRepetitions=5,WeightDecay=0.01,Regularization=NONE</Option>
  </Options>
  <Variables NVar="1">
    <Variable VarIndex="0" Expression="pt" Label="pt" Title="PT" Unit="units" Internal="pt" Type="F" Min="0.00000000e+00" Max="5.39753235e+02"/>
  </Variables>
  <Spectators NSpec="0"/>
  <Classes NClass="1">
    <Class Name="Regression" Index="0"/>
  </Classes>
  <Targets NTrgt="1">
    <Target TargetIndex="0" Expression="pt" Label="pt" Title="pt" Unit="" Internal="pt" Type="F" Min="0.00000000e+00" Max="5.39753235e+02"/>
  </Targets>
  <Transformations NTransformations="1">
    <Transform Name="Gauss" FlatOrGauss="Gauss">
      <Selection>
        <Input NInputs="1">
          <Input Type="Variable" Label="pt" Expression="pt"/>
        </Input>
        <Output NOutputs="1">
          <Output Type="Variable" Label="pt" Expression="pt"/>
        </Output>
      </Selection>
      <Variable VarIndex="0">
        <CumulativePDF_cls0>
          <PDF Name="GaussTransform var0 cls0" MinNSmooth="0" MaxNSmooth="0" InterpolMethod="1" KDE_type="0" KDE_iter="1" KDE_border="1" KDE_finefactor="0.0000000000000000e+00">
            <Histogram Name="Cumulative_Var0_cls0_original" NBins="894" XMin="-9.9999997473787516e-05" XMax="5.3975323486328125e+02" HasEquidistantBins="0">
              3.76923999e-05 3.88668850e-04 9.20609280e-04 1.50679355e-03 2.12053652e-03 2.76733725e-03 3.44239408e-03 4.14052000e-03 4.83627710e-03 5.48916589e-03 6.07859576e-03 6.62379432e-03 7.16390135e-03 7.71619426e-03 8.27353448e-03 8.83628335e-03 9.40760318e-03 9.98480804e-03 1.05673904e-02 1.11583238e-02 1.17599554e-02 1.23689892e-02 1.29825296e-02 1.36014419e-02 1.42290881e-02 1.48684736e-02 1.55179305e-02 1.61760692e-02 1.68478936e-02 1.75351501e-02 1.82315353e-02 1.89344678e-02 1.96531732e-02 2.03951653e-02 2.11523175e-02 2.19164733e-02 2.26907805e-02 2.34786440e-02 2.42752787e-02 2.50772871e-02 2.58878097e-02 2.67083980e-02 2.75371503e-02 2.83727422e-02 2.92152781e-02 3.00652105e-02 3.09264380e-02 3.18030640e-02 3.26941386e-02 3.35956775e-02 3.45047005e-02 3.54194641e-02 3.63385305e-02 3.72615382e-02 3.81882712e-02 3.91204543e-02 4.00622003e-02 4.10141200e-02 4.19734120e-02 4.29258309e-02 4.38940600e-02 4.49247658e-02 4.59520295e-02 4.68219854e-02 4.74571250e-02 4.79326621e-02 4.84001562e-02 4.89232615e-02 4.94540557e-02 4.99712788e-02 5.04897870e-02 5.10106683e-02 5.15352488e-02 5.20635210e-02 5.25939129e-02 5.31251468e-02 5.36574684e-02 5.41919023e-02 5.47311530e-02 5.52785955e-02 5.58325946e-02 5.63886091e-02 5.69454916e-02 5.75040653e-02 5.80653138e-02 5.86296953e-02 5.91971800e-02 5.97685799e-02 6.03432916e-02 6.09198920e-02 6.14981428e-02 6.20779954e-02 6.26618564e-02 6.32519275e-02 6.38464615e-02 6.44438788e-02 6.50442764e-02 6.56475797e-02 6.62539303e-02 6.68654814e-02 6.74824566e-02 6.81024790e-02 6.87251911e-02 6.93521425e-02 6.99854270e-02 7.06267729e-02 7.12758601e-02 7.19289482e-02 7.25838616e-02 7.32416138e-02 7.39018843e-02 7.45634511e-02 7.52260983e-02 7.58903101e-02 7.65570775e-02 7.72267208e-02 7.78977498e-02 7.85690844e-02 7.92410001e-02 7.99138471e-02 8.05882514e-02 8.12653676e-02 8.19454193e-02 8.26280937e-02 8.33134577e-02 8.40011388e-02 8.46899897e-02 8.53796452e-02 8.60706344e-02 8.67629200e-02 8.74563158e-02 8.81506056e-02 8.88452679e-02 8.95400718e-02 9.02355164e-02 9.09323171e-02 9.16302726e-02 9.23288912e-02 9.30280834e-02 9.37283263e-02 9.44303796e-02 9.51340944e-02 9.58386660e-02 9.65436175e-02 9.72488448e-02 9.79544595e-02 9.86606032e-02 9.93672833e-02 1.00074805e-01 1.00783378e-01 1.01492964e-01 1.02203988e-01 1.02916896e-01 1.03631556e-01 1.04347296e-01 1.05063953e-01 1.05781645e-01 1.06499925e-01 1.07218832e-01 1.07938863e-01 1.08660057e-01 1.09382160e-01 1.10105611e-01 1.10831223e-01 1.11558609e-01 1.12287372e-01 1.13017797e-01 1.13749690e-01 1.14482842e-01 1.15217559e-01 1.15954354e-01 1.16692573e-01 1.17431454e-01 1.18170880e-01 1.18910998e-01 1.19652219e-01 1.20394617e-01 1.21138476e-01 1.21884182e-01 1.22631319e-01 1.23380207e-01 1.24131784e-01 1.24885388e-01 1.25640154e-01 1.26395643e-01 1.27152249e-01 1.27910823e-01 1.28670961e-01 1.29432485e-01 1.30195603e-01 1.30959943e-01 1.31725356e-01 1.32491663e-01 1.33258879e-01 1.34027153e-01 1.34796336e-01 1.35566339e-01 1.36337057e-01 1.37108609e-01 1.37881249e-01 1.38654843e-01 1.39429539e-01 1.40205503e-01 1.40982419e-01 1.41760394e-01 1.42539710e-01 1.43320158e-01 1.44101262e-01 1.44882724e-01 1.45664692e-01 1.46447480e-01 1.47230923e-01 1.48014724e-01 1.48798928e-01 1.49583831e-01 1.50369897e-01 1.51157290e-01 1.51945725e-01 1.52734801e-01 1.53524235e-01 1.54313833e-01 1.55103698e-01 1.55893922e-01 1.56684831e-01 1.57476649e-01 1.58269137e-01 1.59062088e-01 1.59855574e-01 1.60649389e-01 1.61443427e-01 1.62237838e-01 1.63033172e-01 1.63829684e-01 1.64626822e-01 1.65424302e-01 1.66222557e-01 1.67021751e-01 1.67822048e-01 1.68623731e-01 1.69426322e-01 1.70229405e-01 1.71033338e-01 1.71838209e-01 1.72643542e-01 1.73448995e-01 1.74254701e-01 1.75060958e-01 1.75867990e-01 1.76676080e-01 1.77485436e-01 1.78295657e-01 1.79106176e-01 1.79916874e-01 1.80727899e-01 1.81539834e-01 1.82353079e-01 1.83167234e-01 1.83981910e-01 1.84796840e-01 1.85612485e-01 1.86429471e-01 1.87248036e-01 1.88068539e-01 1.88890919e-01 1.89714596e-01 1.90539286e-01 1.91365242e-01 1.92192510e-01 1.93020552e-01 1.93849042e-01 1.94677919e-01 1.95506975e-01 1.96336195e-01 1.97165743e-01 1.97995529e-01 1.98825404e-01 1.99655429e-01 2.00485706e-01 2.01316386e-01 2.02147707e-01 2.02980086e-01 2.03814715e-01 2.04652324e-01 2.05491632e-01 2.06331536e-01 2.07173020e-01 2.08017215e-01 2.08863333e-01 2.09710464e-01 2.10558742e-01 2.11408496e-01 2.12259293e-01 2.13110387e-01 2.13961780e-01 2.14814395e-01 2.15668812e-01 2.16524139e-01 2.17379704e-01 2.18235478e-01 2.19091535e-01 2.19947994e-01 2.20804885e-01 2.21662611e-01 2.22521797e-01 2.23382413e-01 2.24244133e-01 2.25106806e-01 2.25970581e-01 2.26835534e-01 2.27701679e-01 2.28568837e-01 2.29436472e-01 2.30304301e-01 2.31172338e-01 2.32040584e-01 2.32909396e-01 2.33778939e-01 2.34648928e-01 2.35519409e-01 2.36390710e-01 2.37262875e-01 2.38136128e-01 2.39010438e-01 2.39885926e-01 2.40762994e-01 2.41641104e-01 2.42519736e-01 2.43399084e-01 2.44279027e-01 2.45159343e-01 2.46040002e-01 2.46921375e-01 2.47803658e-01 2.48686805e-01 2.49570906e-01 2.50455946e-01 2.51342416e-01 2.52230495e-01 2.53119439e-01 2.54009008e-01 2.54899085e-01 2.55789578e-01 2.56680399e-01 2.57571399e-01 2.58462757e-01 2.59354502e-01 2.60246634e-01 2.61139214e-01 2.62032598e-01 2.62927532e-01 2.63824344e-01 2.64722049e-01 2.65620172e-01 2.66518950e-01 2.67418534e-01 2.68319458e-01 2.69221783e-01 2.70124912e-01 2.71028578e-01 2.71932662e-01 2.72837430e-01 2.73743242e-01 2.74650007e-01 2.75557220e-01 2.76466131e-01 2.77378201e-01 2.78291970e-01 2.79206067e-01 2.80120939e-01 2.81036764e-01 2.81953067e-01 2.82869667e-01 2.83787102e-01 2.84705639e-01 2.85625190e-01 2.86545426e-01 2.87466049e-01 2.88387090e-01 2.89308876e-01 2.90231854e-01 2.91156828e-01 2.92083919e-01 2.93012857e-01 2.93943286e-01 2.94874817e-01 2.95806944e-01 2.96739310e-01 2.97671795e-01 2.98604548e-01 2.99537659e-01 3.00471038e-01 3.01405072e-01 3.02340299e-01 3.03276539e-01 3.04213554e-01 3.05151135e-01 3.06089580e-01 3.07029635e-01 3.07971358e-01 3.08914334e-01 3.09858382e-01 3.10803354e-01 3.11749190e-01 3.12696248e-01 3.13644886e-01 3.14594507e-01 3.15545231e-01 3.16497654e-01 3.17451388e-01 3.18406224e-01 3.19362015e-01 3.20318490e-01 3.21275473e-01 3.22233319e-01 3.23192626e-01 3.24153155e-01 3.25114638e-01 3.26076895e-01 3.27040225e-01 3.28006327e-01 3.28975976e-01 3.29947829e-01 3.30921233e-01 3.31895858e-01 3.32871020e-01 3.33846360e-01 3.34822178e-01 3.35799009e-01 3.36776912e-01 3.37756366e-01 3.38738829e-01 3.39724571e-01 3.40712041e-01 3.41700315e-01 3.42689246e-01 3.43679011e-01 3.44669819e-01 3.45661551e-01 3.46654296e-01 3.47648233e-01 3.48643750e-01 3.49641353e-01 3.50640178e-01 3.51639301e-01 3.52639109e-01 3.53640050e-01 3.54641795e-01 3.55643928e-01 3.56646478e-01 3.57649177e-01 3.58652055e-01 3.59655410e-01 3.60659093e-01 3.61662984e-01 3.62667203e-01 3.63671720e-01 3.64677072e-01 3.65683854e-01 3.66692811e-01 3.67704183e-01 3.68716538e-01 3.69729072e-01 3.70742679e-01 3.71758103e-01 3.72774452e-01 3.73791397e-01 3.74809384e-01 3.75828326e-01 3.76847893e-01 3.77868235e-01 3.78889441e-01 3.79911274e-01 3.80934387e-01 3.81959826e-01 3.82987469e-01 3.84016514e-01 3.85046899e-01 3.86078924e-01 3.87111902e-01 3.88145298e-01 3.89179081e-01 3.90213668e-01 3.91249567e-01 3.92286718e-01 3.93324763e-01 3.94363493e-01 3.95403117e-01 3.96444052e-01 3.97486925e-01 3.98531884e-01 3.99577856e-01 4.00624126e-01 4.01671052e-01 4.02718782e-01 4.03767288e-01 4.04816747e-01 4.05866832e-01 4.06917214e-01 4.07967925e-01 4.09018934e-01 4.10070211e-01 4.11121756e-01 4.12173450e-01 4.13225263e-01 4.14277196e-01 4.15330321e-01 4.16385591e-01 4.17442024e-01 4.18498993e-01 4.19557571e-01 4.20618325e-01 4.21680629e-01 4.22744304e-01 4.23809469e-01 4.24876332e-01 4.25945073e-01 4.27014917e-01 4.28085208e-01 4.29156154e-01 4.30228412e-01 4.31301743e-01 4.32375550e-01 4.33449775e-01 4.34524506e-01 4.35599715e-01 4.36675727e-01 4.37752753e-01 4.38831121e-01 4.39911455e-01 4.40994412e-01 4.42080230e-01 4.43167537e-01 4.44256246e-01 4.45347100e-01 4.46439087e-01 4.47531521e-01 4.48624641e-01 4.49718535e-01 4.50813234e-01 4.51909095e-01 4.53005999e-01 4.54103321e-01 4.55201209e-01 4.56300497e-01 4.57401365e-01 4.58503246e-01 4.59605455e-01 4.60707814e-01 4.61810321e-01 4.62914109e-01 4.64020252e-01 4.65128124e-01 4.66237098e-01 4.67346847e-01 4.68456924e-01 4.69567508e-01 4.70679134e-01 4.71792668e-01 4.72907782e-01 4.74023819e-01 4.75140989e-01 4.76259440e-01 4.77379352e-01 4.78500575e-01 4.79622930e-01 4.80746716e-01 4.81871396e-01 4.82996464e-01 4.84122247e-01 4.85249132e-01 4.86377209e-01 4.87506956e-01 4.88638371e-01 4.89771008e-01 4.90904510e-01 4.92039621e-01 4.93177652e-01 4.94317919e-01 4.95459259e-01 4.96602178e-01 4.97747213e-01 4.98893470e-01 5.00041485e-01 5.01192629e-01 5.02345920e-01 5.03500462e-01 5.04656136e-01 5.05812645e-01 5.06969512e-01 5.08126557e-01 5.09284496e-01 5.10443985e-01 5.11604190e-01 5.12764633e-01 5.13926089e-01 5.15089750e-01 5.16256690e-01 5.17427862e-01 5.18601596e-01 5.19777417e-01 5.20956397e-01 5.22137940e-01 5.23321986e-01 5.24508595e-01 5.25698543e-01 5.26893198e-01 5.28090715e-01 5.29289007e-01 5.30488431e-01 5.31689584e-01 5.32892287e-01 5.34096062e-01 5.35300553e-01 5.36505520e-01 5.37711263e-01 5.38917601e-01 5.40124357e-01 5.41332126e-01 5.42541504e-01 5.43753624e-01 5.44969141e-01 5.46186864e-01 5.47405899e-01 5.48626184e-01 5.49847662e-01 5.51070452e-01 5.52294791e-01 5.53521752e-01 5.54751635e-01 5.55982709e-01 5.57214022e-01 5.58445632e-01 5.59677780e-01 5.60911000e-01 5.62145472e-01 5.63381255e-01 5.64619005e-01 5.65858662e-01 5.67099750e-01 5.68342268e-01 5.69586754e-01 5.70835292e-01 5.72088242e-01 5.73343515e-01 5.74599862e-01 5.75857639e-01 5.77117503e-01 5.78379393e-01 5.79642296e-01 5.80906391e-01 5.82172155e-01 5.83439708e-01 5.84709167e-01 5.85979760e-01 5.87250888e-01 5.88522732e-01 5.89795351e-01 5.91070235e-01 5.92348516e-01 5.93628705e-01 5.94910324e-01 5.96195042e-01 5.97484350e-01 5.98777533e-01 6.00072145e-01 6.01367176e-01 6.02662742e-01 6.03958786e-01 6.05255365e-01 6.06552184e-01 6.07849121e-01 6.09146237e-01 6.10443652e-01 6.11741543e-01 6.13040864e-01 6.14343524e-01 6.15650594e-01 6.16961122e-01 6.18274271e-01 6.19588971e-01 6.20904744e-01 6.22222483e-01 6.23544335e-01 6.24872208e-01 6.26204133e-01 6.27537906e-01 6.28874063e-01 6.30213439e-01 6.31556869e-01 6.32904589e-01 6.34255707e-01 6.35609090e-01 6.36964142e-01 6.38321280e-01 6.39681697e-01 6.41045034e-01 6.42410517e-01 6.43778324e-01 6.45149529e-01 6.46523714e-01 6.47898853e-01 6.49274170e-01 6.50649667e-01 6.52028143e-01 6.53412163e-01 6.54799938e-01 6.56189859e-01 6.57581925e-01 6.58975959e-01 6.60371482e-01 6.61767662e-01 6.63164556e-01 6.64562583e-01 6.65962338e-01 6.67363524e-01 6.68766558e-01 6.70172751e-01 6.71582699e-01 6.72996581e-01 6.74414039e-01 6.75833642e-01 6.77255571e-01 6.78680241e-01 6.80107415e-01 6.81537747e-01 6.82971418e-01 6.84406817e-01 6.85844302e-01 6.87284887e-01 6.88727915e-01 6.90172255e-01 6.91618443e-01 6.93066657e-01 6.94516182e-01 6.95966244e-01 6.97418630e-01 6.98875785e-01 7.00337589e-01 7.01803029e-01 7.03271091e-01 7.04743445e-01 7.06222236e-01 7.07705736e-01 7.09190845e-01 7.10676372e-01 7.12162673e-01 7.13650465e-01 7.15140522e-01 7.16633141e-01 7.18127310e-01 7.19622612e-01 7.21120179e-01 7.22621381e-01 7.24125922e-01 7.25633264e-01 7.27142096e-01 7.28653073e-01 7.30168760e-01 7.31688380e-01 7.33209670e-01 7.34732628e-01 7.36259043e-01 7.37790406e-01 7.39326239e-01 7.40865111e-01 7.42407501e-01 7.43958652e-01 7.45520711e-01 7.47089148e-01 7.48661101e-01 7.50235975e-01 7.51814246e-01 7.53396511e-01 7.54981875e-01 7.56569266e-01 7.58160174e-01 7.59756744e-01 7.61360109e-01 7.62970746e-01 7.64586627e-01 7.66206622e-01 7.67831981e-01 7.69462943e-01 7.71098435e-01 7.72736132e-01 7.74375796e-01 7.76020586e-01 7.77675927e-01 7.79341817e-01 7.81015456e-01 7.82695055e-01 7.84377873e-01 7.86062956e-01 7.87751257e-01 7.89442122e-01 7.91137099e-01 7.92838097e-01 7.94544578e-01 7.96257555e-01 7.97976673e-01 7.99698651e-01 8.01423430e-01 8.03156555e-01 8.04903328e-01 8.06660831e-01 8.08422685e-01 8.10185373e-01 8.11949492e-01 8.13717008e-01 8.15488398e-01 8.17263186e-01 8.19039762e-01 8.20818007e-01 8.22603047e-01 8.24401915e-01 8.26215506e-01 8.28036547e-01 8.29861581e-01 8.31692100e-01 8.33527744e-01 8.35368454e-01 8.37213576e-01 8.39060605e-01 8.40910077e-01 8.42766166e-01 8.44630897e-01 8.46500218e-01 8.48370969e-01 8.50245774e-01 8.52130055e-01 8.54023159e-01 8.55919480e-01 8.57816994e-01 8.59717071e-01 8.61622572e-01 8.63538325e-01 8.65465581e-01 8.67400527e-01 8.69342923e-01 8.71294200e-01 8.73252332e-01 8.75216544e-01 8.77186716e-01 8.79160643e-01 8.81136835e-01 8.83119941e-01 8.85116279e-01 8.87127280e-01 8.89151216e-01 8.91183615e-01 8.93221796e-01 8.95269811e-01 8.97335351e-01 8.99419427e-01 9.01513934e-01 9.03613567e-01 9.05717313e-01 9.07824278e-01 9.09934819e-01 9.12047684e-01 9.14171457e-01 9.16318178e-01 9.18499112e-01 9.20732975e-01 9.23008204e-01 9.25297976e-01 9.27596986e-01 9.29903209e-01 9.32221472e-01 9.34569061e-01 9.36949193e-01 9.39345419e-01 9.41746116e-01 9.44155812e-01 9.46584344e-01 9.49032784e-01 9.51503634e-01 9.54006076e-01 9.56531048e-01 9.59065020e-01 9.61610019e-01 9.64178920e-01 9.66780126e-01 9.69405949e-01 9.72065508e-01 9.74776566e-01 9.77574408e-01 9.80504930e-01 9.83530641e-01 9.86589372e-01 9.89676058e-01 9.92906868e-01 9.96386170e-01 1.00000000e+00 
            </Histogram>
            <HistogramBinning NBins="894">
              -9.99999975e-05 0.00000000e+00 2.12329330e+01 2.17678032e+01 2.33188229e+01 2.47583237e+01 2.68059483e+01 2.74638023e+01 2.80231647e+01 2.93682728e+01 2.98058872e+01 3.05786266e+01 3.07179012e+01 3.18545036e+01 3.23054733e+01 3.30558968e+01 3.36029663e+01 3.39788437e+01 3.42715111e+01 3.47238884e+01 3.55046501e+01 3.58417244e+01 3.61819000e+01 3.64238281e+01 3.65733376e+01 3.75216827e+01 3.84116364e+01 3.84915237e+01 3.91563530e+01 4.07376099e+01 4.10725212e+01 4.13500023e+01 4.17315712e+01 4.40768013e+01 4.46685753e+01 4.48389931e+01 4.54226456e+01 4.64466400e+01 4.69964409e+01 4.70964165e+01 4.77201080e+01 4.81384201e+01 4.89118729e+01 4.91122055e+01 4.97727890e+01 4.99450150e+01 5.03701935e+01 5.12397652e+01 5.23863029e+01 5.30915031e+01 5.35413055e+01 5.38842812e+01 5.41278076e+01 5.44980659e+01 5.45399055e+01 5.49150009e+01 5.51695023e+01 5.62705460e+01 5.64860802e+01 5.67100677e+01 5.74311829e+01 5.76273651e+01 5.87279739e+01 5.89670143e+01 5.95376968e+01 6.03329926e+01 6.08243942e+01 6.08323174e+01 6.09299850e+01 6.09952545e+01 6.11732330e+01 6.13847771e+01 6.18866730e+01 6.23763123e+01 6.26192665e+01 6.26680031e+01 6.27677422e+01 6.30591850e+01 6.33593369e+01 6.47077942e+01 6.55651855e+01 6.55941162e+01 6.56300659e+01 6.59374771e+01 6.60873566e+01 6.67159805e+01 6.67405319e+01 6.75019836e+01 6.78039398e+01 6.80166473e+01 6.82204132e+01 6.84051208e+01 6.86036301e+01 6.99186020e+01 7.00200424e+01 7.06204147e+01 7.07083359e+01 7.13499069e+01 7.13513260e+01 7.21457367e+01 7.30083008e+01 7.30478516e+01 7.35450134e+01 7.37437439e+01 7.47758102e+01 7.54673691e+01 7.68518066e+01 7.70461044e+01 7.71612244e+01 7.75996017e+01 7.79429092e+01 7.80405884e+01 7.81770554e+01 7.83568573e+01 7.86025696e+01 7.91160965e+01 7.91666870e+01 7.91988525e+01 7.92279129e+01 7.94096298e+01 7.94567261e+01 7.99153900e+01 8.02267990e+01 8.05300446e+01 8.08483658e+01 8.11563568e+01 8.12606430e+01 8.12642899e+01 8.15536880e+01 8.16456146e+01 8.18018799e+01 8.19264450e+01 8.19393387e+01 8.19675369e+01 8.19676437e+01 8.22485504e+01 8.23387299e+01 8.24267197e+01 8.24753799e+01 8.25600739e+01 8.28325119e+01 8.30460739e+01 8.31179657e+01 8.31657867e+01 8.31940384e+01 8.32371216e+01 8.33130264e+01 8.33684692e+01 8.34351349e+01 8.36441956e+01 8.36546021e+01 8.39112549e+01 8.40832672e+01 8.43825378e+01 8.44368973e+01 8.45381393e+01 8.47042542e+01 8.47377014e+01 8.47753143e+01 8.49547501e+01 8.50788956e+01 8.51894989e+01 8.52638855e+01 8.56083374e+01 8.58182907e+01 8.58630600e+01 8.62181931e+01 8.62433014e+01 8.65445023e+01 8.65653381e+01 8.70398254e+01 8.70803070e+01 8.71992035e+01 8.72310104e+01 8.73048477e+01 8.74458618e+01 8.75860519e+01 8.77049408e+01 8.79902954e+01 8.81368866e+01 8.82100754e+01 8.87447205e+01 8.88815994e+01 8.90409393e+01 8.91312256e+01 8.91325912e+01 8.96028366e+01 8.96651688e+01 8.98384323e+01 9.00872040e+01 9.01425171e+01 9.03019104e+01 9.04030228e+01 9.04643936e+01 9.06621399e+01 9.07298889e+01 9.08640213e+01 9.09232025e+01 9.10139618e+01 9.11528778e+01 9.12597198e+01 9.13403854e+01 9.16003189e+01 9.16320496e+01 9.17798996e+01 9.19402771e+01 9.20998306e+01 9.21433334e+01 9.22003326e+01 9.22024918e+01 9.23680420e+01 9.24275894e+01 9.24655457e+01 9.25157928e+01 9.25904617e+01 9.27236176e+01 9.29142303e+01 9.30088882e+01 9.30958252e+01 9.31291885e+01 9.31388550e+01 9.31928101e+01 9.32295990e+01 9.32922440e+01 9.34185486e+01 9.34854507e+01 9.35033112e+01 9.36355057e+01 9.36473389e+01 9.36824722e+01 9.37088242e+01 9.38025208e+01 9.40284958e+01 9.40392456e+01 9.40831604e+01 9.41480408e+01 9.43289642e+01 9.43424911e+01 9.46454163e+01 9.46833038e+01 9.47319260e+01 9.48288879e+01 9.49861832e+01 9.50073471e+01 9.50211716e+01 9.50335770e+01 9.51253128e+01 9.52038727e+01 9.53306503e+01 9.54798279e+01 9.55998688e+01 9.56024628e+01 9.56567993e+01 9.56795654e+01 9.57639313e+01 9.60085144e+01 9.60395279e+01 9.61368713e+01 9.61402664e+01 9.61677399e+01 9.64346237e+01 9.64982605e+01 9.68172531e+01 9.70175095e+01 9.71793747e+01 9.72735062e+01 9.74213257e+01 9.76315689e+01 9.76860123e+01 9.77327347e+01 9.77983093e+01 9.78051605e+01 9.78128204e+01 9.78718491e+01 9.78961334e+01 9.79023209e+01 9.79164124e+01 9.79497910e+01 9.79919586e+01 9.80806656e+01 9.81790237e+01 9.83975372e+01 9.89243240e+01 9.90364761e+01 9.90855789e+01 9.91569901e+01 9.97108765e+01 9.98066788e+01 9.99444809e+01 1.00006485e+02 1.00257912e+02 1.00388283e+02 1.00400383e+02 1.00443596e+02 1.00537186e+02 1.00874001e+02 1.00902634e+02 1.00921860e+02 1.00964943e+02 1.00981216e+02 1.01039223e+02 1.01105072e+02 1.01115707e+02 1.01416687e+02 1.01497490e+02 1.01714523e+02 1.01724670e+02 1.01935791e+02 1.02031494e+02 1.02180046e+02 1.02346313e+02 1.02347237e+02 1.02389343e+02 1.02402725e+02 1.02424507e+02 1.02473389e+02 1.02616112e+02 1.02633972e+02 1.02662086e+02 1.02820282e+02 1.02862640e+02 1.03018074e+02 1.03168350e+02 1.03199142e+02 1.03505363e+02 1.03591553e+02 1.03598808e+02 1.03762566e+02 1.03808830e+02 1.03846481e+02 1.03894859e+02 1.03930740e+02 1.04144272e+02 1.04145340e+02 1.04374336e+02 1.04387726e+02 1.04578362e+02 1.04851685e+02 1.04854614e+02 1.04969635e+02 1.04987930e+02 1.05059731e+02 1.05092598e+02 1.05115440e+02 1.05136589e+02 1.05222816e+02 1.05236954e+02 1.05345085e+02 1.05390221e+02 1.05559082e+02 1.05885941e+02 1.05903915e+02 1.05940643e+02 1.06049751e+02 1.06089516e+02 1.06284119e+02 1.06483673e+02 1.06539619e+02 1.06630096e+02 1.06654915e+02 1.06728897e+02 1.06867538e+02 1.07017937e+02 1.07020393e+02 1.07061111e+02 1.07775284e+02 1.07811211e+02 1.07819748e+02 1.07900581e+02 1.08088524e+02 1.08115547e+02 1.08116028e+02 1.08217880e+02 1.08376297e+02 1.08481285e+02 1.08596107e+02 1.08603180e+02 1.08646133e+02 1.08779419e+02 1.08810211e+02 1.09171280e+02 1.09344612e+02 1.09618675e+02 1.09745003e+02 1.09916801e+02 1.09968277e+02 1.09991348e+02 1.10004951e+02 1.10031487e+02 1.10105217e+02 1.10115303e+02 1.10163498e+02 1.10372490e+02 1.10437462e+02 1.10540314e+02 1.10611961e+02 1.10635689e+02 1.10918228e+02 1.11095993e+02 1.11237381e+02 1.11373833e+02 1.11458641e+02 1.11601494e+02 1.11670395e+02 1.11998955e+02 1.12031288e+02 1.12114769e+02 1.12425491e+02 1.12492790e+02 1.12648872e+02 1.12753410e+02 1.12839775e+02 1.12897804e+02 1.12919975e+02 1.13227402e+02 1.13294235e+02 1.13428162e+02 1.13545830e+02 1.13571037e+02 1.13941544e+02 1.14525314e+02 1.14644043e+02 1.14832474e+02 1.15033051e+02 1.15036461e+02 1.15062157e+02 1.15085342e+02 1.15240845e+02 1.15384827e+02 1.15462975e+02 1.15881859e+02 1.16391983e+02 1.16495064e+02 1.16605751e+02 1.16658844e+02 1.16748116e+02 1.16901497e+02 1.16994362e+02 1.17074341e+02 1.17308441e+02 1.17330597e+02 1.17793900e+02 1.17831535e+02 1.17860733e+02 1.17912666e+02 1.18102196e+02 1.18173538e+02 1.18203903e+02 1.18288940e+02 1.18293266e+02 1.18297256e+02 1.18373039e+02 1.18398270e+02 1.18416885e+02 1.18501945e+02 1.18507179e+02 1.18609703e+02 1.18794930e+02 1.18960945e+02 1.19421349e+02 1.19429474e+02 1.19443825e+02 1.19509026e+02 1.19901161e+02 1.19901230e+02 1.19948296e+02 1.20117523e+02 1.20234001e+02 1.20266953e+02 1.20372734e+02 1.20504936e+02 1.20533600e+02 1.20640533e+02 1.21000359e+02 1.21231018e+02 1.21427391e+02 1.21473221e+02 1.21821968e+02 1.21860931e+02 1.21929062e+02 1.21948120e+02 1.22035706e+02 1.22207932e+02 1.22377037e+02 1.22458664e+02 1.22546501e+02 1.22611153e+02 1.22817787e+02 1.22966812e+02 1.23384399e+02 1.23394241e+02 1.23431671e+02 1.23498894e+02 1.23642746e+02 1.23652985e+02 1.23852814e+02 1.23877640e+02 1.23922745e+02 1.23941498e+02 1.23999191e+02 1.24011948e+02 1.24057816e+02 1.24072197e+02 1.24085281e+02 1.24086128e+02 1.24136505e+02 1.24608971e+02 1.24653625e+02 1.24692337e+02 1.24881180e+02 1.25258255e+02 1.25289413e+02 1.25483505e+02 1.25669380e+02 1.25803154e+02 1.26158501e+02 1.26190498e+02 1.26264832e+02 1.26272743e+02 1.26493385e+02 1.26647568e+02 1.26670998e+02 1.26725159e+02 1.26820030e+02 1.26821281e+02 1.26958626e+02 1.27056389e+02 1.27190887e+02 1.27470993e+02 1.27696617e+02 1.28223633e+02 1.28271957e+02 1.28364746e+02 1.28781387e+02 1.28820160e+02 1.28836990e+02 1.28975647e+02 1.29048492e+02 1.29130325e+02 1.29286819e+02 1.29439697e+02 1.29450317e+02 1.29467850e+02 1.29685791e+02 1.29890991e+02 1.30010925e+02 1.30031418e+02 1.30043900e+02 1.30065598e+02 1.30090454e+02 1.30620575e+02 1.30629776e+02 1.30839355e+02 1.30915695e+02 1.30920609e+02 1.31017975e+02 1.31061295e+02 1.31360703e+02 1.31572235e+02 1.31585663e+02 1.31824799e+02 1.31923798e+02 1.32118744e+02 1.32322784e+02 1.32334290e+02 1.32648071e+02 1.32677078e+02 1.32731323e+02 1.32763840e+02 1.32984268e+02 1.33029846e+02 1.33276413e+02 1.33519791e+02 1.33590546e+02 1.33732758e+02 1.33738663e+02 1.34305847e+02 1.34529175e+02 1.34622253e+02 1.34773804e+02 1.35160172e+02 1.35228394e+02 1.35295303e+02 1.35929382e+02 1.36058517e+02 1.36198349e+02 1.36340775e+02 1.36436142e+02 1.36479050e+02 1.36479446e+02 1.36548706e+02 1.36872070e+02 1.36875046e+02 1.36903183e+02 1.36921982e+02 1.37351227e+02 1.37453903e+02 1.38331985e+02 1.38468491e+02 1.38517502e+02 1.39254990e+02 1.39280228e+02 1.39684769e+02 1.40040359e+02 1.40125839e+02 1.41168808e+02 1.41273529e+02 1.41349991e+02 1.41452637e+02 1.41731308e+02 1.41878525e+02 1.42009735e+02 1.42096024e+02 1.42144562e+02 1.42240738e+02 1.42335876e+02 1.42353363e+02 1.42483124e+02 1.42703537e+02 1.42899445e+02 1.43576614e+02 1.43599655e+02 1.43850021e+02 1.43927094e+02 1.44105179e+02 1.44265015e+02 1.44366501e+02 1.44713806e+02 1.45176407e+02 1.45233841e+02 1.45234360e+02 1.45313400e+02 1.45360764e+02 1.45475967e+02 1.45680161e+02 1.45752686e+02 1.46017776e+02 1.46313965e+02 1.46367111e+02 1.46691803e+02 1.46799896e+02 1.47297318e+02 1.48049667e+02 1.48070389e+02 1.48256561e+02 1.48287491e+02 1.48629944e+02 1.48919983e+02 1.48973740e+02 1.49133057e+02 1.49345810e+02 1.49497253e+02 1.49760803e+02 1.49884705e+02 1.49898453e+02 1.50066452e+02 1.50138046e+02 1.50268539e+02 1.50985260e+02 1.51028976e+02 1.51135239e+02 1.51571518e+02 1.52088394e+02 1.52716873e+02 1.52730637e+02 1.52747040e+02 1.52870590e+02 1.52878159e+02 1.52973419e+02 1.52991302e+02 1.53006042e+02 1.53010239e+02 1.53087463e+02 1.53091217e+02 1.53282639e+02 1.53570343e+02 1.54374390e+02 1.54530304e+02 1.54961044e+02 1.55085052e+02 1.55154739e+02 1.55450195e+02 1.55693344e+02 1.56878281e+02 1.57123581e+02 1.57358780e+02 1.57536865e+02 1.58028824e+02 1.58409439e+02 1.59095016e+02 1.59394821e+02 1.59723450e+02 1.59840363e+02 1.60040161e+02 1.60513580e+02 1.60856216e+02 1.61072632e+02 1.61242523e+02 1.61781631e+02 1.62201599e+02 1.62214630e+02 1.62262009e+02 1.62271759e+02 1.62317032e+02 1.63601837e+02 1.63632401e+02 1.64013870e+02 1.64159058e+02 1.64458435e+02 1.64658249e+02 1.64678589e+02 1.64801453e+02 1.64924973e+02 1.65125793e+02 1.65371414e+02 1.65387375e+02 1.65941162e+02 1.66246979e+02 1.66803650e+02 1.67273346e+02 1.67464813e+02 1.67724884e+02 1.68162033e+02 1.68376511e+02 1.68736633e+02 1.69246552e+02 1.69341019e+02 1.69463257e+02 1.70070877e+02 1.70238434e+02 1.70389908e+02 1.70568039e+02 1.70890579e+02 1.71027390e+02 1.71071381e+02 1.71115570e+02 1.72058701e+02 1.72437363e+02 1.73072708e+02 1.73180878e+02 1.73595383e+02 1.74559143e+02 1.75045471e+02 1.75127579e+02 1.75262390e+02 1.75265961e+02 1.75520447e+02 1.75727646e+02 1.76177002e+02 1.76258545e+02 1.76414337e+02 1.76521667e+02 1.77229309e+02 1.77415512e+02 1.77939346e+02 1.77998337e+02 1.78067184e+02 1.78900024e+02 1.79381546e+02 1.79439240e+02 1.79666748e+02 1.79955658e+02 1.80785706e+02 1.81186005e+02 1.81671906e+02 1.81826141e+02 1.82932358e+02 1.84823196e+02 1.84974686e+02 1.85599899e+02 1.85792282e+02 1.86146667e+02 1.86803894e+02 1.87026108e+02 1.87345673e+02 1.87440536e+02 1.88536026e+02 1.88819977e+02 1.90355972e+02 1.90373245e+02 1.91120392e+02 1.91565460e+02 1.92418976e+02 1.92954239e+02 1.93197464e+02 1.93411407e+02 1.93755234e+02 1.95278030e+02 1.96711792e+02 1.97290192e+02 1.98404160e+02 1.98521149e+02 1.98721802e+02 1.99324860e+02 1.99472076e+02 1.99797836e+02 2.00947617e+02 2.01167969e+02 2.02077209e+02 2.03094955e+02 2.03177170e+02 2.03535156e+02 2.04092743e+02 2.06241165e+02 2.07308701e+02 2.07875900e+02 2.07919998e+02 2.08102829e+02 2.08658279e+02 2.08809036e+02 2.09356369e+02 2.09607651e+02 2.09691818e+02 2.10626801e+02 2.12157654e+02 2.14474609e+02 2.14779861e+02 2.15068329e+02 2.16104660e+02 2.16515137e+02 2.17155472e+02 2.17880524e+02 2.17895386e+02 2.18192688e+02 2.18796310e+02 2.20348114e+02 2.20516953e+02 2.20711212e+02 2.20737076e+02 2.22328552e+02 2.23603043e+02 2.23689835e+02 2.23881531e+02 2.24137726e+02 2.24797623e+02 2.25860352e+02 2.27894882e+02 2.28104156e+02 2.29127533e+02 2.30204788e+02 2.31031525e+02 2.31447021e+02 2.32674042e+02 2.32781235e+02 2.33136292e+02 2.33412979e+02 2.35757202e+02 2.36986053e+02 2.39021057e+02 2.39794128e+02 2.40466003e+02 2.41426712e+02 2.43619446e+02 2.46212860e+02 2.47091568e+02 2.47460007e+02 2.48284637e+02 2.48348114e+02 2.49236252e+02 2.49258392e+02 2.49413086e+02 2.54236832e+02 2.54303268e+02 2.63191223e+02 2.68484711e+02 2.68562561e+02 2.72052643e+02 2.72067230e+02 2.73038391e+02 2.76793030e+02 2.81995667e+02 2.83001526e+02 2.83201843e+02 2.83897369e+02 2.86500610e+02 2.89511322e+02 2.89840393e+02 2.95715637e+02 2.97947144e+02 2.98833313e+02 3.00089630e+02 3.02363495e+02 3.07897552e+02 3.09773865e+02 3.12112671e+02 3.21487640e+02 3.22999268e+02 3.47614594e+02 3.57233337e+02 3.60624481e+02 3.64623108e+02 3.69733459e+02 4.23345795e+02 4.26332001e+02 5.39753235e+02 
            </HistogramBinning>
          </PDF>
        </CumulativePDF_cls0>
      </Variable>
    </Transform>
  </Transformations>
  <MVAPdfs/>
  <Weights InputWidth="1" Depth="4" LossFunction="R" OutputFunction="I">
    <Layer ActivationFunction="3">
      <Weights rows="50" cols="1">
        3.5668575286865234e+01 1.2702314853668213e+00 4.3741555213928223e+00 -2.4931547164916992e+01 6.7151672363281250e+01 1.8218053817749023e+01 6.2240173339843750e+01 -1.3187190246582031e+02 -1.2931245422363281e+02 -5.5692447662353516e+01 -9.9304848909378052e-01 1.6186075210571289e+01 -1.1697537231445312e+02 -7.8646080017089844e+01 1.6205984115600586e+01 -7.0894818305969238e+00 2.6339374542236328e+01 -3.7212315201759338e-01 -6.8603186607360840e+00 -1.7034730911254883e+00 -7.1227655410766602e+00 2.2317273616790771e+00 -1.6619753837585449e+00 2.0336942672729492e+00 8.2321586608886719e+00 -5.9575819969177246e+00 -2.0659632682800293e+00 2.3059129714965820e+00 -3.8420524597167969e+01 -3.1671378016471863e-01 6.6475968360900879e+00 9.6544250488281250e+01 8.8124108314514160e-01 -1.0345775604248047e+02 8.3054321289062500e+01 8.0350399017333984e+00 1.1180815696716309e+01 -1.0400693511962891e+02 1.9412759780883789e+01 -2.1683156490325928e+00 4.7243495941162109e+01 -4.8029775619506836e+00 -5.7153186798095703e+01 -3.3521270751953125e+01 6.5220909118652344e+01 1.0430754089355469e+02 -2.1787300109863281e+00 -2.8174673080444336e+01 2.6462810516357422e+01 8.5792045593261719e+00 
      </Weights>
      <Biases rows="50" cols="1">
        -1.0076781272888184e+01 3.7640197753906250e+01 3.4990783691406250e+01 2.2936630249023438e+01 3.4946258544921875e+01 2.5152976989746094e+01 1.5053049087524414e+01 -4.9076671600341797e+01 -2.3355173110961914e+01 -3.9085792541503906e+01 -1.5056273460388184e+01 -2.9083307266235352e+01 -2.0259552001953125e+01 -5.1193790435791016e+01 8.8674766540527344e+01 -7.9791687011718750e+01 1.0197383880615234e+02 1.1700463294982910e+01 3.8968425750732422e+01 5.2683776855468750e+01 2.6547365188598633e+01 -4.7423229217529297e+01 -7.0871086120605469e+01 -2.4417440414428711e+01 4.8342275619506836e+00 3.4815162658691406e+01 2.0665168762207031e+01 -7.4971603393554688e+01 -8.6326690673828125e+01 1.1817561149597168e+01 -3.1868255615234375e+01 2.6297056198120117e+01 -9.5690412521362305e+00 -1.1790454864501953e+02 2.2000326156616211e+01 -7.0697601318359375e+01 -5.5380542755126953e+01 -1.8413545608520508e+01 3.2528240203857422e+01 4.0605442047119141e+01 8.2001426696777344e+01 4.7815097808837891e+01 -7.2957489013671875e+01 3.7967636108398438e+01 2.3778490066528320e+01 4.1493320465087891e+01 1.4081862449645996e+01 7.5198464393615723e+00 4.0637512207031250e+01 4.4351757049560547e+01 
      </Biases>
    </Layer>
    <Layer ActivationFunction="3">
      <Weights rows="50" cols="50">
        1.2156357765197754e+00 1.4301943778991699e+00 -1.3928236961364746e+00 -2.6869566440582275e+00 -6.0090689659118652e+00 3.4627184271812439e-01 -1.8567740917205811e+00 1.7840021848678589e+00 3.1804075241088867e+00 1.9934384822845459e+00 6.3060550689697266e+00 3.5574996471405029e+00 -1.0458554267883301e+01 5.1613050699234009e-01 -9.3149232864379883e+00 4.1204700469970703e+00 5.4610362052917480e+00 -8.7267560958862305e+00 -7.6547594070434570e+00 5.9080255031585693e-01 5.6654562950134277e+00 1.8844695091247559e+00 3.8533678054809570e+00 4.2932276725769043e+00 -4.6739959716796875e+00 -3.6182105541229248e+00 6.5841860771179199e+00 8.2469568252563477e+00 5.7361000776290894e-01 -9.6018486022949219e+00 7.8147697448730469e+00 -2.5307974219322205e-01 5.6168079376220703e+00 5.0485343933105469e+00 1.2550748825073242e+01 5.4466657638549805e+00 2.1963102817535400e+00 -7.4178278446197510e-02 -3.9969775676727295e+00 1.5179520845413208e+00 -4.3323431015014648e+00 6.3624505996704102e+00 9.4028943777084351e-01 -2.8066034317016602e+00 1.5249615907669067e+00 -2.5939579010009766e+00 -6.4137253761291504e+00 3.8028779029846191e+00 -1.8546022176742554e+00 -4.4126224517822266e+00 1.9013748168945312e+00 4.0430841445922852e+00 2.9191123321652412e-02 4.0727958679199219e+00 1.4565114974975586e+00 2.3171563148498535e+00 3.2498123645782471e+00 -8.8899576663970947e-01 -3.7982666492462158e-01 3.9761051535606384e-02 -7.3409852981567383e+00 -4.0850410461425781e+00 6.8685322999954224e-01 -8.6218863725662231e-01 3.3149614334106445e+00 -2.7344934940338135e+00 -1.5047097206115723e+00 1.9598209857940674e+00 6.2538781166076660e+00 1.3165247440338135e+00 -2.8777733445167542e-01 -1.1656851768493652e+00 -1.6025677919387817e+00 -2.5510530471801758e+00 2.7764596939086914e+00 2.1923599243164062e+00 -1.8373559713363647e+00 -1.8040490150451660e+00 -1.9679425954818726e+00 2.8147759437561035e+00 -4.2474956512451172e+00 -1.4533755183219910e-01 -3.3369414806365967e+00 -1.0532615184783936e+00 -5.2526731491088867e+00 -3.0722100734710693e+00 9.0351068973541260e-01 1.9680304527282715e+00 1.5939924716949463e+00 1.9628583192825317e+00 2.2096266746520996e+00 -3.7234578132629395e+00 -1.5148288011550903e-01 1.1425808668136597e+00 -4.7184624671936035e+00 3.7407025694847107e-01 3.7829024791717529e+00 -2.5525076389312744e+00 1.5555807352066040e+00 4.1313958168029785e+00 -8.4596157073974609e+00 -3.6006469726562500e+00 -1.1013696670532227e+01 -1.7384748458862305e+01 -1.4605302810668945e+01 -2.3505697250366211e+00 -5.1464200019836426e+00 5.6828503608703613e+00 -2.5540883541107178e+00 1.2312563657760620e+00 1.1076319694519043e+01 7.9095225334167480e+00 -2.2092494964599609e+01 -1.2779036521911621e+01 -1.7710773468017578e+01 4.6085987091064453e+00 8.8738040924072266e+00 -1.4280023574829102e+01 -2.6650104522705078e+01 -6.7706413269042969e+00 -4.2772369384765625e+00 -1.9435386657714844e+00 -2.5260720252990723e+00 1.8184001922607422e+01 -3.2656846046447754e+00 2.1655242443084717e+00 1.0575789451599121e+01 7.3766884803771973e+00 3.8790938854217529e+00 -9.1549406051635742e+00 1.8720682144165039e+01 4.6642017364501953e+00 1.2407984733581543e+01 2.6621935367584229e+00 2.1854114532470703e+01 -1.0760630369186401e+00 -6.3117866516113281e+00 -4.9419209361076355e-02 3.3164179325103760e+00 7.8343563079833984e+00 -7.5164284706115723e+00 3.1691288948059082e+00 -3.0179374217987061e+00 -9.7517662048339844e+00 -8.2978506088256836e+00 1.0512899398803711e+01 -1.8017311096191406e+01 3.5175294876098633e+00 1.3822940587997437e+00 -1.1633903503417969e+01 2.2203814983367920e+00 1.0657393932342529e-01 -6.1540689468383789e+00 -4.7925047874450684e+00 -2.9066121578216553e+00 -4.1801729202270508e+00 3.7487814426422119e+00 3.9790922403335571e-01 1.1736855506896973e+00 1.8212178945541382e+00 9.8279848098754883e+00 6.4137015342712402e+00 -1.0751165390014648e+01 2.9485225677490234e+00 -5.1201262474060059e+00 5.2890930175781250e+00 -5.9804387092590332e+00 -4.9168906211853027e+00 -2.2867889404296875e+00 -1.2271055221557617e+01 5.6948175430297852e+00 8.2516765594482422e+00 9.7705030441284180e+00 1.0409499406814575e+00 -9.5598173141479492e-01 -6.2476091384887695e+00 -1.1156072616577148e+01 4.3212347030639648e+00 2.5326838493347168e+00 -3.7718467712402344e+00 9.5254774093627930e+00 -6.5034627914428711e-01 7.1471118927001953e+00 -1.9759515523910522e+00 4.5398602485656738e+00 8.6498222351074219e+00 5.6271309852600098e+00 3.3464004993438721e+00 5.2828091382980347e-01 -9.1053895950317383e+00 -2.1248848438262939e+00 -1.0699996948242188e+01 2.3233725130558014e-01 -5.3137922286987305e-01 3.3268532752990723e+00 -1.0122723579406738e+00 -2.4328012466430664e+00 -2.6676571369171143e-01 -6.8694009780883789e+00 3.3494691848754883e+00 4.3668963015079498e-02 -1.5063825845718384e+00 -1.0192894935607910e+00 4.4932755827903748e-01 -2.0899045467376709e+00 -1.4597344398498535e+00 -4.5494416356086731e-01 -5.5434519052505493e-01 1.1718304157257080e+00 2.5079798698425293e+00 1.1779317855834961e+00 -1.3147765398025513e+00 -4.9053367972373962e-01 1.1389797180891037e-01 5.4084632545709610e-02 4.0292340517044067e-01 1.6837604045867920e+00 -1.8170841932296753e+00 -3.9155015349388123e-01 -1.1026431322097778e+00 6.1595392227172852e-01 6.2777274847030640e-01 2.3425905406475067e-01 5.4859864711761475e-01 -2.9435205459594727e+00 -3.9669620990753174e-01 7.5081461668014526e-01 1.8183270096778870e-01 5.6125869750976562e+00 -1.4382843971252441e+00 5.4841309785842896e-01 -1.9493636488914490e-01 1.2110465764999390e+00 3.1544203758239746e+00 -2.3302108049392700e-01 1.1485309600830078e+00 9.8540806770324707e-01 1.3037338256835938e+00 -3.9335734844207764e+00 2.0802386105060577e-01 -7.9780840873718262e+00 6.8415760993957520e-01 2.9635472297668457e+00 4.3268465995788574e-01 -1.5815565586090088e+00 -6.1614017933607101e-02 -1.7482767105102539e+00 1.6713875532150269e+00 -6.1116662025451660e+00 -1.9173642396926880e+00 1.9262214899063110e+00 5.5872778892517090e+00 1.6594021320343018e+00 -1.0036962032318115e+00 7.6107006072998047e+00 7.1795239448547363e+00 9.1269903182983398e+00 -3.8809504508972168e+00 -2.8207607269287109e+00 -5.8188357353210449e+00 -1.3529314994812012e+01 -4.0597462654113770e+00 -1.2821029424667358e+00 -6.5050587654113770e+00 8.4782676696777344e+00 -9.3608837127685547e+00 -1.1715126991271973e+01 1.5792402029037476e+00 4.0258150100708008e+00 -3.4640610218048096e+00 -5.9221711158752441e+00 2.3018729686737061e+00 -6.0094761848449707e+00 -5.0562591552734375e+00 6.3830113410949707e+00 -2.8342220187187195e-01 -1.0410837173461914e+01 -4.9279308319091797e+00 -7.0323643684387207e+00 7.0124926567077637e+00 8.9756399393081665e-01 1.6438657045364380e+00 -1.1233187675476074e+01 -2.2797527313232422e+00 -4.5352992415428162e-01 4.4270439147949219e+00 -4.4235339164733887e+00 4.1628813743591309e-01 6.9654431343078613e+00 1.4007376134395599e-01 7.3084998130798340e+00 -2.0921912193298340e+00 -6.1974706649780273e+00 -3.6624753475189209e+00 -1.4991060495376587e+00 -3.5521059036254883e+00 8.0094108581542969e+00 -1.3618805885314941e+01 6.0886087417602539e+00 4.5256977081298828e+00 -7.8984098434448242e+00 -2.0386002063751221e+00 9.4224319458007812e+00 1.7987125396728516e+01 1.9517474174499512e+00 1.0302408218383789e+01 5.2281422615051270e+00 -9.8436689376831055e+00 4.1464695930480957e+00 -2.4699788093566895e+00 -8.6262798309326172e+00 -1.0716985702514648e+01 8.9857091903686523e+00 7.5938420295715332e+00 1.8117498397827148e+01 4.1532697677612305e+00 8.7087669372558594e+00 7.3021473884582520e+00 1.8926879882812500e+01 1.2340466499328613e+01 1.3427562713623047e+01 -1.5974516868591309e+00 4.8542814254760742e+00 1.5335711240768433e+00 -7.9676284790039062e+00 4.9845108985900879e+00 1.8165956497192383e+01 -1.1216348648071289e+01 2.2273654937744141e+00 7.5581693649291992e+00 -1.8304615020751953e+01 -1.7236322164535522e+00 -8.7524747848510742e+00 7.2733011245727539e+00 -1.0354343414306641e+01 -5.6647171974182129e+00 -1.7180449962615967e+00 -7.5372219085693359e+00 -5.2002811431884766e+00 2.1603658676147461e+01 -4.4526238441467285e+00 1.8125621795654297e+01 -1.8427308797836304e+00 2.3253194808959961e+01 -1.1136050224304199e+01 -2.7305648326873779e+00 7.8910384178161621e+00 -3.8119204044342041e+00 3.0076854228973389e+00 -6.6144762039184570e+00 -1.2940925598144531e+01 -1.5048529624938965e+01 -1.5629752159118652e+01 1.5885325431823730e+01 -1.7571304321289062e+01 -1.3354304313659668e+01 -1.8766298294067383e+01 1.4288665771484375e+01 -1.5821056365966797e+00 1.6521123886108398e+01 1.3389276504516602e+01 -1.6139633178710938e+01 1.5608757972717285e+01 1.2005024909973145e+01 1.3520949363708496e+01 1.4987171173095703e+01 1.8294618606567383e+01 2.3291010856628418e+00 -1.4778676033020020e+01 1.6740541458129883e+01 1.2936830520629883e+01 1.4076167106628418e+01 1.5929165840148926e+01 1.2679541587829590e+01 2.7480857372283936e+00 -1.5013757705688477e+01 1.6987182617187500e+01 1.5431423187255859e+01 1.7040323257446289e+01 8.9137858152389526e-01 1.2052297592163086e+01 -1.1683524131774902e+01 1.3941631317138672e+01 1.5910392761230469e+01 -1.4793542861938477e+01 1.5096307754516602e+01 1.2817383766174316e+01 1.3644216537475586e+01 -1.4704195976257324e+01 -1.2406086921691895e+01 -2.2784113883972168e+00 -8.7059412002563477e+00 1.1939888954162598e+01 9.5891219377517700e-01 -1.2597444534301758e+01 -1.4580056190490723e+01 -1.5507865905761719e+01 3.0540723800659180e+00 -1.5703768730163574e+01 -1.5590423583984375e+01 -9.2457550764083862e-01 -2.5487089157104492e+01 -2.4631824493408203e+01 2.7355812072753906e+01 -2.5840066909790039e+01 -2.5044303894042969e+01 -2.5704338073730469e+01 2.6942960739135742e+01 1.9993536472320557e+00 2.5505615234375000e+01 2.5793869018554688e+01 -2.5747390747070312e+01 2.7298707962036133e+01 2.6165893554687500e+01 4.6616122126579285e-01 2.5232910156250000e+01 2.6602581024169922e+01 -2.4619077682495117e+01 2.7401899337768555e+01 2.7350046157836914e+01 1.0058659315109253e+00 2.5373016357421875e+01 2.4826602935791016e+01 2.4706672668457031e+01 -2.6621286392211914e+01 7.6360660791397095e-01 2.6262851715087891e+01 2.4774345397949219e+01 2.5185844421386719e+01 -2.4740530014038086e+01 -2.6696096420288086e+01 -1.2634167671203613e+00 2.4654869079589844e+01 2.6734533309936523e+01 -2.6727493286132812e+01 -8.4923726320266724e-01 2.6189060211181641e+01 1.3581920862197876e+00 -2.5194374084472656e+01 2.6699329376220703e+01 -2.4933233261108398e+01 2.6073686599731445e+01 2.5990371704101562e+01 1.2097067832946777e+00 2.7697965502738953e-02 -2.7155900955200195e+01 -2.4557298660278320e+01 2.6378217697143555e+01 -2.5106538772583008e+01 -2.4397069931030273e+01 -2.6782100200653076e+00 -1.9802644252777100e+00 2.5464732646942139e+00 3.4460725784301758e+00 -9.7145497798919678e-01 3.4491302967071533e+00 -2.6618921756744385e+00 9.9460440874099731e-01 -2.1039481163024902e+00 -6.3627886772155762e+00 -8.7488212585449219e+00 -1.0216635704040527e+01 8.1904058456420898e+00 -2.9685306549072266e+00 8.0121099948883057e-01 -6.0448451042175293e+00 3.0786259174346924e+00 3.5390775203704834e+00 4.0154522657394409e-01 3.3849232196807861e+00 -7.0305986404418945e+00 -7.3911123275756836e+00 -8.0710468292236328e+00 2.1787061691284180e+00 -3.3497270941734314e-01 5.2309336662292480e+00 4.0123734474182129e+00 -3.2703666687011719e+00 1.4395012855529785e+00 6.3538980484008789e+00 -9.5973606109619141e+00 3.3351461887359619e+00 -6.3592209815979004e+00 -1.6255122423171997e+00 -5.9429974555969238e+00 -6.5783782005310059e+00 -7.0614190101623535e+00 7.4677429199218750e+00 5.6343564987182617e+00 2.3469963073730469e+00 4.6370620727539062e+00 3.5852570533752441e+00 2.9205763339996338e+00 8.1925878524780273e+00 -5.4912910461425781e+00 3.5125329494476318e+00 3.9820148944854736e+00 1.7842297554016113e+00 7.3314080238342285e+00 -3.1047065258026123e+00 5.6147098541259766e+00 1.5064776420593262e+01 8.9151573181152344e+00 4.1750457763671875e+01 -1.0828160047531128e+00 9.8000392913818359e+00 2.7703261375427246e+00 -1.6033355712890625e+01 4.4589281082153320e+00 -1.1462774276733398e+01 -1.8105209350585938e+01 -3.0705625534057617e+01 1.2531112670898438e+01 1.7500996589660645e+00 4.1395763397216797e+01 -1.1449553489685059e+01 1.6876501083374023e+01 1.7147304534912109e+01 1.5231587409973145e+01 1.0959019660949707e+01 3.1609926223754883e+01 -1.0376302719116211e+01 -1.7503789663314819e+00 -8.8535337448120117e+00 1.2941697120666504e+01 1.5738092422485352e+01 1.4205195426940918e+01 -9.0679168701171875e+00 2.1460838317871094e+00 1.3330535888671875e+01 -2.5846343994140625e+01 1.0316477775573730e+01 -1.5323876380920410e+01 -1.4250762939453125e+01 -1.1199297904968262e+00 -1.2535226821899414e+01 -1.1999598503112793e+01 -1.7297611236572266e+01 7.7403221130371094e+00 1.8900732040405273e+01 1.4181726455688477e+01 1.9946540832519531e+01 -9.7877616882324219e+00 4.8330578804016113e+00 1.1288104057312012e+01 1.0871912002563477e+01 1.7509387969970703e+01 -1.4410052299499512e+00 8.3583440780639648e+00 1.2765257835388184e+01 8.3568030595779419e-01 2.1223688125610352e+00 6.2888979911804199e+00 5.7884235382080078e+00 9.0586633682250977e+00 7.7345746755599976e-01 7.7733221054077148e+00 7.1862449645996094e+00 4.9520215988159180e+00 -1.5889331102371216e+00 -4.7475895881652832e+00 1.9197490215301514e+00 5.1812796592712402e+00 2.5249798297882080e+00 6.3355636596679688e+00 -3.8868911266326904e+00 -4.3229870796203613e+00 4.1426286697387695e+00 6.9168252944946289e+00 3.5030961036682129e+00 1.1580543518066406e+00 -6.2507420778274536e-01 -3.0697817802429199e+00 -2.2145993709564209e+00 -2.2336423397064209e+00 2.8798624873161316e-01 -4.5206971168518066e+00 -5.1173114776611328e+00 -3.0872559547424316e+00 3.3553578853607178e+00 -3.0951457023620605e+00 -4.5716967582702637e+00 -2.8286592960357666e+00 -3.2281079292297363e+00 -3.0927622318267822e+00 -2.9826657772064209e+00 1.0664693117141724e+00 1.5134123563766479e+00 -1.0951730012893677e+00 -1.1497248411178589e+00 5.3278236389160156e+00 -7.9536085128784180e+00 -1.1386375129222870e-01 5.2557053565979004e+00 3.5927239060401917e-01 -2.8266654014587402e+00 6.5206718444824219e+00 -8.3222169876098633e+00 3.0631801113486290e-02 6.6665163040161133e+00 -1.7794450759887695e+01 -7.6823754310607910e+00 -4.1018443107604980e+00 2.1063976287841797e+01 -7.9062433242797852e+00 -6.0876412391662598e+00 -1.2662194252014160e+01 1.0288164138793945e+01 1.4817530632019043e+01 1.1344759941101074e+01 -1.0631674766540527e+01 -6.8334197998046875e+00 1.2041693687438965e+01 9.6829862594604492e+00 2.6261751174926758e+01 3.0273969173431396e+00 -4.9699831008911133e+00 -7.7722053527832031e+00 2.7001576423645020e+00 -1.4092257022857666e+00 8.7731199264526367e+00 4.9998478889465332e+00 6.5116014480590820e+00 3.8572123050689697e+00 -9.2345647811889648e+00 -6.7247762680053711e+00 2.1319236755371094e+00 1.0125205993652344e+01 7.0724797248840332e+00 -9.2745075225830078e+00 -2.1476759910583496e+00 -1.5683385133743286e+00 7.7755479812622070e+00 1.1961426734924316e+01 -2.6127342224121094e+01 5.9170784950256348e+00 1.0527936935424805e+01 1.7913789749145508e+01 -9.6804285049438477e+00 5.1465234756469727e+00 -5.3750729560852051e+00 4.4295387268066406e+00 1.6973276138305664e+00 2.4771217346191406e+01 -2.2887449264526367e+01 -1.3254477500915527e+01 -5.2177839279174805e+00 1.2261081695556641e+01 -1.1618609428405762e+01 -5.9952626228332520e+00 3.0678910017013550e-01 1.1065858602523804e+00 3.4069962501525879e+00 2.2306723594665527e+00 4.4186177253723145e+00 5.1904779672622681e-01 3.6444485187530518e+00 3.2335648536682129e+00 2.1805310249328613e+00 -6.7775291204452515e-01 -1.9309490919113159e+00 1.8066297471523285e-01 2.0885224342346191e+00 8.0621188879013062e-01 2.9523999691009521e+00 -2.1246182918548584e+00 -2.5518357753753662e+00 1.1428093910217285e+00 3.2685527801513672e+00 2.0403375625610352e+00 6.0116398334503174e-01 -7.2287839651107788e-01 -1.6141440868377686e+00 -1.1241104602813721e+00 -4.2473089694976807e-01 -8.7127059698104858e-02 -1.9410233497619629e+00 -3.2264468669891357e+00 -1.8759676218032837e+00 2.1018319129943848e+00 -4.2542001605033875e-01 -1.6609508991241455e+00 -8.8682633638381958e-01 -2.1164140701293945e+00 -1.6674119234085083e+00 -1.6358370780944824e+00 -1.0514975525438786e-02 3.7718892097473145e-01 3.7489289045333862e-01 -7.1043640375137329e-01 2.6314575672149658e+00 -4.0231790542602539e+00 -7.9644910991191864e-02 2.1542494297027588e+00 3.8727641105651855e-01 -1.2217357158660889e+00 3.1297929286956787e+00 -4.5392923355102539e+00 4.0262582898139954e-01 3.8481194972991943e+00 -1.3328883647918701e+00 8.0844604969024658e-01 -1.7288837432861328e+00 -5.9495482444763184e+00 -5.7101378440856934e+00 -3.2375523447990417e-01 -1.4925353527069092e+00 -4.2745532989501953e+00 -2.5161108970642090e+00 8.6540818214416504e-01 4.2025885581970215e+00 3.3850333690643311e+00 -4.0956311225891113e+00 -1.7953130602836609e-01 -7.6995453834533691e+00 3.1235399246215820e+00 1.3737213611602783e+00 -2.6584556102752686e+00 -6.7890968322753906e+00 -5.2808470726013184e+00 -7.0353400707244873e-01 -4.2761005461215973e-02 2.5722081661224365e+00 2.1024992465972900e+00 -2.7433609962463379e+00 -8.9726942777633667e-01 -5.5686670541763306e-01 2.6627938747406006e+00 1.7362536191940308e+00 -2.8145375251770020e+00 6.1964969635009766e+00 1.9515266418457031e+00 1.9427908658981323e+00 2.0362288951873779e+00 5.0776505470275879e+00 7.1351510286331177e-01 -1.0229049921035767e+00 -1.1956231296062469e-01 2.0146179199218750e+00 -2.8957302570343018e+00 -3.6871912479400635e+00 2.7701528072357178e+00 6.6097790002822876e-01 -4.0791649818420410e+00 -2.3759081363677979e+00 2.3516445159912109e+00 -3.7447121143341064e+00 3.0602707862854004e+00 1.3077272474765778e-01 -5.1669063568115234e+00 9.0292915701866150e-02 -2.2178521156311035e+00 -4.3178892135620117e+00 -4.3462700843811035e+00 -7.2012486457824707e+00 -6.0063785314559937e-01 -5.7538094520568848e+00 -5.6746201515197754e+00 -6.3749437332153320e+00 1.3952642679214478e+00 3.0575790405273438e+00 -9.3167446553707123e-02 -3.8227286338806152e+00 -7.8475880622863770e-01 -5.4465036392211914e+00 3.6736085414886475e+00 1.8381711244583130e+00 -2.2762789726257324e+00 -5.4791202545166016e+00 -4.7095317840576172e+00 -1.6636451482772827e+00 1.4210402965545654e+00 2.8755581378936768e+00 3.3011186122894287e-01 5.0022453069686890e-01 -1.0107318162918091e+00 2.2646894454956055e+00 5.3591094017028809e+00 3.2267084121704102e+00 -3.7662763595581055e+00 1.3051416873931885e+00 3.2297587394714355e+00 2.8874385356903076e-01 3.1250369548797607e+00 5.1170593500137329e-01 2.6134576797485352e+00 4.2588236927986145e-01 6.1378842592239380e-01 -8.4294145926833153e-03 -2.0393133163452148e-01 -4.1490306854248047e+00 5.5134749412536621e+00 1.4361246824264526e+00 -3.5576100349426270e+00 -5.3443759679794312e-01 1.0642771720886230e+00 -4.7320966720581055e+00 5.8452253341674805e+00 -9.6863108873367310e-01 -6.7248640060424805e+00 -2.3273548126220703e+01 -1.0971335411071777e+01 -1.0356667518615723e+01 2.2163784027099609e+01 -1.1299730300903320e+01 -1.2241390228271484e+01 -6.5358791351318359e+00 3.5651130676269531e+00 2.1791501998901367e+01 7.9503974914550781e+00 -1.0353172302246094e+01 -1.4826205253601074e+01 1.8422664642333984e+01 1.4433184862136841e+00 1.6304573059082031e+01 -1.3627076148986816e+00 1.7968652725219727e+01 -6.0390096157789230e-02 2.1150386810302734e+01 -7.4565510749816895e+00 7.2363319396972656e+00 -5.6765371561050415e-01 1.1764845848083496e+01 1.1073703765869141e+00 -1.3257170677185059e+01 1.9832946062088013e+00 1.8411603927612305e+01 1.1085695266723633e+01 8.3765792846679688e+00 4.9904561042785645e+00 -8.5169963836669922e+00 -2.1188455581665039e+01 -4.4289145469665527e+00 7.2180647850036621e+00 -1.8803339004516602e+01 -2.9213695526123047e+00 3.9212300777435303e+00 1.8784292221069336e+01 -1.4894885063171387e+01 9.2012481689453125e+00 -7.8876066207885742e+00 2.0300891876220703e+01 1.4618561744689941e+01 1.5565027236938477e+01 -9.4309453964233398e+00 -3.8298115730285645e+00 -9.9692907333374023e+00 2.1821903228759766e+01 4.8679208755493164e+00 -9.7343082427978516e+00 6.6100144386291504e+00 3.2536950111389160e+00 1.8248054981231689e+00 -5.4428939819335938e+00 5.6271114349365234e+00 3.5086562633514404e+00 -7.4589610099792480e+00 -7.2929854393005371e+00 -9.2013067007064819e-01 -4.7435741424560547e+00 -3.1685656309127808e-01 -2.8629963397979736e+00 -1.8547689914703369e+00 -6.0394883155822754e+00 -2.2334396839141846e+00 -2.5466327667236328e+00 -1.9842888116836548e+00 4.6590542793273926e+00 5.6020750999450684e+00 -2.0746922492980957e+00 -7.4300823211669922e+00 -3.8979234695434570e+00 -3.8215653896331787e+00 -8.4100408554077148e+00 6.8734560012817383e+00 3.9769656658172607e+00 -9.5938676595687866e-01 -3.8102440834045410e+00 -3.2547860145568848e+00 3.5623452663421631e+00 -6.7264347076416016e+00 7.5768361091613770e+00 -5.4003410339355469e+00 -2.0377058982849121e+00 2.1788220405578613e+00 1.4490264654159546e+00 -4.2842745780944824e+00 -6.9823698997497559e+00 5.8637843132019043e+00 -2.1500570774078369e+00 2.3535437583923340e+00 4.5112080574035645e+00 -7.3072772026062012e+00 -6.5489020347595215e+00 5.3713445663452148e+00 6.7295637130737305e+00 4.3686938285827637e+00 -3.8124554157257080e+00 2.7587645053863525e+00 -5.2415949106216431e-01 2.3302366256713867e+01 -9.1263580322265625e-01 -9.9307336807250977e+00 -1.6918300628662109e+01 1.9978023767471313e+00 1.5978202819824219e+00 1.8268629074096680e+01 -5.6618223190307617e+00 -1.9038043975830078e+01 -8.4056407213211060e-01 -1.5389468669891357e+00 2.4211742401123047e+01 -1.6249692916870117e+01 -4.8463139533996582e+00 -2.1985387802124023e+01 1.2047985792160034e+00 -7.1218466758728027e+00 1.7641744613647461e+00 7.4875342845916748e-01 -4.5860514640808105e+00 -2.0625753402709961e+01 5.9529542922973633e+00 -3.1837570667266846e+00 -4.2053041458129883e+00 4.0032668113708496e+00 1.9697408676147461e+00 -3.9910411834716797e+00 8.6578732728958130e-01 -2.9093673229217529e+00 -4.2878675460815430e+00 6.6580734252929688e+00 1.8739168167114258e+01 1.9070568084716797e+00 -2.6949465274810791e+00 1.8089157104492188e+01 -5.0866851806640625e+00 9.1263904571533203e+00 -9.6050271987915039e+00 1.4239719510078430e-01 -8.5226716995239258e+00 -6.9830341339111328e+00 -5.3247995376586914e+00 2.2965180873870850e+00 -1.1910363197326660e+01 -1.4432290196418762e-01 1.0952556133270264e+00 8.1918555498123169e-01 -2.1294408798217773e+01 7.4497251510620117e+00 5.6015353202819824e+00 -4.3010687828063965e+00 -8.2651233673095703e+00 -5.6715202331542969e+00 -1.8936551809310913e+00 -8.5774345397949219e+00 -4.1799287796020508e+00 -4.3108406066894531e+00 -8.4880203008651733e-02 2.0613932609558105e+00 7.3672480583190918e+00 1.1732667922973633e+01 2.0058352947235107e+00 -7.3822283744812012e+00 -1.8993154764175415e+00 -1.7382610321044922e+01 7.4616713523864746e+00 1.5004178047180176e+01 -4.9406762123107910e+00 -1.7096878051757812e+01 -1.0232370376586914e+01 4.2518954277038574e+00 7.1496338844299316e+00 7.0434060096740723e+00 7.5961675643920898e+00 -8.1548509597778320e+00 -8.6041812896728516e+00 3.3905558586120605e+00 -2.7598191052675247e-02 8.4798488616943359e+00 -1.1327038764953613e+01 1.8153198242187500e+01 -5.8111710548400879e+00 1.2742714881896973e+01 6.2197809219360352e+00 1.6472370147705078e+01 9.4402513504028320e+00 7.2981619834899902e+00 7.6724529266357422e+00 2.0829193592071533e+00 -8.3896837234497070e+00 -4.5572643280029297e+00 -9.9526319503784180e+00 -2.9367280006408691e+00 1.1706308126449585e+00 3.4110035896301270e+00 4.7847032546997070e+00 -1.2934997558593750e+01 5.0437026023864746e+00 -7.7779779434204102e+00 -5.1382746696472168e+00 -8.6193132400512695e+00 -7.8072514533996582e+00 1.5650947570800781e+01 3.1646358966827393e-01 5.4557342529296875e+00 1.6352745056152344e+01 -1.4970973014831543e+01 5.4242396354675293e+00 -6.8357543945312500e+00 -1.4581991195678711e+01 -1.4866813659667969e+01 -1.8373970031738281e+01 2.0928842544555664e+01 -5.8909416198730469e+00 4.1741566658020020e+00 -1.6847818374633789e+01 1.3408548355102539e+01 1.7466526031494141e+01 6.6569843292236328e+00 7.7105698585510254e+00 -1.8891601562500000e+01 -1.9008285522460938e+01 -1.3590256690979004e+01 1.1318401336669922e+01 -3.7524423599243164e+00 1.0074050903320312e+01 1.6981195449829102e+01 -1.6293788909912109e+01 3.7007205486297607e+00 1.9227373123168945e+01 -1.6420288085937500e+01 9.4706497192382812e+00 -1.1041070938110352e+01 -6.3641743659973145e+00 -8.7553176879882812e+00 -1.8342018127441406e+01 -1.9464080810546875e+01 9.2439861297607422e+00 1.5074807167053223e+01 1.6593296051025391e+01 1.2590909957885742e+01 1.6226661682128906e+01 -2.3099842071533203e+00 1.1438503265380859e+01 -1.1856643676757812e+01 -2.2776474952697754e+00 1.9278686523437500e+01 8.8684568405151367e+00 1.4626766204833984e+01 -7.8314862251281738e+00 3.3806443214416504e-01 3.3308682441711426e+00 -6.6965378820896149e-02 7.8962335586547852e+00 7.6220422983169556e-01 -2.7023468017578125e+00 7.3832052946090698e-01 4.5849571228027344e+00 -1.3524405956268311e+00 -3.9171967506408691e+00 -7.0533809661865234e+00 -2.8141491413116455e+00 8.2133646011352539e+00 -4.6126470565795898e+00 9.4088335037231445e+00 -2.8214311599731445e+00 9.7761869430541992e+00 1.0498229026794434e+01 7.1680459976196289e+00 9.3962755203247070e+00 1.4299376010894775e+00 -7.3955655097961426e+00 -4.6897158622741699e+00 2.0337026119232178e+00 5.6450457572937012e+00 6.4962549209594727e+00 1.2279946327209473e+01 -7.0889620780944824e+00 1.9061028957366943e+00 8.2389249801635742e+00 -1.3504883766174316e+01 -5.2000150680541992e+00 -7.5089721679687500e+00 3.7446424365043640e-01 2.2262706756591797e+00 -7.0102529525756836e+00 9.0546792745590210e-01 -4.7129020690917969e+00 3.8521699905395508e+00 1.1394378662109375e+01 4.8928461074829102e+00 5.3215193748474121e+00 -3.0473754405975342e+00 9.0431537628173828e+00 6.2237720489501953e+00 1.1490345001220703e+00 8.7102079391479492e+00 4.7697644233703613e+00 3.8210062980651855e+00 6.3163417577743530e-01 1.8946819305419922e+00 1.3247042894363403e+00 2.5453107357025146e+00 1.5692962408065796e+00 2.5119142532348633e+00 -1.2892005033791065e-02 3.3510370254516602e+00 -3.3154836297035217e-01 1.1098970472812653e-01 4.9437224864959717e-01 2.3133033514022827e-01 2.1687517166137695e+00 4.6732974052429199e+00 2.5693736076354980e+00 2.7691669464111328e+00 -1.0004799365997314e+00 -3.0715520381927490e+00 2.9370014667510986e+00 4.8175115585327148e+00 -7.8284925222396851e-01 7.0481395721435547e-01 -3.2358640432357788e-01 2.8606280684471130e-01 -4.4324765205383301e+00 5.6984481811523438e+00 -1.4387701451778412e-01 -4.6302852630615234e+00 -8.7814968824386597e-01 -1.8302838802337646e+00 1.3121052980422974e+00 -2.3596789836883545e+00 -4.5322293043136597e-01 -3.5311288833618164e+00 -4.2791676521301270e-01 -4.7849230766296387e+00 -4.1502606868743896e-01 9.5634329319000244e-01 2.1577291488647461e+00 1.0187470912933350e+00 -5.3340089321136475e-01 2.1214179992675781e+00 -3.8504023551940918e+00 -5.4836105555295944e-02 5.3338581323623657e-01 2.5257203578948975e+00 -1.2428938150405884e+00 3.8568978309631348e+00 -1.7607098817825317e+00 -9.2107969522476196e-01 2.6335656642913818e+00 -6.3017020225524902e+00 -2.6554157733917236e+00 -2.1345033645629883e+00 -1.7317337989807129e+00 -4.8923339843750000e+00 -4.2143721580505371e+00 -2.6487853527069092e+00 3.8264896869659424e+00 1.9673728942871094e+00 1.5481853485107422e+00 2.6431009173393250e-01 1.8018053770065308e+00 -1.1485826969146729e+00 3.8912472724914551e+00 -2.4446148872375488e+00 1.7442424297332764e+00 5.7064938545227051e+00 -3.4957671165466309e+00 -2.4016296863555908e+00 -8.9030909538269043e-01 4.6843252182006836e+00 3.0792424678802490e+00 3.2671301364898682e+00 4.2846550941467285e+00 -2.4388582706451416e+00 -1.0156537294387817e+00 1.6072753667831421e+00 2.1899480819702148e+00 5.5742850303649902e+00 -1.4971939325332642e+00 7.1410089731216431e-01 -3.8219027519226074e+00 7.4673044681549072e-01 5.3297400474548340e+00 2.5368173122406006e+00 3.9001259803771973e+00 6.6142892837524414e+00 5.1724185943603516e+00 -7.8795151710510254e+00 -2.0340323448181152e+00 -8.4830589294433594e+00 3.8937525749206543e+00 6.8711223602294922e+00 -2.0027074813842773e+00 -2.4170250892639160e+00 -3.6568465232849121e+00 -1.2819147109985352e+00 6.3797950744628906e+00 -6.7188239097595215e+00 -1.4932845830917358e+00 -1.6800458908081055e+01 -1.7586141586303711e+01 4.5943241119384766e+00 1.8878437042236328e+01 -4.3608884811401367e+00 4.3714170455932617e+00 -9.6137171983718872e-01 1.3681844711303711e+01 2.9119408130645752e+00 -1.5760974884033203e+00 -1.0913193702697754e+01 -2.0104085922241211e+01 3.1939195632934570e+01 6.9608917236328125e+00 1.1540410995483398e+01 -2.1389238834381104e+00 2.6003513336181641e+01 1.3516769409179688e+01 8.2257719039916992e+00 6.3473882675170898e+00 8.2733935117721558e-01 1.4833393096923828e+00 -1.7950184345245361e+00 7.3584556579589844e+00 -1.3139896392822266e+01 1.0435031652450562e+00 2.9723373413085938e+01 -6.2186493873596191e+00 8.9390945434570312e+00 2.2240314483642578e+00 -1.3201944351196289e+01 1.3552980422973633e+00 -1.2626593589782715e+01 6.3557343482971191e+00 -6.6178750991821289e+00 -7.8379344940185547e+00 -9.2151718139648438e+00 1.8307908773422241e+00 3.1842665672302246e+00 1.9692239761352539e+01 1.5928019285202026e+00 2.3810304641723633e+01 -5.9518599510192871e-01 2.8579656600952148e+01 -1.7536502838134766e+01 -4.0962114334106445e+00 1.3555493354797363e+01 3.0650966644287109e+01 8.7483615875244141e+00 -1.6955129623413086e+01 1.3264656066894531e+00 -1.9618048667907715e+00 -2.2583887577056885e+00 -8.6974948644638062e-01 -2.6488342881202698e-01 -2.5172674655914307e+00 -7.5439351797103882e-01 -9.7042852640151978e-01 4.2299337685108185e-02 1.0601993799209595e+00 8.9946681261062622e-01 1.0372933149337769e+00 -5.4384464025497437e-01 4.1030564904212952e-01 9.9769169092178345e-01 3.0139989852905273e+00 -3.5964578390121460e-01 -2.9124743305146694e-03 -1.5095161199569702e+00 -6.6630534827709198e-02 1.0826230049133301e+00 2.6165516376495361e+00 3.2867231369018555e+00 -1.6595779657363892e+00 -1.3188792467117310e+00 -2.2399816513061523e+00 5.2222564816474915e-02 2.9802236557006836e+00 2.5406687259674072e+00 -2.5391727685928345e-01 9.1352677345275879e-01 4.6455129981040955e-01 4.4089060276746750e-02 2.4624127149581909e-01 1.1168229579925537e+00 1.2318894863128662e+00 2.4505133628845215e+00 -6.4865642786026001e-01 -1.2630313634872437e+00 -5.0099194049835205e-01 -1.9224159717559814e+00 1.3134107589721680e+00 5.3177642822265625e-01 -3.8310247659683228e-01 2.1125359535217285e+00 -3.8109588623046875e-01 -6.8908548355102539e-01 1.2862633466720581e+00 -1.4066588878631592e+00 -1.9886030256748199e-01 1.2935376167297363e-01 3.5197861194610596e+00 1.1472049713134766e+01 9.7880744934082031e+00 1.5980321884155273e+01 1.3031169176101685e+00 1.0205259323120117e+01 1.2642132759094238e+01 6.9203834533691406e+00 -1.8468779325485229e+00 -7.6407418251037598e+00 -1.5831538438796997e+00 9.8199253082275391e+00 2.7951600551605225e+00 1.1952167510986328e+01 -7.5363903045654297e+00 -9.2050733566284180e+00 3.6516497135162354e+00 1.2256600379943848e+01 6.5801825523376465e+00 1.6416628360748291e+00 -2.1254589557647705e+00 -5.6200003623962402e+00 -2.3754065036773682e+00 -3.3283884525299072e+00 9.7243130207061768e-01 -6.2677402496337891e+00 -1.0054460525512695e+01 -6.4339237213134766e+00 6.7514071464538574e+00 -4.1563773155212402e+00 -8.0384330749511719e+00 -6.6724081039428711e+00 -6.4380021095275879e+00 -6.3311023712158203e+00 -6.5651173591613770e+00 1.3803173303604126e+00 3.0615609884262085e-01 2.0392642021179199e+00 -9.1923773288726807e-01 8.3147134780883789e+00 -1.3321157455444336e+01 -1.2632342576980591e+00 9.2456512451171875e+00 7.6383596658706665e-01 -4.3673000335693359e+00 1.1082115173339844e+01 -1.6431354522705078e+01 5.5526584386825562e-01 1.1543540954589844e+01 6.2148442268371582e+00 -8.5433559417724609e+00 -3.4511194229125977e+00 -6.2859668731689453e+00 -4.2687196731567383e+00 -3.3629498481750488e+00 -6.9275779724121094e+00 8.2585067749023438e+00 -4.0017676353454590e+00 3.5478291511535645e+00 9.4822340011596680e+00 3.0930066108703613e+00 -4.2811899185180664e+00 4.4358053207397461e+00 -1.0668998718261719e+01 3.3972225189208984e+00 6.9358768463134766e+00 -7.9917068481445312e+00 -1.1769916534423828e+01 -1.3169956207275391e+00 3.5502235889434814e+00 3.1866827011108398e+00 3.0468227863311768e+00 2.6401100158691406e+00 -1.5563996136188507e-01 -2.1469333171844482e+00 5.3672866821289062e+00 1.0083936691284180e+01 2.0565285682678223e+00 -8.5433015823364258e+00 1.4301424980163574e+01 5.1393837928771973e+00 8.6038455963134766e+00 4.2248554229736328e+00 9.1299743652343750e+00 7.4935350418090820e+00 1.2723690271377563e-01 9.9761638641357422e+00 1.1362775564193726e+00 -8.8653144836425781e+00 -2.0414643287658691e+00 7.4495874345302582e-02 5.7421092987060547e+00 -4.8248367309570312e+00 3.7557983398437500e+00 -9.9369651079177856e-01 -7.6446304321289062e+00 4.5678091049194336e+00 -7.1728487014770508e+00 -2.7923154830932617e+00 -2.7684514522552490e+00 4.1199445724487305e+00 5.7099704742431641e+00 3.4997708797454834e+00 3.3904097080230713e+00 -1.6798827648162842e+00 1.4855273962020874e+00 2.0332512855529785e+00 6.3799500465393066e-01 -1.3987838029861450e+00 -8.4879875183105469e+00 -1.0892518997192383e+01 3.3445219993591309e+00 1.4125518500804901e-01 7.6489820480346680e+00 4.4061529636383057e-01 5.8803024291992188e+00 3.3238306045532227e+00 4.7247424125671387e+00 5.4142255783081055e+00 -4.8136076927185059e+00 -4.8374967575073242e+00 -1.1441013813018799e+00 -5.6088385581970215e+00 4.4110703468322754e+00 -3.5906520485877991e-01 5.8484783172607422e+00 -3.0897624492645264e+00 6.4423188567161560e-02 3.2597613334655762e+00 -1.0469566345214844e+01 1.1488208770751953e+00 -4.8340187072753906e+00 -2.3045334815979004e+00 -5.1954779624938965e+00 -4.8762183189392090e+00 -1.4262746572494507e+00 5.4350209236145020e+00 2.4058475494384766e+00 7.7863202095031738e+00 2.9632306098937988e+00 9.0815651416778564e-01 -1.5696387290954590e+00 7.7234597206115723e+00 -1.8489214181900024e+00 8.7625050544738770e-01 5.9910054206848145e+00 1.9429125785827637e+00 2.6053359508514404e+00 1.7368072271347046e+00 8.1113271713256836e+00 -3.4774096012115479e+00 -5.4368290901184082e+00 -1.4214582443237305e+00 -8.7299404144287109e+00 -1.9996109008789062e+00 -4.9288620948791504e+00 -4.5024442672729492e+00 -7.0951080322265625e+00 5.3384413719177246e+00 -8.6634665727615356e-01 6.7451224327087402e+00 -1.3510212898254395e+00 5.6463780403137207e+00 -7.2964558601379395e+00 7.0981836318969727e+00 -2.0225617289543152e-01 1.8525884151458740e+00 -6.0336613655090332e+00 -2.2662978172302246e+00 2.9785277843475342e+00 6.4349350929260254e+00 7.6527800559997559e+00 -5.5853586196899414e+00 -1.5451988577842712e-01 -5.8745441436767578e+00 -3.2478418350219727e+00 8.5201187133789062e+00 7.1319303512573242e+00 -2.6093599796295166e+00 -5.1215357780456543e+00 1.6855155229568481e+00 -2.5480833053588867e+00 6.5913734436035156e+00 -3.2426304817199707e+00 7.0072565078735352e+00 6.4951367378234863e+00 4.5019416809082031e+00 -6.3428573608398438e+00 -6.6915297508239746e+00 -6.6372628211975098e+00 4.0943636894226074e+00 4.0163006782531738e+00 -1.6996520757675171e+00 3.3189992904663086e+00 -3.8271582126617432e+00 -1.5581070184707642e+00 8.4381027221679688e+00 -4.2899646759033203e+00 -7.2005343437194824e+00 -4.4904401898384094e-01 7.2892510890960693e-01 2.1238462448120117e+01 -2.5927566528320312e+01 2.2612304687500000e+01 2.4520845413208008e+00 1.8177652359008789e+01 -2.7478347778320312e+01 -2.8074214935302734e+01 -2.6045749664306641e+01 2.2905366420745850e+00 2.8602109909057617e+01 -2.5753229141235352e+01 -2.1347984313964844e+01 -5.2235455513000488e+00 -2.6477691650390625e+01 -2.5048660278320312e+01 2.3445716857910156e+01 -2.7043910980224609e+01 -2.6732410430908203e+01 -2.5911724090576172e+01 -2.2068897247314453e+01 -2.5059623718261719e+01 -2.0412700653076172e+01 2.3919645309448242e+01 2.0753807067871094e+01 -2.4672866821289062e+01 2.5978507995605469e+00 -2.4152357101440430e+01 2.3873096466064453e+01 2.8090597152709961e+01 2.3060806274414062e+01 2.1780357360839844e+00 -2.3450185775756836e+01 2.3239974975585938e+01 -2.3630887985229492e+01 -2.4931861877441406e+01 6.4037400484085083e-01 2.4500516891479492e+01 -2.4491737365722656e+01 -3.3094031810760498e+00 2.8652998805046082e-01 -2.3953460693359375e+01 -2.3773887634277344e+01 2.5698299407958984e+01 2.3124849319458008e+01 2.1530736923217773e+01 -2.8371274948120117e+01 2.0683326721191406e+00 2.5026210784912109e+01 2.6686687469482422e+00 1.6680810451507568e+00 -1.4075437545776367e+01 -1.5697849273681641e+01 3.6717398166656494e+00 -4.2942733764648438e+00 2.2397537231445312e+00 1.4872920989990234e+01 6.9935865402221680e+00 7.2857050895690918e+00 7.9909563064575195e+00 1.2699271202087402e+01 -9.4514112472534180e+00 -1.1321384906768799e+00 -1.3526935577392578e+01 9.4994312524795532e-01 4.9239239692687988e+00 -9.0670204162597656e+00 -1.7249435424804688e+01 -9.6707801818847656e+00 7.1084017753601074e+00 6.3213152885437012e+00 6.7367010116577148e+00 4.1271829605102539e+00 -5.4954895973205566e+00 4.3491087853908539e-02 -7.2846627235412598e+00 1.3415478706359863e+01 3.3590853214263916e-02 -1.7160797119140625e+00 2.0464506149291992e+01 5.3621563911437988e+00 9.4478902816772461e+00 3.0283865928649902e+00 1.5202336311340332e+01 7.2448992729187012e+00 6.9745101928710938e+00 1.0081568717956543e+01 -2.9839807748794556e-01 -1.9089996337890625e+01 -6.2581071853637695e+00 -7.3682036399841309e+00 3.9604051113128662e+00 -1.2429174423217773e+01 1.3281866073608398e+01 -1.1464564800262451e+00 -2.8838486671447754e+00 3.9017913341522217e+00 -5.5310802459716797e+00 3.5949738025665283e+00 6.1997475624084473e+00 -2.7448775768280029e+00 -6.8518533706665039e+00 5.1023526191711426e+00 2.1014795303344727e+00 -5.4701395034790039e+00 1.6423681259155273e+01 8.4926643371582031e+00 4.3801231384277344e+00 9.3311042785644531e+00 -1.1815435886383057e+00 1.8824731826782227e+01 -3.8932523727416992e+00 7.2818059921264648e+00 -5.3936117887496948e-01 9.2927942276000977e+00 -6.3398542404174805e+00 -3.1704993247985840e+00 -5.8753657341003418e+00 -1.4643132686614990e+00 9.3830938339233398e+00 1.1179732322692871e+01 9.3353185653686523e+00 -4.1639542579650879e+00 -4.2171025276184082e+00 -1.2792268753051758e+01 -1.5419773101806641e+01 7.7772521972656250e+00 1.5285159349441528e+00 -5.9076223373413086e+00 4.6332311630249023e+00 -6.3540525436401367e+00 2.1303744316101074e+00 -2.3271815776824951e+00 -4.1437256336212158e-01 5.0048985481262207e+00 1.2750501632690430e+01 8.5566024780273438e+00 -9.1210823059082031e+00 -1.0871500968933105e+01 -1.5320740938186646e+00 -1.3926653861999512e+01 4.1515889167785645e+00 3.9982738494873047e+00 3.5666403770446777e+00 -1.0645573616027832e+01 -1.9060431718826294e+00 -2.2356884479522705e+00 -9.8152999877929688e+00 3.7533512115478516e+00 -1.9958866834640503e+00 -1.8235895633697510e+00 -4.9905066490173340e+00 -5.3186454772949219e+00 -7.2393569946289062e+00 -6.1858183145523071e-01 -5.1706109046936035e+00 -6.1009583473205566e+00 -6.1534056663513184e+00 -1.7690703272819519e-01 4.5470666885375977e+00 -1.4009599685668945e+00 -5.1686577796936035e+00 -2.5732994079589844e+00 -5.1162672042846680e+00 2.5424592494964600e+00 2.9399249553680420e+00 -2.5489013195037842e+00 -5.9161562919616699e+00 -5.5969047546386719e+00 -2.8503706455230713e+00 2.4178402125835419e-01 1.6053034067153931e+00 2.6127946376800537e+00 7.4681842327117920e-01 9.8940432071685791e-01 3.1894540786743164e+00 4.8883795738220215e+00 2.0156078338623047e+00 -5.2676277160644531e+00 2.8645346164703369e+00 3.4412784576416016e+00 9.0577203035354614e-01 2.3762996196746826e+00 1.2902369499206543e+00 8.9619547128677368e-01 -1.3673720359802246e+00 1.5200185775756836e-01 8.6257433891296387e-01 2.0071086883544922e+00 -3.5706264972686768e+00 6.4361929893493652e+00 9.6815973520278931e-01 -5.1396517753601074e+00 -2.5110228061676025e+00 3.1471078395843506e+00 -5.6915888786315918e+00 5.8330278396606445e+00 1.8559043109416962e-01 -6.9687061309814453e+00 9.2064514160156250e+00 -4.2236189842224121e+00 -7.4506468772888184e+00 -1.7908917665481567e+00 -1.0618815422058105e+01 -1.5054529905319214e+00 -8.1172275543212891e+00 -5.1492366790771484e+00 -6.8185787200927734e+00 5.7658557891845703e+00 -1.6021507978439331e+00 6.0017690658569336e+00 -1.7461934089660645e+00 5.9902234077453613e+00 -9.0296335220336914e+00 7.8221726417541504e+00 1.9661341905593872e+00 9.1631251573562622e-01 -7.9992284774780273e+00 -1.8368428945541382e+00 2.2461028099060059e+00 6.7054781913757324e+00 8.6468172073364258e+00 -5.6117238998413086e+00 -1.3203440904617310e+00 -5.5685744285583496e+00 -7.6848268508911133e-01 1.0303876876831055e+01 8.5636434555053711e+00 -3.5900623798370361e+00 -4.9933638572692871e+00 3.2497684955596924e+00 -1.8131486177444458e+00 7.3621501922607422e+00 -1.7584999799728394e+00 8.6262454986572266e+00 6.2283382415771484e+00 4.6887860298156738e+00 -6.8837380409240723e+00 -6.2311606407165527e+00 -7.4379382133483887e+00 6.2816305160522461e+00 3.0383138656616211e+00 -1.1341847181320190e+00 2.8008086681365967e+00 -3.5542399883270264e+00 -3.5628721714019775e+00 1.0782699584960938e+01 -4.4209685325622559e+00 -8.7339076995849609e+00 -5.2836494445800781e+00 3.1736271381378174e+00 5.7005825042724609e+00 2.6551558971405029e+00 8.5087795257568359e+00 1.4851814508438110e+00 5.9031190872192383e+00 5.1962766647338867e+00 6.4785361289978027e+00 -3.6845510005950928e+00 -7.0360219478607178e-01 -4.0429902076721191e+00 2.4449667930603027e+00 -3.0015587806701660e+00 7.0936264991760254e+00 -5.8512625694274902e+00 -1.5628428459167480e+00 -1.8638403713703156e-01 5.9364938735961914e+00 2.9035415649414062e+00 -6.3000100851058960e-01 -5.1804800033569336e+00 -6.1996474266052246e+00 3.5687482357025146e+00 -8.0840699374675751e-02 3.3739128112792969e+00 1.2895288467407227e+00 -7.9186720848083496e+00 -5.6849007606506348e+00 3.6995697021484375e+00 2.9154803752899170e+00 -2.2652275562286377e+00 1.9454611539840698e+00 -5.3710117340087891e+00 7.5624984502792358e-01 -5.8103375434875488e+00 -3.9518461227416992e+00 -2.3321967124938965e+00 3.5010509490966797e+00 3.4467136859893799e+00 5.9700679779052734e+00 -5.4956469535827637e+00 -2.2400891780853271e+00 2.4211103916168213e+00 -2.0094833374023438e+00 1.6951682567596436e+00 3.2564654350280762e+00 -8.2430238723754883e+00 3.1629784107208252e+00 6.8489246368408203e+00 7.6085405349731445e+00 4.7893280982971191e+00 -1.0668601036071777e+01 -3.4226937294006348e+00 -4.4988451004028320e+00 -8.6088514328002930e+00 1.0002909898757935e+00 -3.1068000793457031e+00 3.2250833511352539e+00 5.9147100448608398e+00 1.1261911392211914e+01 1.2067188262939453e+01 -2.4442842483520508e+01 6.5886077880859375e+00 -1.5198470115661621e+01 1.1526878356933594e+01 -1.0345849037170410e+01 -1.4490683555603027e+01 -1.3568572998046875e+01 -1.1383146286010742e+01 -4.3255987167358398e+00 9.6955251693725586e+00 4.0646605491638184e+00 1.1381030082702637e+00 1.4621393680572510e+00 -1.5297363281250000e+01 -1.6531785964965820e+01 8.3506708145141602e+00 -4.2480579018592834e-01 -1.3127596855163574e+01 1.5928683280944824e+01 1.2898174524307251e+00 1.4319662094116211e+01 6.7463154792785645e+00 9.6527999639511108e-01 1.3216213226318359e+01 1.3957732200622559e+01 -1.1474835395812988e+01 -1.4050101280212402e+01 -1.6677963256835938e+01 -8.2896528244018555e+00 -1.8947797775268555e+01 2.9905850887298584e+00 -7.9649634361267090e+00 6.0829849243164062e+00 -3.2471308708190918e+00 -5.5046896934509277e+00 -4.9288377761840820e+00 -9.3115198612213135e-01 2.8974287509918213e+00 1.2890427112579346e+00 -1.3401257991790771e+00 -2.5384535789489746e+00 -2.4176805019378662e+00 -4.7934389114379883e+00 -6.1228328943252563e-01 -3.0232186317443848e+00 -3.5402853488922119e+00 -3.8399293422698975e+00 4.5691445469856262e-01 1.3509788513183594e+00 9.9288046360015869e-01 -2.3615806102752686e+00 2.0972026884555817e-01 -3.6958825588226318e+00 2.5814616680145264e+00 2.0225927829742432e+00 -7.8472721576690674e-01 -3.7690560817718506e+00 -2.7016084194183350e+00 -6.9142377376556396e-01 1.4156510829925537e+00 2.1260876655578613e+00 -4.9376520514488220e-01 4.2317301034927368e-01 -1.0128034353256226e+00 4.0490618348121643e-01 3.5415351390838623e+00 2.6369009017944336e+00 -1.8416367769241333e+00 -1.0263040661811829e-01 1.7833681106567383e+00 8.3394795656204224e-01 1.8720089197158813e+00 7.4239331483840942e-01 2.1028187274932861e+00 9.7451978921890259e-01 4.8722648620605469e-01 -1.1833492517471313e+00 -1.0716415643692017e+00 -2.8385322093963623e+00 3.5974087715148926e+00 5.5754429101943970e-01 -2.0923204421997070e+00 1.5293891727924347e-01 7.3787158727645874e-01 -2.6219224929809570e+00 4.8108196258544922e+00 -3.1834673881530762e-01 -3.7859838008880615e+00 3.3931508064270020e+00 2.1530747413635254e+00 -2.5681149959564209e+00 7.1472084522247314e-01 -8.6468195915222168e-01 -2.0316874980926514e+00 5.1943337917327881e-01 -1.7891429662704468e+00 4.6723592281341553e-01 2.8091733455657959e+00 1.7096611261367798e+00 1.4520773887634277e+00 -2.4315223693847656e+00 -9.9622458219528198e-02 9.3809306621551514e-01 3.4499228000640869e+00 -1.0363256931304932e+00 -3.1065204143524170e+00 6.0716009140014648e-01 -1.3681008815765381e+00 3.1815464496612549e+00 3.0864095687866211e+00 3.1501882076263428e+00 6.7265069484710693e-01 -4.2091092467308044e-01 -2.2161135673522949e+00 -1.8075833320617676e+00 3.5295093059539795e+00 -5.7544630765914917e-01 -3.3280937671661377e+00 7.7994912862777710e-01 -7.9272609949111938e-01 4.1664137840270996e+00 6.0308501124382019e-02 2.1432368755340576e+00 2.9839932918548584e+00 3.0625915527343750e+00 -9.9554425477981567e-01 -2.9338099956512451e+00 -1.8655048608779907e+00 -2.4648554325103760e+00 -2.0801548957824707e+00 8.7886275723576546e-03 -2.9892027378082275e+00 1.7720609903335571e+00 -1.5839816331863403e+00 -3.5821845531463623e+00 -1.2952601909637451e+00 -2.9466240406036377e+00 7.0214921236038208e-01 7.1511950492858887e+00 8.2267436981201172e+00 -6.4553093910217285e-01 -6.2846722602844238e+00 -3.3004721999168396e-01 4.4464731216430664e+00 5.9235157966613770e+00 -7.8924198150634766e+00 -6.1375350952148438e+00 -7.0373644828796387e+00 -9.2555503845214844e+00 -1.7573286294937134e+00 1.0915624618530273e+01 -6.8713188171386719e+00 -5.3238649368286133e+00 -9.4307994842529297e+00 -8.6162242889404297e+00 1.1286117553710938e+01 1.0383588790893555e+01 9.4118375778198242e+00 -5.2185721397399902e+00 -7.4192471504211426e+00 7.6170676946640015e-01 -1.2270483016967773e+01 9.8673315048217773e+00 1.6134010553359985e+00 -5.3749680519104004e+00 -8.5519208908081055e+00 -7.7217421531677246e+00 2.5959806442260742e+00 -1.1553597450256348e+01 5.8094873428344727e+00 -1.0949158668518066e+01 -6.3270134925842285e+00 -1.1658650398254395e+01 -8.9654016494750977e+00 -8.4947023391723633e+00 -7.4466190338134766e+00 -4.8520421981811523e-01 -6.3672413825988770e+00 5.0051188468933105e+00 9.5227155685424805e+00 -9.2716703414916992e+00 9.1757202148437500e+00 8.4307804107666016e+00 8.1680374145507812e+00 2.6985661983489990e+00 3.3475806713104248e+00 5.5637316703796387e+00 8.9523696899414062e+00 -2.9096812009811401e-01 1.0697410106658936e+00 2.1857368946075439e+00 1.1315257549285889e+00 2.0205137729644775e+00 1.9080195426940918e+00 2.5139572620391846e+00 2.1725337505340576e+00 1.9106855392456055e+00 -1.1319500207901001e+00 -2.6657462120056152e+00 2.8484660387039185e-01 8.1155949831008911e-01 -1.5659246444702148e+00 1.5389416217803955e+00 -1.5164699554443359e+00 -3.8259627819061279e+00 2.6693990230560303e+00 2.4621477127075195e+00 4.1711487770080566e+00 3.4084543585777283e-01 -1.1339884996414185e+00 -1.6937549114227295e+00 4.6638354659080505e-01 2.4074077606201172e+00 2.7473816871643066e+00 -2.7241256237030029e+00 3.6081776022911072e-01 -2.6792616844177246e+00 2.9063942432403564e+00 -5.8227008581161499e-01 -6.0888475179672241e-01 -4.5088815689086914e+00 -8.4925645589828491e-01 -9.6101993322372437e-01 -1.5682849884033203e+00 -6.9009089469909668e-01 1.3296703100204468e+00 -6.0898256301879883e-01 1.2223399430513382e-01 1.7843855619430542e+00 -1.3791725635528564e+00 -2.1911618709564209e+00 9.6964891999959946e-03 2.8861850500106812e-01 1.7895089387893677e+00 3.9861032962799072e+00 -1.2190436124801636e+00 1.4501941204071045e+00 1.6484681367874146e+00 9.2705764770507812e+00 1.1074469566345215e+01 -1.0856171846389771e+00 -1.2601860046386719e+01 5.6883125305175781e+00 6.3731403350830078e+00 -9.1513818502426147e-01 5.8418998718261719e+00 -6.0304689407348633e-01 -1.4278245925903320e+01 -4.7668209075927734e+00 5.9265142679214478e-01 -1.4100475311279297e+01 -9.5398721694946289e+00 -3.7553281784057617e+00 -9.0544710159301758e+00 -9.7122793197631836e+00 6.1633391380310059e+00 -1.1414512634277344e+01 -6.7329204082489014e-01 -8.9432106018066406e+00 -9.1352920532226562e+00 -7.6102652549743652e+00 -1.5715174674987793e+01 5.8273286819458008e+00 8.3883304595947266e+00 -1.1060459613800049e+00 -7.4118604660034180e+00 -7.3352975845336914e+00 -3.7722148895263672e+00 3.2002470493316650e+00 1.0179681777954102e+01 -7.3391819000244141e+00 -1.6345222473144531e+01 9.6107473373413086e+00 -7.2734365463256836e+00 -1.1582663536071777e+01 1.0394575119018555e+01 1.0723186492919922e+01 -6.0248141288757324e+00 1.5054940223693848e+01 -7.3218669891357422e+00 -1.0283220291137695e+01 -4.0451092720031738e+00 9.1018810272216797e+00 2.8555984497070312e+00 7.9884314537048340e+00 1.0718291997909546e+00 8.3227515220642090e-01 4.5019607543945312e+00 6.1541442871093750e+00 5.6180772781372070e+00 -1.0674774169921875e+01 3.0478157997131348e+00 -5.8179464340209961e+00 -1.4646934509277344e+01 6.1767735481262207e+00 -2.2423741817474365e+00 5.5052752494812012e+00 1.3534692764282227e+01 1.6261541366577148e+01 7.0744194984436035e+00 -6.3180413246154785e+00 5.4201402664184570e+00 7.5882754325866699e+00 1.4793200492858887e+01 -6.6202602386474609e+00 -1.1801010131835938e+01 5.3092126846313477e+00 -1.6274927854537964e+00 1.6018112182617188e+01 1.1219242095947266e+01 1.5936501502990723e+01 -9.3866258859634399e-01 2.8389629721641541e-01 -1.0465297698974609e+01 -8.5838346481323242e+00 1.5060941696166992e+01 -3.6540193557739258e+00 -1.6146337509155273e+01 5.0659446716308594e+00 -8.5143604278564453e+00 1.5501049995422363e+01 1.3595416545867920e+00 2.3808195590972900e+00 1.1537481307983398e+01 1.6171461105346680e+01 -6.3030734062194824e+00 -1.4209839820861816e+01 -1.1719689369201660e+01 -1.1399589538574219e+01 -1.1877278327941895e+01 5.7196158170700073e-01 -8.1770296096801758e+00 6.5740723609924316e+00 -2.2409508228302002e+00 -1.4797944068908691e+01 -5.4443898200988770e+00 -1.3282843589782715e+01 9.8165578842163086e+00 -2.3569269180297852e+01 -5.4632024765014648e+00 -7.3038220405578613e+00 1.6251817703247070e+01 -1.0079571008682251e+00 -8.7205228805541992e+00 -2.3631151199340820e+01 6.8000221252441406e+00 1.5638618469238281e+01 9.5548305511474609e+00 6.0797605514526367e+00 -2.1699964523315430e+01 2.3143747329711914e+01 1.3696553230285645e+01 1.2933278083801270e+01 9.9560279846191406e+00 2.1814199447631836e+01 -6.9184126853942871e+00 1.5177427291870117e+01 1.8306571960449219e+01 7.2578625679016113e+00 6.9815130233764648e+00 6.5093464851379395e+00 1.7690252304077148e+01 -1.8042900085449219e+01 -1.0208093643188477e+01 2.3621744155883789e+01 4.3005266189575195e+00 1.7135953903198242e+01 7.7428412437438965e+00 -1.0531957626342773e+01 -1.2958962440490723e+01 8.0726070404052734e+00 1.4022292137145996e+01 -2.4136520385742188e+01 3.6068038940429688e+00 6.7811446189880371e+00 -4.1935033798217773e+00 -8.6844882965087891e+00 2.6396022796630859e+01 -9.3055047988891602e+00 1.0941223144531250e+01 1.6151636123657227e+01 2.9013370513916016e+01 -2.0959095001220703e+01 -1.3728174209594727e+01 -5.4179286956787109e+00 8.3555793762207031e+00 -8.4236173629760742e+00 -8.4950876235961914e+00 -2.9395987987518311e+00 -1.0978525876998901e+00 -7.0835697650909424e-01 -1.2004110962152481e-02 -2.0889012813568115e+00 -3.3973987102508545e+00 -2.5412070751190186e+00 1.4433038234710693e+00 4.2745718955993652e+00 3.7691934108734131e+00 -1.3830701112747192e+00 -1.0392186641693115e+00 2.5045601651072502e-02 3.1033849716186523e+00 4.6321415901184082e+00 -9.5382250845432281e-02 -4.7997966408729553e-01 2.7559351921081543e+00 2.4868016242980957e+00 1.8895214796066284e+00 4.2938718795776367e+00 2.3174560070037842e+00 3.4616069793701172e+00 -3.6569261550903320e+00 -4.3048605918884277e+00 -3.7100272178649902e+00 1.5155206918716431e+00 4.9847075343132019e-01 5.7100658416748047e+00 1.1456921100616455e+00 -3.6516082286834717e+00 -4.2346811294555664e+00 -2.6906325817108154e+00 4.2495512962341309e+00 -1.7569601535797119e+00 1.2193136215209961e+00 1.8450975418090820e+00 3.8543038070201874e-02 -1.0649807929992676e+01 2.4147957563400269e-01 -7.3709921836853027e+00 3.1652362346649170e+00 1.9196391105651855e+00 -1.2434133291244507e+00 -7.5965058803558350e-01 -2.7969253063201904e+00 3.6646070480346680e+00 2.7498872280120850e+00 -5.5761604309082031e+00 -8.0012446641921997e-01 -1.9210853576660156e+00 -1.1681034564971924e+00 -4.5218610763549805e+00 -1.4718127250671387e+00 -3.9787404537200928e+00 -9.0392899513244629e-01 -2.6561913490295410e+00 6.2708292007446289e+00 1.9449669122695923e+00 4.3922638893127441e+00 1.7570652961730957e+00 4.8782768249511719e+00 -5.6774163246154785e+00 2.3881301879882812e+00 -7.6711306571960449e+00 5.3550205230712891e+00 -2.3780128955841064e+00 -3.8053565025329590e+00 -6.3803029060363770e+00 -5.2656656503677368e-01 -3.3093667030334473e+00 2.7549281120300293e+00 6.2659943103790283e-01 7.0691318511962891e+00 -5.2073922157287598e+00 -2.8750190734863281e+00 -6.4982290267944336e+00 3.9293048381805420e+00 2.6143732070922852e+00 5.6306248903274536e-01 6.3501663208007812e+00 -2.8793907165527344e+00 4.3574409484863281e+00 4.5036158561706543e+00 -2.3139865398406982e+00 3.3644268512725830e+00 5.1930212974548340e-01 6.3693904876708984e+00 -2.4120326042175293e+00 -4.5059723854064941e+00 -2.9857409000396729e+00 -1.4365816116333008e+00 2.9631123542785645e+00 -2.5836713314056396e+00 8.2452923059463501e-01 -2.8301162719726562e+00 -2.7696478366851807e+00 -7.5769815444946289e+00 -3.3575999736785889e+00 -6.1483130455017090e+00 8.8366069793701172e+00 1.0402873039245605e+01 -1.6339243948459625e-01 5.8157140016555786e-01 1.0110005378723145e+01 1.2831008911132812e+01 1.1121316909790039e+01 4.7774682044982910e+00 -1.4862041473388672e+01 -1.2334830284118652e+01 -1.2751101255416870e+00 -7.3067321777343750e+00 -1.1562229156494141e+01 -1.5197949409484863e+01 6.7809100151062012e+00 -1.6042885184288025e-01 -8.8013935089111328e+00 6.3532576560974121e+00 6.3699002265930176e+00 5.3849086761474609e+00 -1.1725010871887207e+01 1.0308223217725754e-01 -7.2999167442321777e-01 -1.0757327079772949e+01 8.4418516159057617e+00 -6.5786063671112061e-01 -1.2263498306274414e+01 1.8033351898193359e+00 -1.1195124387741089e+00 -3.7112965583801270e+00 1.9972196221351624e-01 1.5448138236999512e+01 -5.6130890846252441e+00 -9.8908500671386719e+00 -4.7397937774658203e+00 -7.3076062202453613e+00 -1.0362568855285645e+01 3.5715358257293701e+00 1.4733161926269531e+00 -4.4627275466918945e+00 9.7548770904541016e+00 -1.3213309049606323e+00 -2.8838508129119873e+00 -1.1870846748352051e+01 -7.3759279251098633e+00 1.5028187751770020e+01 6.0886411666870117e+00 -1.2277595520019531e+01 1.0497095108032227e+01 1.0617183685302734e+01 4.9816355109214783e-01 2.2862915992736816e+00 -4.2709955573081970e-01 1.1874548196792603e+00 2.0935046672821045e+00 5.2420630455017090e+00 -1.5950670838356018e-01 2.0318653583526611e+00 -4.4359305500984192e-01 -1.7026793956756592e+00 1.0609186887741089e+00 1.8560561537742615e-01 9.5683985948562622e-01 -2.3704042434692383e+00 -1.6563998460769653e+00 -1.7736463546752930e+00 -5.2042609453201294e-01 -9.7999528050422668e-02 1.4471166133880615e+00 -7.7816897630691528e-01 -1.5285333395004272e+00 -1.8763903379440308e+00 -1.0519907474517822e+00 1.0333580970764160e+00 3.0967483520507812e+00 1.9303330183029175e+00 -9.2331629991531372e-01 3.3776226639747620e-01 -7.7467823028564453e+00 8.3554250001907349e-01 -1.6663064956665039e+00 7.6054590940475464e-01 -1.2057780027389526e+00 -2.8588333725929260e-01 1.0396546125411987e+00 5.3020006418228149e-01 -5.8784168958663940e-01 -1.3784040212631226e+00 5.0171861648559570e+00 1.8439589738845825e+00 6.6393241882324219e+00 -5.2413743734359741e-01 -1.9356920719146729e+00 5.8048146963119507e-01 4.0264740586280823e-01 -5.8408147096633911e-01 -1.0228605568408966e-01 -5.4721884727478027e+00 8.7776117324829102e+00 -1.1928499937057495e+00 -1.6644161939620972e+00 -4.6910800933837891e+00 2.9106075763702393e+00 -1.0424438476562500e+01 2.0375190675258636e-01 1.4898395538330078e+00 7.3032684326171875e+00 1.6734473705291748e+00 -4.1823983192443848e+00 1.7280697822570801e+00 1.1731834411621094e+01 8.6955280303955078e+00 -7.2518601417541504e+00 -1.0403823852539062e+00 -1.0070268630981445e+01 5.3411054611206055e-01 -5.0546851158142090e+00 -1.0516467094421387e+01 -8.4768562316894531e+00 -9.5325355529785156e+00 -1.3081277847290039e+01 2.2380342483520508e+00 4.4927868247032166e-01 9.9319821596145630e-01 4.7127528190612793e+00 -2.6482627391815186e+00 -7.2514677047729492e+00 1.9217861890792847e+00 3.0643465518951416e+00 -1.0350364685058594e+01 4.9142050743103027e+00 5.4922213554382324e+00 1.2083040237426758e+01 -1.2920832633972168e+00 7.0073831081390381e-01 8.8005619049072266e+00 1.9275907278060913e+00 3.3295073509216309e+00 -1.3803272247314453e+00 -6.7826790809631348e+00 -1.4952282905578613e+00 -1.5259732246398926e+01 2.4220049381256104e+00 -8.8320102691650391e+00 3.5432812571525574e-01 1.1390689611434937e+00 -9.3627214431762695e+00 -1.1540471076965332e+01 -3.5181887149810791e+00 -3.9435799121856689e+00 -5.2811722755432129e+00 2.9395101070404053e+00 6.0014753341674805e+00 3.5611219406127930e+00 9.2726440429687500e+00 1.4048867225646973e+00 6.3618679046630859e+00 6.0676813125610352e+00 8.1494569778442383e+00 -4.3732352256774902e+00 -1.2972182035446167e+00 -4.0975313186645508e+00 3.5715095996856689e+00 -2.7503032684326172e+00 7.7340259552001953e+00 -6.0934252738952637e+00 -5.2648164331912994e-02 4.2424005270004272e-01 6.5373988151550293e+00 4.1467185020446777e+00 -5.7313841581344604e-01 -4.6354365348815918e+00 -6.7324895858764648e+00 3.3491351604461670e+00 1.5353780984878540e-01 3.7302842140197754e+00 9.0127319097518921e-01 -8.2350044250488281e+00 -6.0644354820251465e+00 4.4405941963195801e+00 2.1273677349090576e+00 -3.0370635986328125e+00 1.9290125370025635e+00 -5.2158012390136719e+00 2.4195582866668701e+00 -5.9594116210937500e+00 -3.8084173202514648e+00 -3.7087945938110352e+00 3.2303421497344971e+00 3.9298598766326904e+00 6.1404566764831543e+00 -5.5645513534545898e+00 -3.2265279293060303e+00 3.3426775932312012e+00 -1.2814428806304932e+00 1.5751675367355347e+00 3.8607881069183350e+00 -7.5947647094726562e+00 3.0830500125885010e+00 7.4582171440124512e+00 
      </Weights>
      <Biases rows="50" cols="1">
        -8.5442857742309570e+00 4.9633269309997559e+00 -1.5150989532470703e+01 -3.0294837951660156e+00 -4.5086083412170410e+00 1.2275393486022949e+01 3.3850708007812500e+00 -1.3973712921142578e+01 -2.0337251663208008e+01 -3.2753334045410156e+00 1.6053279876708984e+01 9.1036548614501953e+00 -7.0810451507568359e+00 4.6771163940429688e+00 -5.1734757423400879e+00 -8.8742923736572266e+00 -5.2668128013610840e+00 5.3172345161437988e+00 1.0453299283981323e+00 -1.3820030212402344e+01 -1.0062369346618652e+01 9.7826070785522461e+00 4.1400117874145508e+00 -3.3991997241973877e+00 -1.5021863937377930e+01 1.6323126554489136e+00 1.7779445648193359e+01 -7.9346637725830078e+00 5.2912616729736328e+00 -9.5923805236816406e+00 1.8608455657958984e+01 -7.6369798183441162e-01 4.3100538253784180e+00 -8.8864574432373047e+00 -1.1474045753479004e+01 8.7184906005859375e+00 1.2598975896835327e+00 -5.5090131759643555e+00 1.1096805334091187e+00 9.9653034210205078e+00 6.7905154228210449e+00 5.5012960433959961e+00 7.4210147857666016e+00 -1.9372785568237305e+01 5.8493337631225586e+00 -5.1484198570251465e+00 3.3416607379913330e+00 1.8944500684738159e+00 -1.2252335548400879e+01 1.0561114311218262e+01 
      </Biases>
    </Layer>
    <Layer ActivationFunction="3">
      <Weights rows="50" cols="50">
