<?xml version="1.0"?>
<MethodSetup Method="BDT::BDTG">
  <GeneralInfo>
    <Info name="TMVA Release" value="4.2.1 [262657]"/>
    <Info name="ROOT Release" value="6.16/00 [397312]"/>
    <Info name="Creator" value="vardan"/>
    <Info name="Date" value="Sat May  4 22:44:17 2019"/>
    <Info name="Host" value="Linux ec-ubuntu-14-04-x86-64-2 3.13.0-157-generic #207-Ubuntu SMP Mon Aug 20 16:44:59 UTC 2018 x86_64 x86_64 x86_64 GNU/Linux"/>
    <Info name="Dir" value="/home/vardan/Analyse2019/CMS_VBF_Hbb_2017_18/SingleBTag/Analysis/TMVA_BJets_Identification"/>
    <Info name="Training events" value="132540"/>
    <Info name="TrainingTime" value="8.81874609e+00"/>
    <Info name="AnalysisType" value="Classification"/>
  </GeneralInfo>
  <Options>
    <Option name="V" modified="Yes">False</Option>
    <Option name="VerbosityLevel" modified="No">Default</Option>
    <Option name="VarTransform" modified="No">None</Option>
    <Option name="H" modified="Yes">False</Option>
    <Option name="CreateMVAPdfs" modified="No">False</Option>
    <Option name="IgnoreNegWeightsInTraining" modified="No">False</Option>
    <Option name="NTrees" modified="Yes">120</Option>
    <Option name="MaxDepth" modified="Yes">3</Option>
    <Option name="MinNodeSize" modified="Yes">8.0%</Option>
    <Option name="nCuts" modified="Yes">20</Option>
    <Option name="BoostType" modified="Yes">Grad</Option>
    <Option name="AdaBoostR2Loss" modified="No">quadratic</Option>
    <Option name="UseBaggedBoost" modified="Yes">True</Option>
    <Option name="Shrinkage" modified="Yes">1.000000e-01</Option>
    <Option name="AdaBoostBeta" modified="No">5.000000e-01</Option>
    <Option name="UseRandomisedTrees" modified="No">False</Option>
    <Option name="UseNvars" modified="No">3</Option>
    <Option name="UsePoissonNvars" modified="No">True</Option>
    <Option name="BaggedSampleFraction" modified="Yes">6.000000e-01</Option>
    <Option name="UseYesNoLeaf" modified="No">True</Option>
    <Option name="NegWeightTreatment" modified="Yes">ignorenegweightsintraining</Option>
    <Option name="Css" modified="No">1.000000e+00</Option>
    <Option name="Cts_sb" modified="No">1.000000e+00</Option>
    <Option name="Ctb_ss" modified="No">1.000000e+00</Option>
    <Option name="Cbb" modified="No">1.000000e+00</Option>
    <Option name="NodePurityLimit" modified="No">5.000000e-01</Option>
    <Option name="SeparationType" modified="No">giniindex</Option>
    <Option name="RegressionLossFunctionBDTG" modified="No">huber</Option>
    <Option name="HuberQuantile" modified="No">7.000000e-01</Option>
    <Option name="DoBoostMonitor" modified="No">False</Option>
    <Option name="UseFisherCuts" modified="No">False</Option>
    <Option name="MinLinCorrForFisher" modified="No">8.000000e-01</Option>
    <Option name="UseExclusiveVars" modified="No">False</Option>
    <Option name="DoPreselection" modified="No">False</Option>
    <Option name="SigToBkgFraction" modified="No">1.000000e+00</Option>
    <Option name="PruneMethod" modified="No">nopruning</Option>
    <Option name="PruneStrength" modified="No">0.000000e+00</Option>
    <Option name="PruningValFraction" modified="No">5.000000e-01</Option>
    <Option name="SkipNormalization" modified="No">False</Option>
    <Option name="nEventsMin" modified="No">0</Option>
    <Option name="UseBaggedGrad" modified="No">False</Option>
    <Option name="GradBaggingFraction" modified="No">6.000000e-01</Option>
    <Option name="UseNTrainEvents" modified="No">0</Option>
    <Option name="NNodesMax" modified="No">0</Option>
  </Options>
  <Variables NVar="7">
    <Variable VarIndex="0" Expression="pt" Label="pt" Title="PT" Unit="units" Internal="pt" Type="F" Min="2.00001469e+01" Max="8.45840576e+02"/>
    <Variable VarIndex="1" Expression="pt_ord" Label="pt_ord" Title="pt_ord" Unit="" Internal="pt_ord" Type="I" Min="1.00000000e+00" Max="7.00000000e+00"/>
    <Variable VarIndex="2" Expression="feta" Label="feta" Title="ETA" Unit="units" Internal="feta" Type="F" Min="6.26751671e-06" Max="4.69911528e+00"/>
    <Variable VarIndex="3" Expression="feta_ord" Label="feta_ord" Title="feta_ord" Unit="" Internal="feta_ord" Type="I" Min="1.00000000e+00" Max="7.00000000e+00"/>
    <Variable VarIndex="4" Expression="btg_D" Label="btg_D" Title="BTG_Deep" Unit="units" Internal="btg_D" Type="F" Min="-2.00000000e+00" Max="9.99957442e-01"/>
    <Variable VarIndex="5" Expression="btg_D_ord" Label="btg_D_ord" Title="btg_D_ord" Unit="" Internal="btg_D_ord" Type="I" Min="1.00000000e+00" Max="7.00000000e+00"/>
    <Variable VarIndex="6" Expression="puid" Label="puid" Title="PUID" Unit="units" Internal="puid" Type="F" Min="-9.69994843e-01" Max="9.99220312e-01"/>
  </Variables>
  <Spectators NSpec="0"/>
  <Classes NClass="2">
    <Class Name="Signal" Index="0"/>
    <Class Name="Background" Index="1"/>
  </Classes>
  <Transformations NTransformations="0"/>
  <MVAPdfs/>
  <Weights NTrees="120" AnalysisType="1">
    <BinaryTree type="DecisionTree" boostWeight="1.0000000000000000e+00" itree="0">
      <Node pos="s" depth="0" NCoef="0" IVar="5" Cut="3.0000000000000000e+00" cType="1" res="5.2784648723900318e-03" rms="4.9291092157363892e-01" purity="4.9819195270538330e-01" nType="0">
        <Node pos="l" depth="1" NCoef="0" IVar="4" Cut="5.7132124900817871e-01" cType="1" res="4.4061201810836792e-01" rms="2.3634943366050720e-01" purity="9.4061195850372314e-01" nType="0">
          <Node pos="l" depth="2" NCoef="0" IVar="-1" Cut="0.0000000000000000e+00" cType="1" res="5.2932884544134140e-02" rms="4.2420837283134460e-01" purity="7.6466447114944458e-01" nType="-99"/>
          <Node pos="r" depth="2" NCoef="0" IVar="1" Cut="4.0000000000000000e+00" cType="1" res="4.7835204005241394e-01" rms="1.3138641417026520e-01" purity="9.8568654060363770e-01" nType="0">
            <Node pos="l" depth="3" NCoef="0" IVar="-1" Cut="0.0000000000000000e+00" cType="1" res="9.8367340862751007e-02" rms="8.9981339871883392e-02" purity="9.9183666706085205e-01" nType="-99"/>
            <Node pos="r" depth="3" NCoef="0" IVar="-1" Cut="0.0000000000000000e+00" cType="1" res="9.4087265431880951e-02" rms="1.6938026249408722e-01" purity="9.7043633460998535e-01" nType="-99"/>
          </Node>
        </Node>
        <Node pos="r" depth="1" NCoef="0" IVar="2" Cut="1.3419045209884644e+00" cType="1" res="-4.1844639182090759e-01" rms="2.7368342876434326e-01" purity="8.1553600728511810e-02" nType="0">
          <Node pos="l" depth="2" NCoef="0" IVar="-1" Cut="0.0000000000000000e+00" cType="1" res="-4.4416986405849457e-02" rms="4.4797128438949585e-01" purity="2.7791506052017212e-01" nType="-99"/>
          <Node pos="r" depth="2" NCoef="0" IVar="3" Cut="3.0000000000000000e+00" cType="1" res="-4.5481306314468384e-01" rms="1.8678559362888336e-01" purity="2.8744153678417206e-02" nType="0">
            <Node pos="l" depth="3" NCoef="0" IVar="-1" Cut="0.0000000000000000e+00" cType="1" res="-9.7831420600414276e-02" rms="1.0356310009956360e-01" purity="1.0842883959412575e-02" nType="-99"/>
            <Node pos="r" depth="3" NCoef="0" IVar="-1" Cut="0.0000000000000000e+00" cType="1" res="-8.2821771502494812e-02" rms="2.8020322322845459e-01" purity="8.5891127586364746e-02" nType="-99"/>
          </Node>
        </Node>
      </Node>
    </BinaryTree>
    <BinaryTree type="DecisionTree" boostWeight="1.0000000000000000e+00" itree="1">
      <Node pos="s" depth="0" NCoef="0" IVar="5" Cut="3.0000000000000000e+00" cType="1" res="1.0231179185211658e-02" rms="4.5454359054565430e-01" purity="5.0407725572586060e-01" nType="0">
        <Node pos="l" depth="1" NCoef="0" IVar="4" Cut="5.7134252786636353e-01" cType="1" res="4.0155801177024841e-01" rms="2.2374927997589111e-01" purity="9.4557452201843262e-01" nType="0">
          <Node pos="l" depth="2" NCoef="0" IVar="-1" Cut="0.0000000000000000e+00" cType="1" res="5.0858128815889359e-02" rms="4.1423195600509644e-01" purity="7.8002125024795532e-01" nType="-99"/>
          <Node pos="r" depth="2" NCoef="0" IVar="1" Cut="4.0000000000000000e+00" cType="1" res="4.3176507949829102e-01" rms="1.2409848719835281e-01" purity="9.8714286088943481e-01" nType="0">
            <Node pos="l" depth="3" NCoef="0" IVar="-1" Cut="0.0000000000000000e+00" cType="1" res="8.9866429567337036e-02" rms="7.6984249055385590e-02" purity="9.9403786659240723e-01" nType="-99"/>
            <Node pos="r" depth="3" NCoef="0" IVar="-1" Cut="0.0000000000000000e+00" cType="1" res="8.5274025797843933e-02" rms="1.7189526557922363e-01" purity="9.6952325105667114e-01" nType="-99"/>
          </Node>
        </Node>
        <Node pos="r" depth="1" NCoef="0" IVar="2" Cut="1.1183252334594727e+00" cType="1" res="-3.7684300541877747e-01" rms="2.6946631073951721e-01" purity="8.1300497055053711e-02" nType="0">
          <Node pos="l" depth="2" NCoef="0" IVar="-1" Cut="0.0000000000000000e+00" cType="1" res="-3.3203758299350739e-02" rms="4.6335622668266296e-01" purity="3.1211441755294800e-01" nType="-99"/>
          <Node pos="r" depth="2" NCoef="0" IVar="3" Cut="3.0000000000000000e+00" cType="1" res="-4.0103614330291748e-01" rms="2.0218677818775177e-01" purity="3.7131879478693008e-02" nType="0">
            <Node pos="l" depth="3" NCoef="0" IVar="-1" Cut="0.0000000000000000e+00" cType="1" res="-8.9157491922378540e-02" rms="9.9356837570667267e-02" purity="9.9586565047502518e-03" nType="-99"/>
            <Node pos="r" depth="3" NCoef="0" IVar="-1" Cut="0.0000000000000000e+00" cType="1" res="-7.0829428732395172e-02" rms="3.1216946244239807e-01" purity="1.0995458066463470e-01" nType="-99"/>
          </Node>
        </Node>
      </Node>
    </BinaryTree>
    <BinaryTree type="DecisionTree" boostWeight="1.0000000000000000e+00" itree="2">
      <Node pos="s" depth="0" NCoef="0" IVar="5" Cut="3.0000000000000000e+00" cType="1" res="5.3520645014941692e-03" rms="4.2057222127914429e-01" purity="4.9879777431488037e-01" nType="0">
        <Node pos="l" depth="1" NCoef="0" IVar="2" Cut="1.4507837295532227e+00" cType="1" res="3.5814225673675537e-01" rms="2.2809997200965881e-01" purity="9.4203042984008789e-01" nType="0">
          <Node pos="l" depth="2" NCoef="0" IVar="2" Cut="8.9805811643600464e-01" cType="1" res="3.9421609044075012e-01" rms="1.3960283994674683e-01" purity="9.7959250211715698e-01" nType="0">
            <Node pos="l" depth="3" NCoef="0" IVar="-1" Cut="0.0000000000000000e+00" cType="1" res="8.2788862287998199e-02" rms="1.1139032244682312e-01" purity="9.8729103803634644e-01" nType="-99"/>
            <Node pos="r" depth="3" NCoef="0" IVar="-1" Cut="0.0000000000000000e+00" cType="1" res="7.7707760035991669e-02" rms="1.8957841396331787e-01" purity="9.6125787496566772e-01" nType="-99"/>
          </Node>
          <Node pos="r" depth="2" NCoef="0" IVar="-1" Cut="0.0000000000000000e+00" cType="1" res="4.3393887579441071e-02" rms="3.9695763587951660e-01" purity="7.8922897577285767e-01" nType="-99"/>
        </Node>
        <Node pos="r" depth="1" NCoef="0" IVar="2" Cut="1.1192393302917480e+00" cType="1" res="-3.4336566925048828e-01" rms="2.6005735993385315e-01" purity="7.7498778700828552e-02" nType="0">
          <Node pos="l" depth="2" NCoef="0" IVar="-1" Cut="0.0000000000000000e+00" cType="1" res="-3.1225534155964851e-02" rms="4.6085348725318909e-01" purity="3.0606898665428162e-01" nType="-99"/>
          <Node pos="r" depth="2" NCoef="0" IVar="2" Cut="1.8011724948883057e+00" cType="1" res="-3.8003271818161011e-01" rms="1.7657561600208282e-01" purity="3.2960537821054459e-02" nType="0">
            <Node pos="l" depth="3" NCoef="0" IVar="-1" Cut="0.0000000000000000e+00" cType="1" res="-6.4426317811012268e-02" rms="3.1183740496635437e-01" purity="1.1036832630634308e-01" nType="-99"/>
            <Node pos="r" depth="3" NCoef="0" IVar="-1" Cut="0.0000000000000000e+00" cType="1" res="-8.1730268895626068e-02" rms="1.1999785155057907e-01" purity="1.4752458781003952e-02" nType="-99"/>
          </Node>
        </Node>
      </Node>
    </BinaryTree>
    <BinaryTree type="DecisionTree" boostWeight="1.0000000000000000e+00" itree="3">
      <Node pos="s" depth="0" NCoef="0" IVar="5" Cut="3.0000000000000000e+00" cType="1" res="5.1967687904834747e-03" rms="3.9185905456542969e-01" purity="4.9907708168029785e-01" nType="0">
        <Node pos="l" depth="1" NCoef="0" IVar="4" Cut="5.7139211893081665e-01" cType="1" res="3.2466834783554077e-01" rms="2.2234520316123962e-01" purity="9.4386339187622070e-01" nType="0">
          <Node pos="l" depth="2" NCoef="0" IVar="-1" Cut="0.0000000000000000e+00" cType="1" res="3.7773549556732178e-02" rms="4.1728866100311279e-01" purity="7.6833063364028931e-01" nType="-99"/>
          <Node pos="r" depth="2" NCoef="0" IVar="1" Cut="4.0000000000000000e+00" cType="1" res="3.4122976660728455e-01" rms="1.3378228247165680e-01" purity="9.8731267452239990e-01" nType="0">
            <Node pos="l" depth="3" NCoef="0" IVar="-1" Cut="0.0000000000000000e+00" cType="1" res="7.8117355704307556e-02" rms="7.9676441848278046e-02" purity="9.9353414773941040e-01" nType="-99"/>
            <Node pos="r" depth="3" NCoef="0" IVar="-1" Cut="0.0000000000000000e+00" cType="1" res="7.4011214077472687e-02" rms="1.6653472185134888e-01" purity="9.7134691476821899e-01" nType="-99"/>
          </Node>
        </Node>
        <Node pos="r" depth="1" NCoef="0" IVar="2" Cut="1.3429815769195557e+00" cType="1" res="-3.0940738320350647e-01" rms="2.5719216465950012e-01" purity="7.7428810298442841e-02" nType="0">
          <Node pos="l" depth="2" NCoef="0" IVar="-1" Cut="0.0000000000000000e+00" cType="1" res="-3.2681837677955627e-02" rms="4.4547826051712036e-01" purity="2.7686533331871033e-01" nType="-99"/>
          <Node pos="r" depth="2" NCoef="0" IVar="2" Cut="1.9822984933853149e+00" cType="1" res="-3.4818521142005920e-01" rms="1.5612684190273285e-01" purity="2.5419265031814575e-02" nType="0">
            <Node pos="l" depth="3" NCoef="0" IVar="-1" Cut="0.0000000000000000e+00" cType="1" res="-6.4941190183162689e-02" rms="2.6608797907829285e-01" purity="7.7154256403446198e-02" nType="-99"/>
            <Node pos="r" depth="3" NCoef="0" IVar="-1" Cut="0.0000000000000000e+00" cType="1" res="-7.6822869479656219e-02" rms="1.1043729633092880e-01" purity="1.2434069067239761e-02" nType="-99"/>
          </Node>
        </Node>
      </Node>
    </BinaryTree>
    <BinaryTree type="DecisionTree" boostWeight="1.0000000000000000e+00" itree="4">
      <Node pos="s" depth="0" NCoef="0" IVar="5" Cut="3.0000000000000000e+00" cType="1" res="3.4873448312282562e-03" rms="3.6681935191154480e-01" purity="4.9707913398742676e-01" nType="0">
        <Node pos="l" depth="1" NCoef="0" IVar="4" Cut="5.7136619091033936e-01" cType="1" res="2.9077932238578796e-01" rms="2.2454346716403961e-01" purity="9.4152957201004028e-01" nType="0">
          <Node pos="l" depth="2" NCoef="0" IVar="-1" Cut="0.0000000000000000e+00" cType="1" res="3.2781887799501419e-02" rms="4.2253544926643372e-01" purity="7.5988107919692993e-01" nType="-99"/>
          <Node pos="r" depth="2" NCoef="0" IVar="5" Cut="2.0000000000000000e+00" cType="1" res="6.6590607166290283e-02" rms="1.5319864451885223e-01" purity="9.8684376478195190e-01" nType="0">
            <Node pos="l" depth="3" NCoef="0" IVar="-1" Cut="0.0000000000000000e+00" cType="1" res="7.3890402913093567e-02" rms="8.3661854267120361e-02" purity="9.9292749166488647e-01" nType="-99"/>
            <Node pos="r" depth="3" NCoef="0" IVar="-1" Cut="0.0000000000000000e+00" cType="1" res="7.0235230028629303e-02" rms="1.5021988749504089e-01" purity="9.7663193941116333e-01" nType="-99"/>
          </Node>
        </Node>
        <Node pos="r" depth="1" NCoef="0" IVar="2" Cut="1.1192393302917480e+00" cType="1" res="-2.7787020802497864e-01" rms="2.5681820511817932e-01" purity="7.8471556305885315e-02" nType="0">
          <Node pos="l" depth="2" NCoef="0" IVar="-1" Cut="0.0000000000000000e+00" cType="1" res="-2.4594683200120926e-02" rms="4.6214494109153748e-01" purity="3.0915912985801697e-01" nType="-99"/>
          <Node pos="r" depth="2" NCoef="0" IVar="3" Cut="3.0000000000000000e+00" cType="1" res="-2.9244938492774963e-01" rms="1.8918012082576752e-01" purity="3.4479431807994843e-02" nType="0">
            <Node pos="l" depth="3" NCoef="0" IVar="-1" Cut="0.0000000000000000e+00" cType="1" res="-7.2750419378280640e-02" rms="1.0489387065172195e-01" purity="1.1109271086752415e-02" nType="-99"/>
            <Node pos="r" depth="3" NCoef="0" IVar="-1" Cut="0.0000000000000000e+00" cType="1" res="-5.6986797600984573e-02" rms="2.9612964391708374e-01" purity="9.8782107234001160e-02" nType="-99"/>
          </Node>
        </Node>
      </Node>
    </BinaryTree>
    <BinaryTree type="DecisionTree" boostWeight="1.0000000000000000e+00" itree="5">
      <Node pos="s" depth="0" NCoef="0" IVar="5" Cut="3.0000000000000000e+00" cType="1" res="5.5497623980045319e-03" rms="3.4483167529106140e-01" purity="4.9988654255867004e-01" nType="0">
        <Node pos="l" depth="1" NCoef="0" IVar="2" Cut="1.3333857059478760e+00" cType="1" res="2.6267629861831665e-01" rms="2.2251008450984955e-01" purity="9.4164717197418213e-01" nType="0">
          <Node pos="l" depth="2" NCoef="0" IVar="1" Cut="4.0000000000000000e+00" cType="1" res="2.9152953624725342e-01" rms="1.3062772154808044e-01" purity="9.8322576284408569e-01" nType="0">
            <Node pos="l" depth="3" NCoef="0" IVar="-1" Cut="0.0000000000000000e+00" cType="1" res="7.0571020245552063e-02" rms="1.0033196210861206e-01" purity="9.8959308862686157e-01" nType="-99"/>
            <Node pos="r" depth="3" NCoef="0" IVar="-1" Cut="0.0000000000000000e+00" cType="1" res="6.5836980938911438e-02" rms="1.7908965051174164e-01" purity="9.6618622541427612e-01" nType="-99"/>
          </Node>
          <Node pos="r" depth="2" NCoef="0" IVar="-1" Cut="0.0000000000000000e+00" cType="1" res="3.3227924257516861e-02" rms="3.7575450539588928e-01" purity="8.0639666318893433e-01" nType="-99"/>
        </Node>
        <Node pos="r" depth="1" NCoef="0" IVar="2" Cut="1.1192393302917480e+00" cType="1" res="-2.4907895922660828e-01" rms="2.5840744376182556e-01" purity="8.0931961536407471e-02" nType="0">
          <Node pos="l" depth="2" NCoef="0" IVar="-1" Cut="0.0000000000000000e+00" cType="1" res="-2.1469891071319580e-02" rms="4.6380591392517090e-01" purity="3.1324416399002075e-01" nType="-99"/>
          <Node pos="r" depth="2" NCoef="0" IVar="3" Cut="3.0000000000000000e+00" cType="1" res="-2.6053559780120850e-01" rms="1.8821550905704498e-01" purity="3.4487120807170868e-02" nType="0">
            <Node pos="l" depth="3" NCoef="0" IVar="-1" Cut="0.0000000000000000e+00" cType="1" res="-6.9130487740039825e-02" rms="1.0614883154630661e-01" purity="1.1399135924875736e-02" nType="-99"/>
            <Node pos="r" depth="3" NCoef="0" IVar="-1" Cut="0.0000000000000000e+00" cType="1" res="-5.3683757781982422e-02" rms="2.9360798001289368e-01" purity="9.6732869744300842e-02" nType="-99"/>
          </Node>
        </Node>
      </Node>
    </BinaryTree>
    <BinaryTree type="DecisionTree" boostWeight="1.0000000000000000e+00" itree="6">
      <Node pos="s" depth="0" NCoef="0" IVar="5" Cut="3.0000000000000000e+00" cType="1" res="4.5781792141497135e-03" rms="3.2593366503715515e-01" purity="5.0030630826950073e-01" nType="0">
        <Node pos="l" depth="1" NCoef="0" IVar="4" Cut="5.7136619091033936e-01" cType="1" res="2.3939692974090576e-01" rms="2.1708559989929199e-01" purity="9.4404369592666626e-01" nType="0">
          <Node pos="l" depth="2" NCoef="0" IVar="-1" Cut="0.0000000000000000e+00" cType="1" res="2.8070332482457161e-02" rms="4.1101956367492676e-01" purity="7.7287614345550537e-01" nType="-99"/>
          <Node pos="r" depth="2" NCoef="0" IVar="4" Cut="8.7755668163299561e-01" cType="1" res="2.6741331815719604e-01" rms="1.1161943525075912e-01" purity="9.8728930950164795e-01" nType="0">
            <Node pos="l" depth="3" NCoef="0" IVar="-1" Cut="0.0000000000000000e+00" cType="1" res="6.3272364437580109e-02" rms="1.5817213058471680e-01" purity="9.7397482395172119e-01" nType="-99"/>
            <Node pos="r" depth="3" NCoef="0" IVar="-1" Cut="0.0000000000000000e+00" cType="1" res="6.7526750266551971e-02" rms="8.7348043918609619e-02" purity="9.9233722686767578e-01" nType="-99"/>
          </Node>
        </Node>
        <Node pos="r" depth="1" NCoef="0" IVar="2" Cut="1.5666577816009521e+00" cType="1" res="-2.2707429528236389e-01" rms="2.5194111466407776e-01" purity="7.7653266489505768e-02" nType="0">
          <Node pos="l" depth="2" NCoef="0" IVar="-1" Cut="0.0000000000000000e+00" cType="1" res="-2.7837110683321953e-02" rms="4.2368695139884949e-01" purity="2.4555633962154388e-01" nType="-99"/>
          <Node pos="r" depth="2" NCoef="0" IVar="5" Cut="4.0000000000000000e+00" cType="1" res="-2.2514203190803528e-01" rms="1.6099515557289124e-01" purity="2.0197410136461258e-02" nType="0">
            <Node pos="l" depth="3" NCoef="0" IVar="-1" Cut="0.0000000000000000e+00" cType="1" res="-5.8944426476955414e-02" rms="2.0343051850795746e-01" purity="4.4224780052900314e-02" nType="-99"/>
            <Node pos="r" depth="3" NCoef="0" IVar="-1" Cut="0.0000000000000000e+00" cType="1" res="-6.7106485366821289e-02" rms="9.5879539847373962e-02" purity="9.3802455812692642e-03" nType="-99"/>
          </Node>
        </Node>
      </Node>
    </BinaryTree>
    <BinaryTree type="DecisionTree" boostWeight="1.0000000000000000e+00" itree="7">
      <Node pos="s" depth="0" NCoef="0" IVar="5" Cut="3.0000000000000000e+00" cType="1" res="7.2471555322408676e-03" rms="3.0971971154212952e-01" purity="5.0387585163116455e-01" nType="0">
        <Node pos="l" depth="1" NCoef="0" IVar="2" Cut="1.3333754539489746e+00" cType="1" res="2.1678762137889862e-01" rms="2.1362079679965973e-01" purity="9.4521373510360718e-01" nType="0">
          <Node pos="l" depth="2" NCoef="0" IVar="1" Cut="4.0000000000000000e+00" cType="1" res="2.3999574780464172e-01" rms="1.2954857945442200e-01" purity="9.8268032073974609e-01" nType="0">
            <Node pos="l" depth="3" NCoef="0" IVar="-1" Cut="0.0000000000000000e+00" cType="1" res="6.4998738467693329e-02" rms="1.0378474742174149e-01" purity="9.8889166116714478e-01" nType="-99"/>
            <Node pos="r" depth="3" NCoef="0" IVar="-1" Cut="0.0000000000000000e+00" cType="1" res="5.9819210320711136e-02" rms="1.7853578925132751e-01" purity="9.6627730131149292e-01" nType="-99"/>
          </Node>
          <Node pos="r" depth="2" NCoef="0" IVar="-1" Cut="0.0000000000000000e+00" cType="1" res="2.9864624142646790e-02" rms="3.6099687218666077e-01" purity="8.2175594568252563e-01" nType="-99"/>
        </Node>
        <Node pos="r" depth="1" NCoef="0" IVar="2" Cut="1.1183844804763794e+00" cType="1" res="-2.0295022428035736e-01" rms="2.5432834029197693e-01" purity="8.0283507704734802e-02" nType="0">
          <Node pos="l" depth="2" NCoef="0" IVar="-1" Cut="0.0000000000000000e+00" cType="1" res="-1.6388865187764168e-02" rms="4.6478024125099182e-01" purity="3.1566515564918518e-01" nType="-99"/>
          <Node pos="r" depth="2" NCoef="0" IVar="2" Cut="1.8000068664550781e+00" cType="1" res="-2.2730867564678192e-01" rms="1.7745164036750793e-01" purity="3.4302804619073868e-02" nType="0">
            <Node pos="l" depth="3" NCoef="0" IVar="-1" Cut="0.0000000000000000e+00" cType="1" res="-4.3040033429861069e-02" rms="3.1969535350799561e-01" purity="1.1812441796064377e-01" nType="-99"/>
            <Node pos="r" depth="3" NCoef="0" IVar="-1" Cut="0.0000000000000000e+00" cType="1" res="-6.3036322593688965e-02" rms="1.2056893855333328e-01" purity="1.4979056082665920e-02" nType="-99"/>
          </Node>
        </Node>
      </Node>
    </BinaryTree>
    <BinaryTree type="DecisionTree" boostWeight="1.0000000000000000e+00" itree="8">
      <Node pos="s" depth="0" NCoef="0" IVar="4" Cut="4.2853698134422302e-01" cType="1" res="-1.2023909948766232e-03" rms="3.0195748805999756e-01" purity="4.9975267052650452e-01" nType="0">
        <Node pos="l" depth="1" NCoef="0" IVar="2" Cut="8.9453333616256714e-01" cType="1" res="-1.6504712402820587e-01" rms="2.8398364782333374e-01" purity="1.4743341505527496e-01" nType="0">
          <Node pos="l" depth="2" NCoef="0" IVar="-1" Cut="0.0000000000000000e+00" cType="1" res="7.4140275828540325e-03" rms="4.3527904152870178e-01" purity="5.1735270023345947e-01" nType="-99"/>
          <Node pos="r" depth="2" NCoef="0" IVar="3" Cut="3.0000000000000000e+00" cType="1" res="-1.8987630307674408e-01" rms="2.3016536235809326e-01" purity="8.1236667931079865e-02" nType="0">
            <Node pos="l" depth="3" NCoef="0" IVar="-1" Cut="0.0000000000000000e+00" cType="1" res="-6.4355388283729553e-02" rms="1.4132057130336761e-01" purity="2.1203096956014633e-02" nType="-99"/>
            <Node pos="r" depth="3" NCoef="0" IVar="-1" Cut="0.0000000000000000e+00" cType="1" res="-3.3103574067354202e-02" rms="3.4316897392272949e-01" purity="2.1124865114688873e-01" nType="-99"/>
          </Node>
        </Node>
        <Node pos="r" depth="1" NCoef="0" IVar="5" Cut="2.0000000000000000e+00" cType="1" res="1.4898504316806793e-01" rms="1.5972788631916046e-01" purity="9.6683931350708008e-01" nType="0">
          <Node pos="l" depth="2" NCoef="0" IVar="2" Cut="7.8891491889953613e-01" cType="1" res="2.2726234793663025e-01" rms="8.1233836710453033e-02" purity="9.9353879690170288e-01" nType="0">
            <Node pos="l" depth="3" NCoef="0" IVar="-1" Cut="0.0000000000000000e+00" cType="1" res="6.2940098345279694e-02" rms="7.5655244290828705e-02" purity="9.9427574872970581e-01" nType="-99"/>
            <Node pos="r" depth="3" NCoef="0" IVar="-1" Cut="0.0000000000000000e+00" cType="1" res="6.4240701496601105e-02" rms="8.6326055228710175e-02" purity="9.9270403385162354e-01" nType="-99"/>
          </Node>
          <Node pos="r" depth="2" NCoef="0" IVar="-1" Cut="0.0000000000000000e+00" cType="1" res="5.4249446839094162e-02" rms="2.0650272071361542e-01" purity="9.3186002969741821e-01" nType="-99"/>
        </Node>
      </Node>
    </BinaryTree>
    <BinaryTree type="DecisionTree" boostWeight="1.0000000000000000e+00" itree="9">
      <Node pos="s" depth="0" NCoef="0" IVar="5" Cut="3.0000000000000000e+00" cType="1" res="4.0609459392726421e-03" rms="2.8439226746559143e-01" purity="4.9776631593704224e-01" nType="0">
        <Node pos="l" depth="1" NCoef="0" IVar="2" Cut="1.4060745239257812e+00" cType="1" res="1.7682006955146790e-01" rms="2.1167227625846863e-01" purity="9.4223499298095703e-01" nType="0">
          <Node pos="l" depth="2" NCoef="0" IVar="1" Cut="4.0000000000000000e+00" cType="1" res="1.9843786954879761e-01" rms="1.3161280751228333e-01" purity="9.8108655214309692e-01" nType="0">
            <Node pos="l" depth="3" NCoef="0" IVar="-1" Cut="0.0000000000000000e+00" cType="1" res="6.0667328536510468e-02" rms="1.1001262813806534e-01" purity="9.8695927858352661e-01" nType="-99"/>
            <Node pos="r" depth="3" NCoef="0" IVar="-1" Cut="0.0000000000000000e+00" cType="1" res="5.5217564105987549e-02" rms="1.7934222519397736e-01" purity="9.6578401327133179e-01" nType="-99"/>
          </Node>
          <Node pos="r" depth="2" NCoef="0" IVar="-1" Cut="0.0000000000000000e+00" cType="1" res="2.0769933238625526e-02" rms="3.6547401547431946e-01" purity="7.9894882440567017e-01" nType="-99"/>
        </Node>
        <Node pos="r" depth="1" NCoef="0" IVar="1" Cut="5.0000000000000000e+00" cType="1" res="-1.5690499544143677e-01" rms="2.5117859244346619e-01" purity="8.1017009913921356e-02" nType="0">
          <Node pos="l" depth="2" NCoef="0" IVar="2" Cut="1.5644588470458984e+00" cType="1" res="-1.3929083943367004e-01" rms="2.7696794271469116e-01" purity="1.0355990380048752e-01" nType="0">
            <Node pos="l" depth="3" NCoef="0" IVar="-1" Cut="0.0000000000000000e+00" cType="1" res="2.2984137758612633e-03" rms="4.6187305450439453e-01" purity="3.5091775655746460e-01" nType="-99"/>
            <Node pos="r" depth="3" NCoef="0" IVar="-1" Cut="0.0000000000000000e+00" cType="1" res="-5.5398736149072647e-02" rms="1.6032230854034424e-01" purity="2.7473447844386101e-02" nType="-99"/>
          </Node>
          <Node pos="r" depth="2" NCoef="0" IVar="-1" Cut="0.0000000000000000e+00" cType="1" res="-6.4066797494888306e-02" rms="1.4712671935558319e-01" purity="1.9761847332119942e-02" nType="-99"/>
        </Node>
      </Node>
    </BinaryTree>
    <BinaryTree type="DecisionTree" boostWeight="1.0000000000000000e+00" itree="10">
      <Node pos="s" depth="0" NCoef="0" IVar="4" Cut="4.2853698134422302e-01" cType="1" res="1.3905973173677921e-03" rms="2.7891871333122253e-01" purity="5.0129663944244385e-01" nType="0">
        <Node pos="l" depth="1" NCoef="0" IVar="2" Cut="1.5663841962814331e+00" cType="1" res="-1.3369023799896240e-01" rms="2.8036820888519287e-01" purity="1.4943344891071320e-01" nType="0">
          <Node pos="l" depth="2" NCoef="0" IVar="2" Cut="8.9495825767517090e-01" cType="1" res="-2.9289539903402328e-02" rms="4.0748077630996704e-01" purity="3.9852279424667358e-01" nType="0">
            <Node pos="l" depth="3" NCoef="0" IVar="-1" Cut="0.0000000000000000e+00" cType="1" res="5.5716545321047306e-03" rms="4.2660766839981079e-01" purity="5.0891119241714478e-01" nType="-99"/>
            <Node pos="r" depth="3" NCoef="0" IVar="-1" Cut="0.0000000000000000e+00" cType="1" res="-2.0531494170427322e-02" rms="3.7888213992118835e-01" purity="2.8525575995445251e-01" nType="-99"/>
          </Node>
          <Node pos="r" depth="2" NCoef="0" IVar="2" Cut="2.1631374359130859e+00" cType="1" res="-1.7828056216239929e-01" rms="1.8606165051460266e-01" purity="4.3045509606599808e-02" nType="0">
            <Node pos="l" depth="3" NCoef="0" IVar="-1" Cut="0.0000000000000000e+00" cType="1" res="-4.0529482066631317e-02" rms="2.7772656083106995e-01" purity="1.1894419789314270e-01" nType="-99"/>
            <Node pos="r" depth="3" NCoef="0" IVar="-1" Cut="0.0000000000000000e+00" cType="1" res="-6.0200195759534836e-02" rms="1.4745093882083893e-01" purity="2.1012103185057640e-02" nType="-99"/>
          </Node>
        </Node>
        <Node pos="r" depth="1" NCoef="0" IVar="4" Cut="7.8228276968002319e-01" cType="1" res="1.8074733018875122e-01" rms="1.4255790412425995e-01" purity="9.6849125623703003e-01" nType="0">
          <Node pos="l" depth="2" NCoef="0" IVar="-1" Cut="0.0000000000000000e+00" cType="1" res="4.7085836529731750e-02" rms="2.3160584270954132e-01" purity="9.0072023868560791e-01" nType="-99"/>
          <Node pos="r" depth="2" NCoef="0" IVar="2" Cut="1.0518360137939453e+00" cType="1" res="1.8566678464412689e-01" rms="1.0055384039878845e-01" purity="9.8905068635940552e-01" nType="0">
            <Node pos="l" depth="3" NCoef="0" IVar="-1" Cut="0.0000000000000000e+00" cType="1" res="5.9123501181602478e-02" rms="8.7549619376659393e-02" purity="9.9227577447891235e-01" nType="-99"/>
            <Node pos="r" depth="3" NCoef="0" IVar="-1" Cut="0.0000000000000000e+00" cType="1" res="5.9417538344860077e-02" rms="1.2386553734540939e-01" purity="9.8178458213806152e-01" nType="-99"/>
          </Node>
        </Node>
      </Node>
    </BinaryTree>
    <BinaryTree type="DecisionTree" boostWeight="1.0000000000000000e+00" itree="11">
      <Node pos="s" depth="0" NCoef="0" IVar="5" Cut="3.0000000000000000e+00" cType="1" res="7.3403283022344112e-03" rms="2.6032578945159912e-01" purity="5.0196456909179688e-01" nType="0">
        <Node pos="l" depth="1" NCoef="0" IVar="2" Cut="1.4078561067581177e+00" cType="1" res="1.4642794430255890e-01" rms="2.0505471527576447e-01" purity="9.4320636987686157e-01" nType="0">
          <Node pos="l" depth="2" NCoef="0" IVar="4" Cut="8.5710233449935913e-01" cType="1" res="1.6779999434947968e-01" rms="1.3186450302600861e-01" purity="9.8168992996215820e-01" nType="0">
            <Node pos="l" depth="3" NCoef="0" IVar="-1" Cut="0.0000000000000000e+00" cType="1" res="5.3415667265653610e-02" rms="1.8869224190711975e-01" purity="9.6178007125854492e-01" nType="-99"/>
            <Node pos="r" depth="3" NCoef="0" IVar="-1" Cut="0.0000000000000000e+00" cType="1" res="5.7519063353538513e-02" rms="8.6443819105625153e-02" purity="9.9241793155670166e-01" nType="-99"/>
          </Node>
          <Node pos="r" depth="2" NCoef="0" IVar="-1" Cut="0.0000000000000000e+00" cType="1" res="1.8022108823060989e-02" rms="3.5273417830467224e-01" purity="8.0251920223236084e-01" nType="-99"/>
        </Node>
        <Node pos="r" depth="1" NCoef="0" IVar="1" Cut="5.0000000000000000e+00" cType="1" res="-1.2346576899290085e-01" rms="2.4622638523578644e-01" purity="8.2933299243450165e-02" nType="0">
          <Node pos="l" depth="2" NCoef="0" IVar="3" Cut="3.0000000000000000e+00" cType="1" res="-9.4006568193435669e-02" rms="2.6689311861991882e-01" purity="1.0534995794296265e-01" nType="0">
            <Node pos="l" depth="3" NCoef="0" IVar="-1" Cut="0.0000000000000000e+00" cType="1" res="-5.6658912450075150e-02" rms="1.1454527825117111e-01" purity="1.2923571281135082e-02" nType="-99"/>
            <Node pos="r" depth="3" NCoef="0" IVar="-1" Cut="0.0000000000000000e+00" cType="1" res="-1.8294351175427437e-03" rms="4.2445033788681030e-01" purity="2.8636667132377625e-01" nType="-99"/>
          </Node>
          <Node pos="r" depth="2" NCoef="0" IVar="-1" Cut="0.0000000000000000e+00" cType="1" res="-6.1183832585811615e-02" rms="1.4444935321807861e-01" purity="1.9023198634386063e-02" nType="-99"/>
        </Node>
      </Node>
    </BinaryTree>
    <BinaryTree type="DecisionTree" boostWeight="1.0000000000000000e+00" itree="12">
      <Node pos="s" depth="0" NCoef="0" IVar="4" Cut="4.2848038673400879e-01" cType="1" res="-2.3690800298936665e-04" rms="2.5916445255279541e-01" purity="5.0162863731384277e-01" nType="0">
        <Node pos="l" depth="1" NCoef="0" IVar="2" Cut="8.9508473873138428e-01" cType="1" res="-1.1364769190549850e-01" rms="2.6984927058219910e-01" purity="1.4790906012058258e-01" nType="0">
          <Node pos="l" depth="2" NCoef="0" IVar="-1" Cut="0.0000000000000000e+00" cType="1" res="7.7413800172507763e-03" rms="4.1727620363235474e-01" purity="5.2189397811889648e-01" nType="-99"/>
          <Node pos="r" depth="2" NCoef="0" IVar="3" Cut="3.0000000000000000e+00" cType="1" res="-1.3183234632015228e-01" rms="2.2045309841632843e-01" purity="8.0109305679798126e-02" nType="0">
            <Node pos="l" depth="3" NCoef="0" IVar="-1" Cut="0.0000000000000000e+00" cType="1" res="-5.8618839830160141e-02" rms="1.4229048788547516e-01" purity="1.9652422517538071e-02" nType="-99"/>
            <Node pos="r" depth="3" NCoef="0" IVar="-1" Cut="0.0000000000000000e+00" cType="1" res="-2.5954937562346458e-02" rms="3.3199101686477661e-01" purity="2.0983731746673584e-01" nType="-99"/>
          </Node>
        </Node>
        <Node pos="r" depth="1" NCoef="0" IVar="5" Cut="2.0000000000000000e+00" cType="1" res="1.1129999160766602e-01" rms="1.4153023064136505e-01" purity="9.6796220541000366e-01" nType="0">
          <Node pos="l" depth="2" NCoef="0" IVar="2" Cut="7.8904938697814941e-01" cType="1" res="1.5687437355518341e-01" rms="8.4601722657680511e-02" purity="9.9310517311096191e-01" nType="0">
            <Node pos="l" depth="3" NCoef="0" IVar="-1" Cut="0.0000000000000000e+00" cType="1" res="5.6886788457632065e-02" rms="7.5438402593135834e-02" purity="9.9428749084472656e-01" nType="-99"/>
            <Node pos="r" depth="3" NCoef="0" IVar="-1" Cut="0.0000000000000000e+00" cType="1" res="5.8115176856517792e-02" rms="9.2951670289039612e-02" purity="9.9174040555953979e-01" nType="-99"/>
          </Node>
          <Node pos="r" depth="2" NCoef="0" IVar="-1" Cut="0.0000000000000000e+00" cType="1" res="4.6797513961791992e-02" rms="1.9470666348934174e-01" purity="9.3438220024108887e-01" nType="-99"/>
        </Node>
      </Node>
    </BinaryTree>
    <BinaryTree type="DecisionTree" boostWeight="1.0000000000000000e+00" itree="13">
      <Node pos="s" depth="0" NCoef="0" IVar="5" Cut="3.0000000000000000e+00" cType="1" res="2.4191115517169237e-03" rms="2.4906173348426819e-01" purity="4.9649775028228760e-01" nType="0">
        <Node pos="l" depth="1" NCoef="0" IVar="2" Cut="1.4507759809494019e+00" cType="1" res="1.2145479023456573e-01" rms="2.0484992861747742e-01" purity="9.4199633598327637e-01" nType="0">
          <Node pos="l" depth="2" NCoef="0" IVar="1" Cut="4.0000000000000000e+00" cType="1" res="1.3454240560531616e-01" rms="1.3833317160606384e-01" purity="9.7855824232101440e-01" nType="0">
            <Node pos="l" depth="3" NCoef="0" IVar="-1" Cut="0.0000000000000000e+00" cType="1" res="5.4606847465038300e-02" rms="1.1667078733444214e-01" purity="9.8533064126968384e-01" nType="-99"/>
            <Node pos="r" depth="3" NCoef="0" IVar="-1" Cut="0.0000000000000000e+00" cType="1" res="4.6049527823925018e-02" rms="1.9120287895202637e-01" purity="9.6054279804229736e-01" nType="-99"/>
          </Node>
          <Node pos="r" depth="2" NCoef="0" IVar="-1" Cut="0.0000000000000000e+00" cType="1" res="1.5344435349106789e-02" rms="3.4914633631706238e-01" purity="8.0023366212844849e-01" nType="-99"/>
        </Node>
        <Node pos="r" depth="1" NCoef="0" IVar="1" Cut="5.0000000000000000e+00" cType="1" res="-1.0890763252973557e-01" rms="2.3931173980236053e-01" purity="7.8320123255252838e-02" nType="0">
          <Node pos="l" depth="2" NCoef="0" IVar="2" Cut="1.5651592016220093e+00" cType="1" res="-9.3752235174179077e-02" rms="2.6381614804267883e-01" purity="9.9621288478374481e-02" nType="0">
            <Node pos="l" depth="3" NCoef="0" IVar="-1" Cut="0.0000000000000000e+00" cType="1" res="5.1983753219246864e-03" rms="4.5896220207214355e-01" purity="3.5452055931091309e-01" nType="-99"/>
            <Node pos="r" depth="3" NCoef="0" IVar="-1" Cut="0.0000000000000000e+00" cType="1" res="-4.9863368272781372e-02" rms="1.5072312951087952e-01" purity="2.4252207949757576e-02" nType="-99"/>
          </Node>
          <Node pos="r" depth="2" NCoef="0" IVar="-1" Cut="0.0000000000000000e+00" cType="1" res="-5.8921098709106445e-02" rms="1.4352878928184509e-01" purity="1.7846744507551193e-02" nType="-99"/>
        </Node>
      </Node>
    </BinaryTree>
    <BinaryTree type="DecisionTree" boostWeight="1.0000000000000000e+00" itree="14">
      <Node pos="s" depth="0" NCoef="0" IVar="4" Cut="2.8568187355995178e-01" cType="1" res="7.9325737897306681e-04" rms="2.4749273061752319e-01" purity="5.0204622745513916e-01" nType="0">
        <Node pos="l" depth="1" NCoef="0" IVar="1" Cut="5.0000000000000000e+00" cType="1" res="-9.4717115163803101e-02" rms="2.5177043676376343e-01" purity="1.1944545060396194e-01" nType="0">
          <Node pos="l" depth="2" NCoef="0" IVar="2" Cut="1.3417879343032837e+00" cType="1" res="-7.6748602092266083e-02" rms="2.7940183877944946e-01" purity="1.5513747930526733e-01" nType="0">
            <Node pos="l" depth="3" NCoef="0" IVar="-1" Cut="0.0000000000000000e+00" cType="1" res="1.4428489841520786e-02" rms="4.3484067916870117e-01" purity="5.1953148841857910e-01" nType="-99"/>
            <Node pos="r" depth="3" NCoef="0" IVar="-1" Cut="0.0000000000000000e+00" cType="1" res="-4.5101184397935867e-02" rms="2.0002211630344391e-01" purity="5.2927013486623764e-02" nType="-99"/>
          </Node>
          <Node pos="r" depth="2" NCoef="0" IVar="-1" Cut="0.0000000000000000e+00" cType="1" res="-5.9725612401962280e-02" rms="1.5523768961429596e-01" purity="2.0412992686033249e-02" nType="-99"/>
        </Node>
        <Node pos="r" depth="1" NCoef="0" IVar="2" Cut="1.5253479480743408e+00" cType="1" res="1.1142482608556747e-01" rms="1.8189424276351929e-01" purity="9.1486006975173950e-01" nType="0">
          <Node pos="l" depth="2" NCoef="0" IVar="4" Cut="7.9589533805847168e-01" cType="1" res="1.2971389293670654e-01" rms="1.3305965065956116e-01" purity="9.7668492794036865e-01" nType="0">
            <Node pos="l" depth="3" NCoef="0" IVar="-1" Cut="0.0000000000000000e+00" cType="1" res="5.0452545285224915e-02" rms="2.0778781175613403e-01" purity="9.3683254718780518e-01" nType="-99"/>
            <Node pos="r" depth="3" NCoef="0" IVar="-1" Cut="0.0000000000000000e+00" cType="1" res="5.3998820483684540e-02" rms="9.0539649128913879e-02" purity="9.9127554893493652e-01" nType="-99"/>
          </Node>
          <Node pos="r" depth="2" NCoef="0" IVar="-1" Cut="0.0000000000000000e+00" cType="1" res="1.1438271030783653e-02" rms="2.9851540923118591e-01" purity="6.6158181428909302e-01" nType="-99"/>
        </Node>
      </Node>
    </BinaryTree>
    <BinaryTree type="DecisionTree" boostWeight="1.0000000000000000e+00" itree="15">
      <Node pos="s" depth="0" NCoef="0" IVar="5" Cut="3.0000000000000000e+00" cType="1" res="3.2867002300918102e-03" rms="2.3495911061763763e-01" purity="4.9898904561996460e-01" nType="0">
        <Node pos="l" depth="1" NCoef="0" IVar="4" Cut="5.7132416963577271e-01" cType="1" res="1.0269802063703537e-01" rms="1.9553102552890778e-01" purity="9.4553327560424805e-01" nType="0">
          <Node pos="l" depth="2" NCoef="0" IVar="-1" Cut="0.0000000000000000e+00" cType="1" res="1.1850537732243538e-02" rms="3.7497299909591675e-01" purity="7.7383816242218018e-01" nType="-99"/>
          <Node pos="r" depth="2" NCoef="0" IVar="2" Cut="1.0900150537490845e+00" cType="1" res="1.1695177108049393e-01" rms="1.0926417261362076e-01" purity="9.8791074752807617e-01" nType="0">
            <Node pos="l" depth="3" NCoef="0" IVar="-1" Cut="0.0000000000000000e+00" cType="1" res="5.3210154175758362e-02" rms="8.3979435265064240e-02" purity="9.9284249544143677e-01" nType="-99"/>
            <Node pos="r" depth="3" NCoef="0" IVar="-1" Cut="0.0000000000000000e+00" cType="1" res="5.0628364086151123e-02" rms="1.5244160592556000e-01" purity="9.7613972425460815e-01" nType="-99"/>
          </Node>
        </Node>
        <Node pos="r" depth="1" NCoef="0" IVar="1" Cut="2.0000000000000000e+00" cType="1" res="-9.0258441865444183e-02" rms="2.3480513691902161e-01" purity="7.8619338572025299e-02" nType="0">
          <Node pos="l" depth="2" NCoef="0" IVar="-1" Cut="0.0000000000000000e+00" cType="1" res="-5.4054815322160721e-02" rms="1.7593738436698914e-01" purity="3.3514011651277542e-02" nType="-99"/>
          <Node pos="r" depth="2" NCoef="0" IVar="5" Cut="4.0000000000000000e+00" cType="1" res="-7.8375324606895447e-02" rms="2.4474735558032990e-01" purity="9.3477331101894379e-02" nType="0">
            <Node pos="l" depth="3" NCoef="0" IVar="-1" Cut="0.0000000000000000e+00" cType="1" res="4.7842523781582713e-04" rms="3.5827368497848511e-01" purity="2.1191649138927460e-01" nType="-99"/>
            <Node pos="r" depth="3" NCoef="0" IVar="-1" Cut="0.0000000000000000e+00" cType="1" res="-4.3864432722330093e-02" rms="1.8367731571197510e-01" purity="4.5224986970424652e-02" nType="-99"/>
          </Node>
        </Node>
      </Node>
    </BinaryTree>
    <BinaryTree type="DecisionTree" boostWeight="1.0000000000000000e+00" itree="16">
      <Node pos="s" depth="0" NCoef="0" IVar="4" Cut="4.2847284674644470e-01" cType="1" res="-2.2563617676496506e-03" rms="2.3852176964282990e-01" purity="4.9622192978858948e-01" nType="0">
        <Node pos="l" depth="1" NCoef="0" IVar="2" Cut="8.9516383409500122e-01" cType="1" res="-7.8973211348056793e-02" rms="2.6358029246330261e-01" purity="1.4801597595214844e-01" nType="0">
          <Node pos="l" depth="2" NCoef="0" IVar="-1" Cut="0.0000000000000000e+00" cType="1" res="9.0605495497584343e-03" rms="4.0027773380279541e-01" purity="5.1441669464111328e-01" nType="-99"/>
          <Node pos="r" depth="2" NCoef="0" IVar="1" Cut="2.0000000000000000e+00" cType="1" res="-9.3802362680435181e-02" rms="2.1950393915176392e-01" purity="7.9546242952346802e-02" nType="0">
            <Node pos="l" depth="3" NCoef="0" IVar="-1" Cut="0.0000000000000000e+00" cType="1" res="-5.8177996426820755e-02" rms="1.9013552367687225e-01" purity="3.6772172898054123e-02" nType="-99"/>
            <Node pos="r" depth="3" NCoef="0" IVar="-1" Cut="0.0000000000000000e+00" cType="1" res="-3.4000620245933533e-02" rms="2.2979798913002014e-01" purity="9.3966417014598846e-02" nType="-99"/>
          </Node>
        </Node>
        <Node pos="r" depth="1" NCoef="0" IVar="4" Cut="7.8223371505737305e-01" cType="1" res="1.0131605714559555e-01" rms="1.4571642875671387e-01" purity="9.6632111072540283e-01" nType="0">
          <Node pos="l" depth="2" NCoef="0" IVar="-1" Cut="0.0000000000000000e+00" cType="1" res="3.2358206808567047e-02" rms="2.3508094251155853e-01" purity="8.9323753118515015e-01" nType="-99"/>
          <Node pos="r" depth="2" NCoef="0" IVar="2" Cut="9.4220995903015137e-01" cType="1" res="1.0611958801746368e-01" rms="1.0493610799312592e-01" purity="9.8805743455886841e-01" nType="0">
            <Node pos="l" depth="3" NCoef="0" IVar="-1" Cut="0.0000000000000000e+00" cType="1" res="5.2265703678131104e-02" rms="8.5370056331157684e-02" purity="9.9249905347824097e-01" nType="-99"/>
            <Node pos="r" depth="3" NCoef="0" IVar="-1" Cut="0.0000000000000000e+00" cType="1" res="5.0943523645401001e-02" rms="1.3120348751544952e-01" purity="9.8039329051971436e-01" nType="-99"/>
          </Node>
        </Node>
      </Node>
    </BinaryTree>
    <BinaryTree type="DecisionTree" boostWeight="1.0000000000000000e+00" itree="17">
      <Node pos="s" depth="0" NCoef="0" IVar="5" Cut="3.0000000000000000e+00" cType="1" res="2.4217225145548582e-03" rms="2.2623309493064880e-01" purity="4.9953001737594604e-01" nType="0">
        <Node pos="l" depth="1" NCoef="0" IVar="2" Cut="1.3334149122238159e+00" cType="1" res="8.2786805927753448e-02" rms="1.9687622785568237e-01" purity="9.4174849987030029e-01" nType="0">
          <Node pos="l" depth="2" NCoef="0" IVar="4" Cut="8.5703575611114502e-01" cType="1" res="9.7410038113594055e-02" rms="1.2891343235969543e-01" purity="9.8207610845565796e-01" nType="0">
            <Node pos="l" depth="3" NCoef="0" IVar="-1" Cut="0.0000000000000000e+00" cType="1" res="4.4833041727542877e-02" rms="1.8693187832832336e-01" purity="9.6120226383209229e-01" nType="-99"/>
            <Node pos="r" depth="3" NCoef="0" IVar="-1" Cut="0.0000000000000000e+00" cType="1" res="5.1570001989603043e-02" rms="8.0480568110942841e-02" purity="9.9344027042388916e-01" nType="-99"/>
          </Node>
          <Node pos="r" depth="2" NCoef="0" IVar="-1" Cut="0.0000000000000000e+00" cType="1" res="1.1074352078139782e-02" rms="3.2770535349845886e-01" purity="8.1142187118530273e-01" nType="-99"/>
        </Node>
        <Node pos="r" depth="1" NCoef="0" IVar="1" Cut="5.0000000000000000e+00" cType="1" res="-7.3058940470218658e-02" rms="2.2882118821144104e-01" purity="7.7281862497329712e-02" nType="0">
          <Node pos="l" depth="2" NCoef="0" IVar="3" Cut="3.0000000000000000e+00" cType="1" res="-5.2991539239883423e-02" rms="2.4870346486568451e-01" purity="9.7380198538303375e-02" nType="0">
            <Node pos="l" depth="3" NCoef="0" IVar="-1" Cut="0.0000000000000000e+00" cType="1" res="-5.0643242895603180e-02" rms="1.1409214884042740e-01" purity="1.2533932924270630e-02" nType="-99"/>
            <Node pos="r" depth="3" NCoef="0" IVar="-1" Cut="0.0000000000000000e+00" cType="1" res="2.1642337087541819e-03" rms="4.0698939561843872e-01" purity="2.6878148317337036e-01" nType="-99"/>
          </Node>
          <Node pos="r" depth="2" NCoef="0" IVar="-1" Cut="0.0000000000000000e+00" cType="1" res="-5.2308298647403717e-02" rms="1.4847221970558167e-01" purity="2.1923495456576347e-02" nType="-99"/>
        </Node>
      </Node>
    </BinaryTree>
    <BinaryTree type="DecisionTree" boostWeight="1.0000000000000000e+00" itree="18">
      <Node pos="s" depth="0" NCoef="0" IVar="4" Cut="4.2853698134422302e-01" cType="1" res="-1.2210941640660167e-03" rms="2.2918879985809326e-01" purity="4.9561426043510437e-01" nType="0">
        <Node pos="l" depth="1" NCoef="0" IVar="3" Cut="3.0000000000000000e+00" cType="1" res="-5.8733094483613968e-02" rms="2.5421902537345886e-01" purity="1.4563257992267609e-01" nType="0">
          <Node pos="l" depth="2" NCoef="0" IVar="5" Cut="4.0000000000000000e+00" cType="1" res="-9.3859083950519562e-02" rms="1.4365251362323761e-01" purity="2.2430008277297020e-02" nType="0">
            <Node pos="l" depth="3" NCoef="0" IVar="-1" Cut="0.0000000000000000e+00" cType="1" res="-5.2585065364837646e-02" rms="2.3143590986728668e-01" purity="5.8020502328872681e-02" nType="-99"/>
            <Node pos="r" depth="3" NCoef="0" IVar="-1" Cut="0.0000000000000000e+00" cType="1" res="-5.1970653235912323e-02" rms="7.2842679917812347e-02" purity="5.3141131065785885e-03" nType="-99"/>
          </Node>
          <Node pos="r" depth="2" NCoef="0" IVar="4" Cut="8.1443011760711670e-02" cType="1" res="-1.8029687926173210e-02" rms="3.5593467950820923e-01" purity="3.1675103306770325e-01" nType="0">
            <Node pos="l" depth="3" NCoef="0" IVar="-1" Cut="0.0000000000000000e+00" cType="1" res="-2.3891545832157135e-02" rms="3.3106881380081177e-01" purity="1.7084830999374390e-01" nType="-99"/>
            <Node pos="r" depth="3" NCoef="0" IVar="-1" Cut="0.0000000000000000e+00" cType="1" res="1.9218448549509048e-02" rms="3.7121236324310303e-01" purity="5.1875573396682739e-01" nType="-99"/>
          </Node>
        </Node>
        <Node pos="r" depth="1" NCoef="0" IVar="5" Cut="2.0000000000000000e+00" cType="1" res="7.3228172957897186e-02" rms="1.3026356697082520e-01" purity="9.6780759096145630e-01" nType="0">
          <Node pos="l" depth="2" NCoef="0" IVar="2" Cut="7.8888005018234253e-01" cType="1" res="9.2831484973430634e-02" rms="7.9487293958663940e-02" purity="9.9409294128417969e-01" nType="0">
            <Node pos="l" depth="3" NCoef="0" IVar="-1" Cut="0.0000000000000000e+00" cType="1" res="5.1390156149864197e-02" rms="7.4358694255352020e-02" purity="9.9445307254791260e-01" nType="-99"/>
            <Node pos="r" depth="3" NCoef="0" IVar="-1" Cut="0.0000000000000000e+00" cType="1" res="5.3557619452476501e-02" rms="8.3392046391963959e-02" purity="9.9367672204971313e-01" nType="-99"/>
          </Node>
          <Node pos="r" depth="2" NCoef="0" IVar="-1" Cut="0.0000000000000000e+00" cType="1" res="3.5273633897304535e-02" rms="1.9651103019714355e-01" purity="9.3152505159378052e-01" nType="-99"/>
        </Node>
      </Node>
    </BinaryTree>
    <BinaryTree type="DecisionTree" boostWeight="1.0000000000000000e+00" itree="19">
      <Node pos="s" depth="0" NCoef="0" IVar="5" Cut="3.0000000000000000e+00" cType="1" res="5.6461403146386147e-03" rms="2.1788874268531799e-01" purity="5.0692474842071533e-01" nType="0">
        <Node pos="l" depth="1" NCoef="0" IVar="2" Cut="1.4078561067581177e+00" cType="1" res="7.3101185262203217e-02" rms="1.8653738498687744e-01" purity="9.4757980108261108e-01" nType="0">
          <Node pos="l" depth="2" NCoef="0" IVar="4" Cut="8.5704725980758667e-01" cType="1" res="8.3580970764160156e-02" rms="1.2643964588642120e-01" purity="9.8290121555328369e-01" nType="0">
            <Node pos="l" depth="3" NCoef="0" IVar="-1" Cut="0.0000000000000000e+00" cType="1" res="4.3720472604036331e-02" rms="1.8179398775100708e-01" purity="9.6357619762420654e-01" nType="-99"/>
            <Node pos="r" depth="3" NCoef="0" IVar="-1" Cut="0.0000000000000000e+00" cType="1" res="5.0159398466348648e-02" rms="7.9184547066688538e-02" purity="9.9365383386611938e-01" nType="-99"/>
          </Node>
          <Node pos="r" depth="2" NCoef="0" IVar="-1" Cut="0.0000000000000000e+00" cType="1" res="1.0858465917408466e-02" rms="3.2163870334625244e-01" purity="8.1497240066528320e-01" nType="-99"/>
        </Node>
        <Node pos="r" depth="1" NCoef="0" IVar="1" Cut="5.0000000000000000e+00" cType="1" res="-6.0595214366912842e-02" rms="2.3016974329948425e-01" purity="7.8964732587337494e-02" nType="0">
          <Node pos="l" depth="2" NCoef="0" IVar="2" Cut="1.5655667781829834e+00" cType="1" res="-4.8903532326221466e-02" rms="2.5636610388755798e-01" purity="1.0025765001773834e-01" nType="0">
            <Node pos="l" depth="3" NCoef="0" IVar="-1" Cut="0.0000000000000000e+00" cType="1" res="9.6238479018211365e-03" rms="4.4514024257659912e-01" purity="3.4986099600791931e-01" nType="-99"/>
            <Node pos="r" depth="3" NCoef="0" IVar="-1" Cut="0.0000000000000000e+00" cType="1" res="-4.2561471462249756e-02" rms="1.4934496581554413e-01" purity="2.4249797686934471e-02" nType="-99"/>
          </Node>
          <Node pos="r" depth="2" NCoef="0" IVar="-1" Cut="0.0000000000000000e+00" cType="1" res="-5.0555277615785599e-02" rms="1.4637394249439240e-01" purity="2.1279117092490196e-02" nType="-99"/>
        </Node>
      </Node>
    </BinaryTree>
    <BinaryTree type="DecisionTree" boostWeight="1.0000000000000000e+00" itree="20">
      <Node pos="s" depth="0" NCoef="0" IVar="4" Cut="4.2853698134422302e-01" cType="1" res="-8.4950530435889959e-04" rms="2.2545425593852997e-01" purity="5.0180178880691528e-01" nType="0">
        <Node pos="l" depth="1" NCoef="0" IVar="1" Cut="2.0000000000000000e+00" cType="1" res="-4.7093521803617477e-02" rms="2.5000301003456116e-01" purity="1.5220418572425842e-01" nType="0">
          <Node pos="l" depth="2" NCoef="0" IVar="-1" Cut="0.0000000000000000e+00" cType="1" res="-5.0026558339595795e-02" rms="2.2433376312255859e-01" purity="8.0243527889251709e-02" nType="-99"/>
          <Node pos="r" depth="2" NCoef="0" IVar="1" Cut="5.0000000000000000e+00" cType="1" res="-3.4627348184585571e-02" rms="2.5697973370552063e-01" purity="1.7412519454956055e-01" nType="0">
            <Node pos="l" depth="3" NCoef="0" IVar="-1" Cut="0.0000000000000000e+00" cType="1" res="1.2553081614896655e-03" rms="2.8588852286338806e-01" purity="2.3988668620586395e-01" nType="-99"/>
            <Node pos="r" depth="3" NCoef="0" IVar="-1" Cut="0.0000000000000000e+00" cType="1" res="-5.1910128444433212e-02" rms="1.7612001299858093e-01" purity="3.2450251281261444e-02" nType="-99"/>
          </Node>
        </Node>
        <Node pos="r" depth="1" NCoef="0" IVar="0" Cut="8.3579185485839844e+01" cType="1" res="6.9645769894123077e-02" rms="1.4976307749748230e-01" purity="9.6541011333465576e-01" nType="0">
          <Node pos="l" depth="2" NCoef="0" IVar="-1" Cut="0.0000000000000000e+00" cType="1" res="2.8899192810058594e-02" rms="2.0880731940269470e-01" purity="9.3951684236526489e-01" nType="-99"/>
          <Node pos="r" depth="2" NCoef="0" IVar="0" Cut="1.4108949279785156e+02" cType="1" res="7.5719900429248810e-02" rms="1.2253490835428238e-01" purity="9.7430139780044556e-01" nType="0">
            <Node pos="l" depth="3" NCoef="0" IVar="-1" Cut="0.0000000000000000e+00" cType="1" res="4.8017315566539764e-02" rms="1.0817148536443710e-01" purity="9.7948330640792847e-01" nType="-99"/>
            <Node pos="r" depth="3" NCoef="0" IVar="-1" Cut="0.0000000000000000e+00" cType="1" res="4.1419267654418945e-02" rms="1.4389429986476898e-01" purity="9.6529823541641235e-01" nType="-99"/>
          </Node>
        </Node>
      </Node>
    </BinaryTree>
    <BinaryTree type="DecisionTree" boostWeight="1.0000000000000000e+00" itree="21">
      <Node pos="s" depth="0" NCoef="0" IVar="4" Cut="1.4277847111225128e-01" cType="1" res="1.4649617951363325e-03" rms="2.2059611976146698e-01" purity="5.0377780199050903e-01" nType="0">
        <Node pos="l" depth="1" NCoef="0" IVar="1" Cut="2.0000000000000000e+00" cType="1" res="-5.8170679956674576e-02" rms="2.2486503422260284e-01" purity="8.6503490805625916e-02" nType="0">
          <Node pos="l" depth="2" NCoef="0" IVar="-1" Cut="0.0000000000000000e+00" cType="1" res="-5.2212759852409363e-02" rms="1.8565180897712708e-01" purity="3.7139028310775757e-02" nType="-99"/>
          <Node pos="r" depth="2" NCoef="0" IVar="1" Cut="5.0000000000000000e+00" cType="1" res="-4.9248002469539642e-02" rms="2.3118227720260620e-01" purity="1.0120454430580139e-01" nType="0">
            <Node pos="l" depth="3" NCoef="0" IVar="-1" Cut="0.0000000000000000e+00" cType="1" res="-9.6093611791729927e-03" rms="2.7004370093345642e-01" purity="1.4508222043514252e-01" nType="-99"/>
            <Node pos="r" depth="3" NCoef="0" IVar="-1" Cut="0.0000000000000000e+00" cType="1" res="-5.0823472440242767e-02" rms="1.5002569556236267e-01" purity="1.9677840173244476e-02" nType="-99"/>
          </Node>
        </Node>
        <Node pos="r" depth="1" NCoef="0" IVar="2" Cut="1.9829467535018921e+00" cType="1" res="5.3613137453794479e-02" rms="1.9902409613132477e-01" purity="8.3971673250198364e-01" nType="0">
          <Node pos="l" depth="2" NCoef="0" IVar="4" Cut="5.9174728393554688e-01" cType="1" res="7.5926691293716431e-02" rms="1.7316469550132751e-01" purity="9.3266618251800537e-01" nType="0">
            <Node pos="l" depth="3" NCoef="0" IVar="-1" Cut="0.0000000000000000e+00" cType="1" res="3.3311162143945694e-02" rms="3.1166526675224304e-01" purity="7.3431742191314697e-01" nType="-99"/>
            <Node pos="r" depth="3" NCoef="0" IVar="-1" Cut="0.0000000000000000e+00" cType="1" res="4.6958353370428085e-02" rms="1.0722494125366211e-01" purity="9.8651003837585449e-01" nType="-99"/>
          </Node>
          <Node pos="r" depth="2" NCoef="0" IVar="-1" Cut="0.0000000000000000e+00" cType="1" res="-3.0830390751361847e-02" rms="2.7533605694770813e-01" purity="3.0022734403610229e-01" nType="-99"/>
        </Node>
      </Node>
    </BinaryTree>
    <BinaryTree type="DecisionTree" boostWeight="1.0000000000000000e+00" itree="22">
      <Node pos="s" depth="0" NCoef="0" IVar="3" Cut="3.0000000000000000e+00" cType="1" res="1.7129164189100266e-03" rms="2.1146138012409210e-01" purity="5.0007671117782593e-01" nType="0">
        <Node pos="l" depth="1" NCoef="0" IVar="0" Cut="1.4322000122070312e+02" cType="1" res="-7.2072915732860565e-02" rms="1.5826870501041412e-01" purity="7.5584694743156433e-02" nType="0">
          <Node pos="l" depth="2" NCoef="0" IVar="3" Cut="2.0000000000000000e+00" cType="1" res="-1.4521767385303974e-02" rms="6.0746222734451294e-02" purity="8.2040317356586456e-02" nType="0">
            <Node pos="l" depth="3" NCoef="0" IVar="-1" Cut="0.0000000000000000e+00" cType="1" res="-5.5907730013132095e-02" rms="7.3645666241645813e-02" purity="2.4680271744728088e-03" nType="-99"/>
            <Node pos="r" depth="3" NCoef="0" IVar="-1" Cut="0.0000000000000000e+00" cType="1" res="-2.2689959034323692e-02" rms="2.1583558619022369e-01" purity="1.8080267310142517e-01" nType="-99"/>
          </Node>
          <Node pos="r" depth="2" NCoef="0" IVar="-1" Cut="0.0000000000000000e+00" cType="1" res="-5.7181585580110550e-02" rms="1.6263358294963837e-01" purity="5.7734683156013489e-02" nType="-99"/>
        </Node>
        <Node pos="r" depth="1" NCoef="0" IVar="1" Cut="5.0000000000000000e+00" cType="1" res="3.9799354970455170e-02" rms="2.2830203175544739e-01" purity="7.3549616336822510e-01" nType="0">
          <Node pos="l" depth="2" NCoef="0" IVar="1" Cut="2.0000000000000000e+00" cType="1" res="5.9816598892211914e-02" rms="1.9443556666374207e-01" purity="8.1941026449203491e-01" nType="0">
            <Node pos="l" depth="3" NCoef="0" IVar="-1" Cut="0.0000000000000000e+00" cType="1" res="-1.1362705379724503e-02" rms="2.4360565841197968e-01" purity="5.7929778099060059e-01" nType="-99"/>
            <Node pos="r" depth="3" NCoef="0" IVar="-1" Cut="0.0000000000000000e+00" cType="1" res="4.3071728199720383e-02" rms="2.1083781123161316e-01" purity="8.8191854953765869e-01" nType="-99"/>
          </Node>
          <Node pos="r" depth="2" NCoef="0" IVar="-1" Cut="0.0000000000000000e+00" cType="1" res="-4.8601910471916199e-02" rms="2.4645814299583435e-01" purity="2.0214810967445374e-01" nType="-99"/>
        </Node>
      </Node>
    </BinaryTree>
    <BinaryTree type="DecisionTree" boostWeight="1.0000000000000000e+00" itree="23">
      <Node pos="s" depth="0" NCoef="0" IVar="2" Cut="2.0119905471801758e+00" cType="1" res="-2.4886317551136017e-03" rms="2.1264228224754333e-01" purity="4.9841386079788208e-01" nType="0">
        <Node pos="l" depth="1" NCoef="0" IVar="1" Cut="5.0000000000000000e+00" cType="1" res="3.6966819316148758e-02" rms="2.2046783566474915e-01" purity="7.3371982574462891e-01" nType="0">
          <Node pos="l" depth="2" NCoef="0" IVar="1" Cut="2.0000000000000000e+00" cType="1" res="5.3085871040821075e-02" rms="1.8450137972831726e-01" purity="8.1005537509918213e-01" nType="0">
            <Node pos="l" depth="3" NCoef="0" IVar="-1" Cut="0.0000000000000000e+00" cType="1" res="-1.3397554866969585e-02" rms="2.3282247781753540e-01" purity="5.3792923688888550e-01" nType="-99"/>
            <Node pos="r" depth="3" NCoef="0" IVar="-1" Cut="0.0000000000000000e+00" cType="1" res="4.0785517543554306e-02" rms="2.0551490783691406e-01" purity="8.8312113285064697e-01" nType="-99"/>
          </Node>
          <Node pos="r" depth="2" NCoef="0" IVar="-1" Cut="0.0000000000000000e+00" cType="1" res="-4.4543221592903137e-02" rms="2.5866118073463440e-01" purity="2.1889595687389374e-01" nType="-99"/>
        </Node>
        <Node pos="r" depth="1" NCoef="0" IVar="0" Cut="1.1241401672363281e+02" cType="1" res="-6.9314844906330109e-02" rms="1.6096934676170349e-01" purity="6.7356199026107788e-02" nType="0">
          <Node pos="l" depth="2" NCoef="0" IVar="3" Cut="2.0000000000000000e+00" cType="1" res="-2.4042094126343727e-02" rms="9.7984671592712402e-02" purity="7.3581740260124207e-02" nType="0">
            <Node pos="l" depth="3" NCoef="0" IVar="-1" Cut="0.0000000000000000e+00" cType="1" res="-5.4297700524330139e-02" rms="6.9588407874107361e-02" purity="3.3223461359739304e-03" nType="-99"/>
            <Node pos="r" depth="3" NCoef="0" IVar="-1" Cut="0.0000000000000000e+00" cType="1" res="-2.4106899276375771e-02" rms="2.1809560060501099e-01" purity="1.5689852833747864e-01" nType="-99"/>
          </Node>
          <Node pos="r" depth="2" NCoef="0" IVar="-1" Cut="0.0000000000000000e+00" cType="1" res="-5.2634298801422119e-02" rms="1.6597881913185120e-01" purity="5.7107243686914444e-02" nType="-99"/>
        </Node>
      </Node>
    </BinaryTree>
    <BinaryTree type="DecisionTree" boostWeight="1.0000000000000000e+00" itree="24">
      <Node pos="s" depth="0" NCoef="0" IVar="3" Cut="3.0000000000000000e+00" cType="1" res="3.9029566105455160e-03" rms="2.0817840099334717e-01" purity="5.0097650289535522e-01" nType="0">
        <Node pos="l" depth="1" NCoef="0" IVar="0" Cut="1.5022177124023438e+02" cType="1" res="-6.1028476804494858e-02" rms="1.5971392393112183e-01" purity="7.4977666139602661e-02" nType="0">
          <Node pos="l" depth="2" NCoef="0" IVar="3" Cut="2.0000000000000000e+00" cType="1" res="-1.1914009228348732e-02" rms="6.7213967442512512e-02" purity="8.2422576844692230e-02" nType="0">
            <Node pos="l" depth="3" NCoef="0" IVar="-1" Cut="0.0000000000000000e+00" cType="1" res="-5.4870918393135071e-02" rms="7.8255273401737213e-02" purity="3.4354198724031448e-03" nType="-99"/>
            <Node pos="r" depth="3" NCoef="0" IVar="-1" Cut="0.0000000000000000e+00" cType="1" res="-1.9874889403581619e-02" rms="2.1778690814971924e-01" purity="1.8151442706584930e-01" nType="-99"/>
          </Node>
          <Node pos="r" depth="2" NCoef="0" IVar="-1" Cut="0.0000000000000000e+00" cType="1" res="-5.6146215647459030e-02" rms="1.6396121680736542e-01" purity="5.1943898200988770e-02" nType="-99"/>
        </Node>
        <Node pos="r" depth="1" NCoef="0" IVar="1" Cut="5.0000000000000000e+00" cType="1" res="3.7061076611280441e-02" rms="2.2511245310306549e-01" purity="7.3608976602554321e-01" nType="0">
          <Node pos="l" depth="2" NCoef="0" IVar="1" Cut="2.0000000000000000e+00" cType="1" res="5.2375007420778275e-02" rms="1.9137112796306610e-01" purity="8.2257628440856934e-01" nType="0">
            <Node pos="l" depth="3" NCoef="0" IVar="-1" Cut="0.0000000000000000e+00" cType="1" res="-8.4031755104660988e-03" rms="2.3847667872905731e-01" purity="5.8028602600097656e-01" nType="-99"/>
            <Node pos="r" depth="3" NCoef="0" IVar="-1" Cut="0.0000000000000000e+00" cType="1" res="4.0134437382221222e-02" rms="2.1291637420654297e-01" purity="8.8388067483901978e-01" nType="-99"/>
          </Node>
          <Node pos="r" depth="2" NCoef="0" IVar="-1" Cut="0.0000000000000000e+00" cType="1" res="-4.2107034474611282e-02" rms="2.4198104441165924e-01" purity="1.9746351242065430e-01" nType="-99"/>
        </Node>
      </Node>
    </BinaryTree>
    <BinaryTree type="DecisionTree" boostWeight="1.0000000000000000e+00" itree="25">
      <Node pos="s" depth="0" NCoef="0" IVar="4" Cut="4.2853698134422302e-01" cType="1" res="1.3410178944468498e-03" rms="2.0936565101146698e-01" purity="5.0518447160720825e-01" nType="0">
        <Node pos="l" depth="1" NCoef="0" IVar="2" Cut="8.9441388845443726e-01" cType="1" res="-3.5881407558917999e-02" rms="2.4435847997665405e-01" purity="1.5311391651630402e-01" nType="0">
          <Node pos="l" depth="2" NCoef="0" IVar="-1" Cut="0.0000000000000000e+00" cType="1" res="1.1556897312402725e-02" rms="3.6853370070457458e-01" purity="5.2343708276748657e-01" nType="-99"/>
          <Node pos="r" depth="2" NCoef="0" IVar="1" Cut="2.0000000000000000e+00" cType="1" res="-4.5614600181579590e-02" rms="2.0847877860069275e-01" purity="8.5970580577850342e-02" nType="0">
            <Node pos="l" depth="3" NCoef="0" IVar="-1" Cut="0.0000000000000000e+00" cType="1" res="-4.8685073852539062e-02" rms="1.7394165694713593e-01" purity="3.7814673036336899e-02" nType="-99"/>
            <Node pos="r" depth="3" NCoef="0" IVar="-1" Cut="0.0000000000000000e+00" cType="1" res="-2.1877547726035118e-02" rms="2.2078306972980499e-01" purity="1.0149427503347397e-01" nType="-99"/>
          </Node>
        </Node>
        <Node pos="r" depth="1" NCoef="0" IVar="4" Cut="7.8228276968002319e-01" cType="1" res="5.0446216017007828e-02" rms="1.3656206429004669e-01" purity="9.6964895725250244e-01" nType="0">
          <Node pos="l" depth="2" NCoef="0" IVar="-1" Cut="0.0000000000000000e+00" cType="1" res="2.1995566785335541e-02" rms="2.1655765175819397e-01" purity="9.0685361623764038e-01" nType="-99"/>
          <Node pos="r" depth="2" NCoef="0" IVar="2" Cut="9.4220995903015137e-01" cType="1" res="5.3824577480554581e-02" rms="9.9828131496906281e-02" purity="9.8884409666061401e-01" nType="0">
            <Node pos="l" depth="3" NCoef="0" IVar="-1" Cut="0.0000000000000000e+00" cType="1" res="4.5671604573726654e-02" rms="8.4051512181758881e-02" purity="9.9244445562362671e-01" nType="-99"/>
            <Node pos="r" depth="3" NCoef="0" IVar="-1" Cut="0.0000000000000000e+00" cType="1" res="4.4965405017137527e-02" rms="1.2114167958498001e-01" purity="9.8264098167419434e-01" nType="-99"/>
          </Node>
        </Node>
      </Node>
    </BinaryTree>
    <BinaryTree type="DecisionTree" boostWeight="1.0000000000000000e+00" itree="26">
      <Node pos="s" depth="0" NCoef="0" IVar="3" Cut="3.0000000000000000e+00" cType="1" res="2.7390520554035902e-03" rms="2.0223583281040192e-01" purity="5.0028938055038452e-01" nType="0">
        <Node pos="l" depth="1" NCoef="0" IVar="1" Cut="2.0000000000000000e+00" cType="1" res="-4.9687929451465607e-02" rms="1.5001483261585236e-01" purity="7.4317134916782379e-02" nType="0">
          <Node pos="l" depth="2" NCoef="0" IVar="-1" Cut="0.0000000000000000e+00" cType="1" res="-5.7634878903627396e-02" rms="1.4339798688888550e-01" purity="3.1719252467155457e-02" nType="-99"/>
          <Node pos="r" depth="2" NCoef="0" IVar="3" Cut="2.0000000000000000e+00" cType="1" res="-1.8831178545951843e-02" rms="9.8481908440589905e-02" purity="8.7218262255191803e-02" nType="0">
            <Node pos="l" depth="3" NCoef="0" IVar="-1" Cut="0.0000000000000000e+00" cType="1" res="-5.4966639727354050e-02" rms="6.4597800374031067e-02" purity="1.6732951626181602e-03" nType="-99"/>
            <Node pos="r" depth="3" NCoef="0" IVar="-1" Cut="0.0000000000000000e+00" cType="1" res="-1.9239034503698349e-02" rms="2.1944271028041840e-01" purity="1.9158802926540375e-01" nType="-99"/>
          </Node>
        </Node>
        <Node pos="r" depth="1" NCoef="0" IVar="1" Cut="5.0000000000000000e+00" cType="1" res="3.1579568982124329e-02" rms="2.2050185501575470e-01" purity="7.3416280746459961e-01" nType="0">
          <Node pos="l" depth="2" NCoef="0" IVar="1" Cut="2.0000000000000000e+00" cType="1" res="4.6473961323499680e-02" rms="1.9191609323024750e-01" purity="8.2070690393447876e-01" nType="0">
            <Node pos="l" depth="3" NCoef="0" IVar="-1" Cut="0.0000000000000000e+00" cType="1" res="-3.9216568693518639e-03" rms="2.5142914056777954e-01" purity="5.7486534118652344e-01" nType="-99"/>
            <Node pos="r" depth="3" NCoef="0" IVar="-1" Cut="0.0000000000000000e+00" cType="1" res="3.5843789577484131e-02" rms="2.0651067793369293e-01" purity="8.8182550668716431e-01" nType="-99"/>
          </Node>
          <Node pos="r" depth="2" NCoef="0" IVar="-1" Cut="0.0000000000000000e+00" cType="1" res="-3.9998255670070648e-02" rms="2.3365885019302368e-01" purity="2.0504799485206604e-01" nType="-99"/>
        </Node>
      </Node>
    </BinaryTree>
    <BinaryTree type="DecisionTree" boostWeight="1.0000000000000000e+00" itree="27">
      <Node pos="s" depth="0" NCoef="0" IVar="4" Cut="1.4278544485569000e-01" cType="1" res="-3.4205504925921559e-04" rms="2.0472688972949982e-01" purity="4.9671420454978943e-01" nType="0">
        <Node pos="l" depth="1" NCoef="0" IVar="1" Cut="2.0000000000000000e+00" cType="1" res="-3.8707040250301361e-02" rms="2.1417832374572754e-01" purity="8.8682547211647034e-02" nType="0">
          <Node pos="l" depth="2" NCoef="0" IVar="-1" Cut="0.0000000000000000e+00" cType="1" res="-4.5465812087059021e-02" rms="1.8657429516315460e-01" purity="3.9004582911729813e-02" nType="-99"/>
          <Node pos="r" depth="2" NCoef="0" IVar="2" Cut="1.5669795274734497e+00" cType="1" res="-3.2296583056449890e-02" rms="2.2440230846405029e-01" purity="1.0298972576856613e-01" nType="0">
            <Node pos="l" depth="3" NCoef="0" IVar="-1" Cut="0.0000000000000000e+00" cType="1" res="2.2838199511170387e-03" rms="3.6680123209953308e-01" purity="3.2800835371017456e-01" nType="-99"/>
            <Node pos="r" depth="3" NCoef="0" IVar="-1" Cut="0.0000000000000000e+00" cType="1" res="-3.8202725350856781e-02" rms="1.4232215285301208e-01" purity="2.4528723210096359e-02" nType="-99"/>
          </Node>
        </Node>
        <Node pos="r" depth="1" NCoef="0" IVar="2" Cut="1.8472647666931152e+00" cType="1" res="3.4544993191957474e-02" rms="1.8658713996410370e-01" purity="8.3500534296035767e-01" nType="0">
          <Node pos="l" depth="2" NCoef="0" IVar="4" Cut="5.9175753593444824e-01" cType="1" res="4.8941742628812790e-02" rms="1.6465646028518677e-01" purity="9.3478590250015259e-01" nType="0">
            <Node pos="l" depth="3" NCoef="0" IVar="-1" Cut="0.0000000000000000e+00" cType="1" res="2.6875708252191544e-02" rms="2.8397414088249207e-01" purity="7.4884241819381714e-01" nType="-99"/>
            <Node pos="r" depth="3" NCoef="0" IVar="-1" Cut="0.0000000000000000e+00" cType="1" res="4.0851369500160217e-02" rms="1.1115717142820358e-01" purity="9.8529922962188721e-01" nType="-99"/>
          </Node>
          <Node pos="r" depth="2" NCoef="0" IVar="-1" Cut="0.0000000000000000e+00" cType="1" res="-1.5862934291362762e-02" rms="2.5713327527046204e-01" purity="3.5427024960517883e-01" nType="-99"/>
        </Node>
      </Node>
    </BinaryTree>
    <BinaryTree type="DecisionTree" boostWeight="1.0000000000000000e+00" itree="28">
      <Node pos="s" depth="0" NCoef="0" IVar="4" Cut="1.4280515909194946e-01" cType="1" res="4.6509283129125834e-04" rms="2.0165976881980896e-01" purity="4.9955955147743225e-01" nType="0">
        <Node pos="l" depth="1" NCoef="0" IVar="1" Cut="2.0000000000000000e+00" cType="1" res="-3.4878030419349670e-02" rms="2.1112425625324249e-01" purity="8.4275692701339722e-02" nType="0">
          <Node pos="l" depth="2" NCoef="0" IVar="-1" Cut="0.0000000000000000e+00" cType="1" res="-4.2846508324146271e-02" rms="1.7999641597270966e-01" purity="3.8421060889959335e-02" nType="-99"/>
          <Node pos="r" depth="2" NCoef="0" IVar="1" Cut="5.0000000000000000e+00" cType="1" res="-3.0750131234526634e-02" rms="2.1895013749599457e-01" purity="9.7590163350105286e-02" nType="0">
            <Node pos="l" depth="3" NCoef="0" IVar="-1" Cut="0.0000000000000000e+00" cType="1" res="-8.4444992244243622e-03" rms="2.5305810570716858e-01" purity="1.3977853953838348e-01" nType="-99"/>
            <Node pos="r" depth="3" NCoef="0" IVar="-1" Cut="0.0000000000000000e+00" cType="1" res="-4.3110642582178116e-02" rms="1.4563499391078949e-01" purity="1.9800363108515739e-02" nType="-99"/>
          </Node>
        </Node>
        <Node pos="r" depth="1" NCoef="0" IVar="2" Cut="1.8472647666931152e+00" cType="1" res="3.2181512564420700e-02" rms="1.8510596454143524e-01" purity="8.3563810586929321e-01" nType="0">
          <Node pos="l" depth="2" NCoef="0" IVar="4" Cut="5.9178358316421509e-01" cType="1" res="4.5899137854576111e-02" rms="1.6379463672637939e-01" purity="9.3755787611007690e-01" nType="0">
            <Node pos="l" depth="3" NCoef="0" IVar="-1" Cut="0.0000000000000000e+00" cType="1" res="2.5879045948386192e-02" rms="2.9053968191146851e-01" purity="7.5258564949035645e-01" nType="-99"/>
            <Node pos="r" depth="3" NCoef="0" IVar="-1" Cut="0.0000000000000000e+00" cType="1" res="4.0718052536249161e-02" rms="1.0637079924345016e-01" purity="9.8669880628585815e-01" nType="-99"/>
          </Node>
          <Node pos="r" depth="2" NCoef="0" IVar="-1" Cut="0.0000000000000000e+00" cType="1" res="-1.6195274889469147e-02" rms="2.5527432560920715e-01" purity="3.3798956871032715e-01" nType="-99"/>
        </Node>
      </Node>
    </BinaryTree>
    <BinaryTree type="DecisionTree" boostWeight="1.0000000000000000e+00" itree="29">
      <Node pos="s" depth="0" NCoef="0" IVar="3" Cut="3.0000000000000000e+00" cType="1" res="3.3280556090176105e-03" rms="1.9908924400806427e-01" purity="4.9918979406356812e-01" nType="0">
        <Node pos="l" depth="1" NCoef="0" IVar="1" Cut="2.0000000000000000e+00" cType="1" res="-3.9115212857723236e-02" rms="1.4680267870426178e-01" purity="7.8128986060619354e-02" nType="0">
          <Node pos="l" depth="2" NCoef="0" IVar="-1" Cut="0.0000000000000000e+00" cType="1" res="-5.4316211491823196e-02" rms="1.3473412394523621e-01" purity="3.1892471015453339e-02" nType="-99"/>
          <Node pos="r" depth="2" NCoef="0" IVar="3" Cut="2.0000000000000000e+00" cType="1" res="-1.4089835807681084e-02" rms="9.1961488127708435e-02" purity="9.2534579336643219e-02" nType="0">
            <Node pos="l" depth="3" NCoef="0" IVar="-1" Cut="0.0000000000000000e+00" cType="1" res="-5.4337985813617706e-02" rms="5.9010367840528488e-02" purity="1.5409587649628520e-03" nType="-99"/>
            <Node pos="r" depth="3" NCoef="0" IVar="-1" Cut="0.0000000000000000e+00" cType="1" res="-1.3830034062266350e-02" rms="2.1666836738586426e-01" purity="2.0134428143501282e-01" nType="-99"/>
          </Node>
        </Node>
        <Node pos="r" depth="1" NCoef="0" IVar="1" Cut="5.0000000000000000e+00" cType="1" res="2.6960887014865875e-02" rms="2.1829237043857574e-01" purity="7.3371368646621704e-01" nType="0">
          <Node pos="l" depth="2" NCoef="0" IVar="1" Cut="2.0000000000000000e+00" cType="1" res="3.9378724992275238e-02" rms="1.8998202681541443e-01" purity="8.2183521986007690e-01" nType="0">
            <Node pos="l" depth="3" NCoef="0" IVar="-1" Cut="0.0000000000000000e+00" cType="1" res="-4.7475993633270264e-03" rms="2.4852548539638519e-01" purity="5.7190293073654175e-01" nType="-99"/>
            <Node pos="r" depth="3" NCoef="0" IVar="-1" Cut="0.0000000000000000e+00" cType="1" res="3.3013921231031418e-02" rms="2.0689214766025543e-01" purity="8.8525599241256714e-01" nType="-99"/>
          </Node>
          <Node pos="r" depth="2" NCoef="0" IVar="-1" Cut="0.0000000000000000e+00" cType="1" res="-3.2034229487180710e-02" rms="2.4005195498466492e-01" purity="2.0914795994758606e-01" nType="-99"/>
        </Node>
      </Node>
    </BinaryTree>
    <BinaryTree type="DecisionTree" boostWeight="1.0000000000000000e+00" itree="30">
      <Node pos="s" depth="0" NCoef="0" IVar="5" Cut="3.0000000000000000e+00" cType="1" res="9.2568763648159802e-05" rms="1.9390080869197845e-01" purity="4.9741896986961365e-01" nType="0">
        <Node pos="l" depth="1" NCoef="0" IVar="4" Cut="5.7139211893081665e-01" cType="1" res="3.0189160257577896e-02" rms="1.7513568699359894e-01" purity="9.3995606899261475e-01" nType="0">
          <Node pos="l" depth="2" NCoef="0" IVar="-1" Cut="0.0000000000000000e+00" cType="1" res="1.2790228938683867e-03" rms="3.1963598728179932e-01" purity="7.5584310293197632e-01" nType="-99"/>
          <Node pos="r" depth="2" NCoef="0" IVar="2" Cut="1.0759001970291138e+00" cType="1" res="3.6962181329727173e-02" rms="1.0991910099983215e-01" purity="9.8725175857543945e-01" nType="0">
            <Node pos="l" depth="3" NCoef="0" IVar="-1" Cut="0.0000000000000000e+00" cType="1" res="4.0600735694169998e-02" rms="9.1402180492877960e-02" purity="9.9120163917541504e-01" nType="-99"/>
            <Node pos="r" depth="3" NCoef="0" IVar="-1" Cut="0.0000000000000000e+00" cType="1" res="3.8766782730817795e-02" rms="1.4243936538696289e-01" purity="9.7824609279632568e-01" nType="-99"/>
          </Node>
        </Node>
        <Node pos="r" depth="1" NCoef="0" IVar="1" Cut="2.0000000000000000e+00" cType="1" res="-2.9791804030537605e-02" rms="2.0918424427509308e-01" purity="7.5154908001422882e-02" nType="0">
          <Node pos="l" depth="2" NCoef="0" IVar="-1" Cut="0.0000000000000000e+00" cType="1" res="-3.8117654621601105e-02" rms="1.7254310846328735e-01" purity="3.4473676234483719e-02" nType="-99"/>
          <Node pos="r" depth="2" NCoef="0" IVar="5" Cut="4.0000000000000000e+00" cType="1" res="-2.7061859145760536e-02" rms="2.1317636966705322e-01" purity="8.8290363550186157e-02" nType="0">
            <Node pos="l" depth="3" NCoef="0" IVar="-1" Cut="0.0000000000000000e+00" cType="1" res="3.1909621320664883e-03" rms="3.1069636344909668e-01" purity="1.9457352161407471e-01" nType="-99"/>
            <Node pos="r" depth="3" NCoef="0" IVar="-1" Cut="0.0000000000000000e+00" cType="1" res="-3.0027775093913078e-02" rms="1.7199668288230896e-01" purity="4.4341575354337692e-02" nType="-99"/>
          </Node>
        </Node>
      </Node>
    </BinaryTree>
    <BinaryTree type="DecisionTree" boostWeight="1.0000000000000000e+00" itree="31">
      <Node pos="s" depth="0" NCoef="0" IVar="4" Cut="1.4282675087451935e-01" cType="1" res="-2.0033869077451527e-04" rms="1.9787621498107910e-01" purity="5.0063592195510864e-01" nType="0">
        <Node pos="l" depth="1" NCoef="0" IVar="1" Cut="2.0000000000000000e+00" cType="1" res="-2.7654109522700310e-02" rms="2.0554949343204498e-01" purity="8.5170246660709381e-02" nType="0">
          <Node pos="l" depth="2" NCoef="0" IVar="-1" Cut="0.0000000000000000e+00" cType="1" res="-4.1159577667713165e-02" rms="1.7720958590507507e-01" purity="3.6081448197364807e-02" nType="-99"/>
          <Node pos="r" depth="2" NCoef="0" IVar="5" Cut="5.0000000000000000e+00" cType="1" res="-2.5411272421479225e-02" rms="2.1550887823104858e-01" purity="9.9547512829303741e-02" nType="0">
            <Node pos="l" depth="3" NCoef="0" IVar="-1" Cut="0.0000000000000000e+00" cType="1" res="-5.8106007054448128e-03" rms="2.5668081641197205e-01" purity="1.4932714402675629e-01" nType="-99"/>
            <Node pos="r" depth="3" NCoef="0" IVar="-1" Cut="0.0000000000000000e+00" cType="1" res="-4.0592629462480545e-02" rms="1.3938798010349274e-01" purity="2.2984134033322334e-02" nType="-99"/>
          </Node>
        </Node>
        <Node pos="r" depth="1" NCoef="0" IVar="2" Cut="1.8472701311111450e+00" cType="1" res="2.6246370747685432e-02" rms="1.8263414502143860e-01" purity="8.3974021673202515e-01" nType="0">
          <Node pos="l" depth="2" NCoef="0" IVar="4" Cut="5.9180450439453125e-01" cType="1" res="3.7116330116987228e-02" rms="1.6127058863639832e-01" purity="9.3799436092376709e-01" nType="0">
            <Node pos="l" depth="3" NCoef="0" IVar="-1" Cut="0.0000000000000000e+00" cType="1" res="2.2597428411245346e-02" rms="2.9391482472419739e-01" purity="7.5051993131637573e-01" nType="-99"/>
            <Node pos="r" depth="3" NCoef="0" IVar="-1" Cut="0.0000000000000000e+00" cType="1" res="3.8757570087909698e-02" rms="1.0008050501346588e-01" purity="9.8712486028671265e-01" nType="-99"/>
          </Node>
          <Node pos="r" depth="2" NCoef="0" IVar="-1" Cut="0.0000000000000000e+00" cType="1" res="-1.2623098678886890e-02" rms="2.5634074211120605e-01" purity="3.6200100183486938e-01" nType="-99"/>
        </Node>
      </Node>
    </BinaryTree>
    <BinaryTree type="DecisionTree" boostWeight="1.0000000000000000e+00" itree="32">
      <Node pos="s" depth="0" NCoef="0" IVar="2" Cut="2.2376837730407715e+00" cType="1" res="-4.5787793351337314e-04" rms="2.0132763683795929e-01" purity="4.9616065621376038e-01" nType="0">
        <Node pos="l" depth="1" NCoef="0" IVar="1" Cut="5.0000000000000000e+00" cType="1" res="1.9534330815076828e-02" rms="2.1683347225189209e-01" purity="7.0011222362518311e-01" nType="0">
          <Node pos="l" depth="2" NCoef="0" IVar="1" Cut="2.0000000000000000e+00" cType="1" res="3.2258085906505585e-02" rms="1.9281527400016785e-01" purity="7.7131164073944092e-01" nType="0">
            <Node pos="l" depth="3" NCoef="0" IVar="-1" Cut="0.0000000000000000e+00" cType="1" res="-9.9103432148694992e-03" rms="2.2360411286354065e-01" purity="4.8625043034553528e-01" nType="-99"/>
            <Node pos="r" depth="3" NCoef="0" IVar="-1" Cut="0.0000000000000000e+00" cType="1" res="2.8629802167415619e-02" rms="2.1037529408931732e-01" purity="8.5437303781509399e-01" nType="-99"/>
          </Node>
          <Node pos="r" depth="2" NCoef="0" IVar="-1" Cut="0.0000000000000000e+00" cType="1" res="-3.7751998752355576e-02" rms="2.3919518291950226e-01" purity="2.0229145884513855e-01" nType="-99"/>
        </Node>
        <Node pos="r" depth="1" NCoef="0" IVar="4" Cut="-1.8571563959121704e+00" cType="1" res="-4.0572986006736755e-02" rms="1.4200390875339508e-01" purity="3.7621784955263138e-02" nType="0">
          <Node pos="l" depth="2" NCoef="0" IVar="2" Cut="3.2927913665771484e+00" cType="1" res="-2.8161726891994476e-02" rms="8.9331097900867462e-02" purity="8.2178125157952309e-03" nType="0">
            <Node pos="l" depth="3" NCoef="0" IVar="-1" Cut="0.0000000000000000e+00" cType="1" res="-3.2592855393886566e-02" rms="1.1823318153619766e-01" purity="1.4579002745449543e-02" nType="-99"/>
            <Node pos="r" depth="3" NCoef="0" IVar="-1" Cut="0.0000000000000000e+00" cType="1" res="-4.7461915761232376e-02" rms="5.4984577000141144e-02" purity="2.9924779664725065e-03" nType="-99"/>
          </Node>
          <Node pos="r" depth="2" NCoef="0" IVar="-1" Cut="0.0000000000000000e+00" cType="1" res="-3.9561279118061066e-02" rms="1.9885592162609100e-01" purity="8.6002446711063385e-02" nType="-99"/>
        </Node>
      </Node>
    </BinaryTree>
    <BinaryTree type="DecisionTree" boostWeight="1.0000000000000000e+00" itree="33">
      <Node pos="s" depth="0" NCoef="0" IVar="4" Cut="1.4280515909194946e-01" cType="1" res="-2.3275127168744802e-03" rms="1.9523775577545166e-01" purity="4.9509921669960022e-01" nType="0">
        <Node pos="l" depth="1" NCoef="0" IVar="4" Cut="4.0763042867183685e-02" cType="1" res="-3.1052283942699432e-02" rms="2.0929874479770660e-01" purity="8.0555558204650879e-02" nType="0">
          <Node pos="l" depth="2" NCoef="0" IVar="4" Cut="-1.9028211832046509e+00" cType="1" res="-3.7366956472396851e-02" rms="1.7882272601127625e-01" purity="4.7518618404865265e-02" nType="0">
            <Node pos="l" depth="3" NCoef="0" IVar="-1" Cut="0.0000000000000000e+00" cType="1" res="-3.1545523554086685e-02" rms="1.0869538784027100e-01" purity="1.6324883326888084e-02" nType="-99"/>
            <Node pos="r" depth="3" NCoef="0" IVar="-1" Cut="0.0000000000000000e+00" cType="1" res="-2.8445322066545486e-02" rms="2.5433787703514099e-01" purity="9.9600486457347870e-02" nType="-99"/>
          </Node>
          <Node pos="r" depth="2" NCoef="0" IVar="-1" Cut="0.0000000000000000e+00" cType="1" res="-7.5160688720643520e-03" rms="2.7096208930015564e-01" purity="1.6426667571067810e-01" nType="-99"/>
        </Node>
        <Node pos="r" depth="1" NCoef="0" IVar="2" Cut="1.9829467535018921e+00" cType="1" res="2.1278752014040947e-02" rms="1.7946542799472809e-01" purity="8.3577477931976318e-01" nType="0">
          <Node pos="l" depth="2" NCoef="0" IVar="4" Cut="5.5096286535263062e-01" cType="1" res="3.1080707907676697e-02" rms="1.6286706924438477e-01" purity="9.3211185932159424e-01" nType="0">
            <Node pos="l" depth="3" NCoef="0" IVar="-1" Cut="0.0000000000000000e+00" cType="1" res="1.8820591270923615e-02" rms="2.9646855592727661e-01" purity="7.1195918321609497e-01" nType="-99"/>
            <Node pos="r" depth="3" NCoef="0" IVar="-1" Cut="0.0000000000000000e+00" cType="1" res="3.4620385617017746e-02" rms="1.0927544534206390e-01" purity="9.8404246568679810e-01" nType="-99"/>
          </Node>
          <Node pos="r" depth="2" NCoef="0" IVar="-1" Cut="0.0000000000000000e+00" cType="1" res="-1.6817854717373848e-02" rms="2.4667583405971527e-01" purity="2.8832450509071350e-01" nType="-99"/>
        </Node>
      </Node>
    </BinaryTree>
    <BinaryTree type="DecisionTree" boostWeight="1.0000000000000000e+00" itree="34">
      <Node pos="s" depth="0" NCoef="0" IVar="3" Cut="3.0000000000000000e+00" cType="1" res="4.3962234631180763e-03" rms="1.8980048596858978e-01" purity="5.0225657224655151e-01" nType="0">
        <Node pos="l" depth="1" NCoef="0" IVar="0" Cut="1.1766635894775391e+02" cType="1" res="-2.9533749446272850e-02" rms="1.4690311253070831e-01" purity="7.8881993889808655e-02" nType="0">
          <Node pos="l" depth="2" NCoef="0" IVar="3" Cut="2.0000000000000000e+00" cType="1" res="-6.6906898282468319e-03" rms="5.4467659443616867e-02" purity="8.4917150437831879e-02" nType="0">
            <Node pos="l" depth="3" NCoef="0" IVar="-1" Cut="0.0000000000000000e+00" cType="1" res="-4.9466066062450409e-02" rms="6.5145306289196014e-02" purity="3.0911038629710674e-03" nType="-99"/>
            <Node pos="r" depth="3" NCoef="0" IVar="-1" Cut="0.0000000000000000e+00" cType="1" res="-5.6124799884855747e-03" rms="2.0948240160942078e-01" purity="1.8957510590553284e-01" nType="-99"/>
          </Node>
          <Node pos="r" depth="2" NCoef="0" IVar="-1" Cut="0.0000000000000000e+00" cType="1" res="-4.0774118155241013e-02" rms="1.4480783045291901e-01" purity="6.9363564252853394e-02" nType="-99"/>
        </Node>
        <Node pos="r" depth="1" NCoef="0" IVar="1" Cut="5.0000000000000000e+00" cType="1" res="2.1188734099268913e-02" rms="2.0888316631317139e-01" purity="7.3608762025833130e-01" nType="0">
          <Node pos="l" depth="2" NCoef="0" IVar="1" Cut="2.0000000000000000e+00" cType="1" res="2.8520973399281502e-02" rms="1.7930221557617188e-01" purity="8.2590550184249878e-01" nType="0">
            <Node pos="l" depth="3" NCoef="0" IVar="-1" Cut="0.0000000000000000e+00" cType="1" res="1.3682858552783728e-03" rms="2.3424822092056274e-01" purity="5.8212286233901978e-01" nType="-99"/>
            <Node pos="r" depth="3" NCoef="0" IVar="-1" Cut="0.0000000000000000e+00" cType="1" res="2.8665425255894661e-02" rms="2.0106098055839539e-01" purity="8.8621586561203003e-01" nType="-99"/>
          </Node>
          <Node pos="r" depth="2" NCoef="0" IVar="-1" Cut="0.0000000000000000e+00" cType="1" res="-3.4864325076341629e-02" rms="2.3283298313617706e-01" purity="1.7983061075210571e-01" nType="-99"/>
        </Node>
      </Node>
    </BinaryTree>
    <BinaryTree type="DecisionTree" boostWeight="1.0000000000000000e+00" itree="35">
      <Node pos="s" depth="0" NCoef="0" IVar="4" Cut="1.4278544485569000e-01" cType="1" res="-7.9656741581857204e-04" rms="1.9736520946025848e-01" purity="4.9584788084030151e-01" nType="0">
        <Node pos="l" depth="1" NCoef="0" IVar="4" Cut="4.0740549564361572e-02" cType="1" res="-2.4108007550239563e-02" rms="2.0921051502227783e-01" purity="8.5707947611808777e-02" nType="0">
          <Node pos="l" depth="2" NCoef="0" IVar="4" Cut="-1.9028220176696777e+00" cType="1" res="-3.0770730227231979e-02" rms="1.7784306406974792e-01" purity="4.8783790320158005e-02" nType="0">
            <Node pos="l" depth="3" NCoef="0" IVar="-1" Cut="0.0000000000000000e+00" cType="1" res="-2.7998076751828194e-02" rms="1.1331495642662048e-01" purity="1.6528556123375893e-02" nType="-99"/>
            <Node pos="r" depth="3" NCoef="0" IVar="-1" Cut="0.0000000000000000e+00" cType="1" res="-2.5723466649651527e-02" rms="2.5324779748916626e-01" purity="1.0604096949100494e-01" nType="-99"/>
          </Node>
          <Node pos="r" depth="2" NCoef="0" IVar="-1" Cut="0.0000000000000000e+00" cType="1" res="-3.8834125734865665e-03" rms="2.7086982131004333e-01" purity="1.7689166963100433e-01" nType="-99"/>
        </Node>
        <Node pos="r" depth="1" NCoef="0" IVar="2" Cut="1.8472701311111450e+00" cType="1" res="1.8403224647045135e-02" rms="1.8485195934772491e-01" purity="8.3364778757095337e-01" nType="0">
          <Node pos="l" depth="2" NCoef="0" IVar="4" Cut="5.9175240993499756e-01" cType="1" res="2.6307078078389168e-02" rms="1.6656662523746490e-01" purity="9.3691623210906982e-01" nType="0">
            <Node pos="l" depth="3" NCoef="0" IVar="-1" Cut="0.0000000000000000e+00" cType="1" res="1.9927589222788811e-02" rms="2.8718259930610657e-01" purity="7.5832450389862061e-01" nType="-99"/>
            <Node pos="r" depth="3" NCoef="0" IVar="-1" Cut="0.0000000000000000e+00" cType="1" res="3.0245007947087288e-02" rms="1.1488303542137146e-01" purity="9.8381328582763672e-01" nType="-99"/>
          </Node>
          <Node pos="r" depth="2" NCoef="0" IVar="-1" Cut="0.0000000000000000e+00" cType="1" res="-1.0142307728528976e-02" rms="2.5176352262496948e-01" purity="3.3598911762237549e-01" nType="-99"/>
        </Node>
      </Node>
    </BinaryTree>
    <BinaryTree type="DecisionTree" boostWeight="1.0000000000000000e+00" itree="36">
      <Node pos="s" depth="0" NCoef="0" IVar="3" Cut="3.0000000000000000e+00" cType="1" res="2.8156340122222900e-03" rms="1.9283287227153778e-01" purity="5.0209283828735352e-01" nType="0">
        <Node pos="l" depth="1" NCoef="0" IVar="0" Cut="1.3797850036621094e+02" cType="1" res="-2.8309255838394165e-02" rms="1.4458781480789185e-01" purity="7.3315955698490143e-02" nType="0">
          <Node pos="l" depth="2" NCoef="0" IVar="3" Cut="2.0000000000000000e+00" cType="1" res="-5.4835323244333267e-03" rms="6.3196845352649689e-02" purity="8.2890897989273071e-02" nType="0">
            <Node pos="l" depth="3" NCoef="0" IVar="-1" Cut="0.0000000000000000e+00" cType="1" res="-5.2728850394487381e-02" rms="5.5389098823070526e-02" purity="1.5708581777289510e-03" nType="-99"/>
            <Node pos="r" depth="3" NCoef="0" IVar="-1" Cut="0.0000000000000000e+00" cType="1" res="-8.9190667495131493e-03" rms="2.1204519271850586e-01" purity="1.8460008502006531e-01" nType="-99"/>
          </Node>
          <Node pos="r" depth="2" NCoef="0" IVar="-1" Cut="0.0000000000000000e+00" cType="1" res="-4.5208353549242020e-02" rms="1.3575986027717590e-01" purity="4.9445413053035736e-02" nType="-99"/>
        </Node>
        <Node pos="r" depth="1" NCoef="0" IVar="1" Cut="5.0000000000000000e+00" cType="1" res="1.8762243911623955e-02" rms="2.1343511343002319e-01" purity="7.3668867349624634e-01" nType="0">
          <Node pos="l" depth="2" NCoef="0" IVar="1" Cut="2.0000000000000000e+00" cType="1" res="2.7081253007054329e-02" rms="1.8656326830387115e-01" purity="8.2162070274353027e-01" nType="0">
            <Node pos="l" depth="3" NCoef="0" IVar="-1" Cut="0.0000000000000000e+00" cType="1" res="-1.8143706256523728e-03" rms="2.3871245980262756e-01" purity="5.7323276996612549e-01" nType="-99"/>
            <Node pos="r" depth="3" NCoef="0" IVar="-1" Cut="0.0000000000000000e+00" cType="1" res="2.6016034185886383e-02" rms="2.0310796797275543e-01" purity="8.8455802202224731e-01" nType="-99"/>
          </Node>
          <Node pos="r" depth="2" NCoef="0" IVar="-1" Cut="0.0000000000000000e+00" cType="1" res="-2.9340256005525589e-02" rms="2.4100744724273682e-01" purity="2.0352520048618317e-01" nType="-99"/>
        </Node>
      </Node>
    </BinaryTree>
    <BinaryTree type="DecisionTree" boostWeight="1.0000000000000000e+00" itree="37">
      <Node pos="s" depth="0" NCoef="0" IVar="2" Cut="2.2361252307891846e+00" cType="1" res="2.3098726524040103e-04" rms="1.9571524858474731e-01" purity="5.0172460079193115e-01" nType="0">
        <Node pos="l" depth="1" NCoef="0" IVar="1" Cut="5.0000000000000000e+00" cType="1" res="1.5452095307409763e-02" rms="2.1156981587409973e-01" purity="7.0511126518249512e-01" nType="0">
          <Node pos="l" depth="2" NCoef="0" IVar="1" Cut="2.0000000000000000e+00" cType="1" res="2.3536834865808487e-02" rms="1.8443939089775085e-01" purity="7.7860713005065918e-01" nType="0">
            <Node pos="l" depth="3" NCoef="0" IVar="-1" Cut="0.0000000000000000e+00" cType="1" res="-8.5761975497007370e-03" rms="2.2123703360557556e-01" purity="4.9305206537246704e-01" nType="-99"/>
            <Node pos="r" depth="3" NCoef="0" IVar="-1" Cut="0.0000000000000000e+00" cType="1" res="2.3951802402734756e-02" rms="2.0663399994373322e-01" purity="8.5907322168350220e-01" nType="-99"/>
          </Node>
          <Node pos="r" depth="2" NCoef="0" IVar="-1" Cut="0.0000000000000000e+00" cType="1" res="-3.2262105494737625e-02" rms="2.3867088556289673e-01" purity="1.9515533745288849e-01" nType="-99"/>
        </Node>
        <Node pos="r" depth="1" NCoef="0" IVar="4" Cut="-1.8571563959121704e+00" cType="1" res="-2.8613755479454994e-02" rms="1.3530640304088593e-01" purity="3.9513517171144485e-02" nType="0">
          <Node pos="l" depth="2" NCoef="0" IVar="2" Cut="3.2913885116577148e+00" cType="1" res="-1.8416216596961021e-02" rms="8.6104005575180054e-02" purity="7.7679455280303955e-03" nType="0">
            <Node pos="l" depth="3" NCoef="0" IVar="-1" Cut="0.0000000000000000e+00" cType="1" res="-2.5386035442352295e-02" rms="1.1872937530279160e-01" purity="1.4945936389267445e-02" nType="-99"/>
            <Node pos="r" depth="3" NCoef="0" IVar="-1" Cut="0.0000000000000000e+00" cType="1" res="-4.7094684094190598e-02" rms="4.4753350317478180e-02" purity="1.9850688986480236e-03" nType="-99"/>
          </Node>
          <Node pos="r" depth="2" NCoef="0" IVar="-1" Cut="0.0000000000000000e+00" cType="1" res="-3.2833557575941086e-02" rms="1.8862511217594147e-01" purity="9.1138228774070740e-02" nType="-99"/>
        </Node>
      </Node>
    </BinaryTree>
    <BinaryTree type="DecisionTree" boostWeight="1.0000000000000000e+00" itree="38">
      <Node pos="s" depth="0" NCoef="0" IVar="5" Cut="3.0000000000000000e+00" cType="1" res="4.7469543642364442e-04" rms="1.8926343321800232e-01" purity="4.9620720744132996e-01" nType="0">
        <Node pos="l" depth="1" NCoef="0" IVar="5" Cut="2.0000000000000000e+00" cType="1" res="6.7510604858398438e-03" rms="1.1233147978782654e-01" purity="9.4337433576583862e-01" nType="0">
          <Node pos="l" depth="2" NCoef="0" IVar="2" Cut="8.3774167299270630e-01" cType="1" res="2.9595380648970604e-02" rms="8.1456512212753296e-02" purity="9.9339294433593750e-01" nType="0">
            <Node pos="l" depth="3" NCoef="0" IVar="-1" Cut="0.0000000000000000e+00" cType="1" res="4.0764413774013519e-02" rms="7.1400932967662811e-02" purity="9.9465590715408325e-01" nType="-99"/>
            <Node pos="r" depth="3" NCoef="0" IVar="-1" Cut="0.0000000000000000e+00" cType="1" res="4.6657830476760864e-02" rms="9.1217093169689178e-02" purity="9.9179250001907349e-01" nType="-99"/>
          </Node>
          <Node pos="r" depth="2" NCoef="0" IVar="2" Cut="1.0881092548370361e+00" cType="1" res="1.0881726630032063e-02" rms="2.2136342525482178e-01" purity="8.9154183864593506e-01" nType="0">
            <Node pos="l" depth="3" NCoef="0" IVar="-1" Cut="0.0000000000000000e+00" cType="1" res="2.9254080727696419e-02" rms="1.4537683129310608e-01" purity="9.7379779815673828e-01" nType="-99"/>
            <Node pos="r" depth="3" NCoef="0" IVar="-1" Cut="0.0000000000000000e+00" cType="1" res="-6.9785877130925655e-03" rms="3.0403253436088562e-01" purity="7.5968956947326660e-01" nType="-99"/>
          </Node>
        </Node>
        <Node pos="r" depth="1" NCoef="0" IVar="1" Cut="2.0000000000000000e+00" cType="1" res="-1.9049139693379402e-02" rms="2.0957888662815094e-01" purity="7.7117964625358582e-02" nType="0">
          <Node pos="l" depth="2" NCoef="0" IVar="-1" Cut="0.0000000000000000e+00" cType="1" res="-3.2618738710880280e-02" rms="1.7063935101032257e-01" purity="3.4657929092645645e-02" nType="-99"/>
          <Node pos="r" depth="2" NCoef="0" IVar="2" Cut="1.3407547473907471e+00" cType="1" res="-1.6446948051452637e-02" rms="2.2294209897518158e-01" purity="9.0351507067680359e-02" nType="0">
            <Node pos="l" depth="3" NCoef="0" IVar="-1" Cut="0.0000000000000000e+00" cType="1" res="2.5786431506276131e-03" rms="3.6729559302330017e-01" purity="3.1611126661300659e-01" nType="-99"/>
            <Node pos="r" depth="3" NCoef="0" IVar="-1" Cut="0.0000000000000000e+00" cType="1" res="-2.4308539927005768e-02" rms="1.6598738729953766e-01" purity="3.2189499586820602e-02" nType="-99"/>
          </Node>
        </Node>
      </Node>
    </BinaryTree>
    <BinaryTree type="DecisionTree" boostWeight="1.0000000000000000e+00" itree="39">
      <Node pos="s" depth="0" NCoef="0" IVar="2" Cut="8.9507466554641724e-01" cType="1" res="1.1834258912131190e-03" rms="1.9420123100280762e-01" purity="5.0516510009765625e-01" nType="0">
        <Node pos="l" depth="1" NCoef="0" IVar="4" Cut="5.7136619091033936e-01" cType="1" res="2.5465864688158035e-02" rms="1.9361728429794312e-01" purity="8.6843639612197876e-01" nType="0">
          <Node pos="l" depth="2" NCoef="0" IVar="-1" Cut="0.0000000000000000e+00" cType="1" res="1.6714699566364288e-02" rms="3.1587418913841248e-01" purity="5.9817624092102051e-01" nType="-99"/>
          <Node pos="r" depth="2" NCoef="0" IVar="0" Cut="1.0917969512939453e+02" cType="1" res="1.6704119741916656e-02" rms="9.5934651792049408e-02" purity="9.9008333683013916e-01" nType="0">
            <Node pos="l" depth="3" NCoef="0" IVar="-1" Cut="0.0000000000000000e+00" cType="1" res="2.1643716841936111e-02" rms="1.2194512784481049e-01" purity="9.8400330543518066e-01" nType="-99"/>
            <Node pos="r" depth="3" NCoef="0" IVar="-1" Cut="0.0000000000000000e+00" cType="1" res="4.3220940977334976e-02" rms="6.5327957272529602e-02" purity="9.9531519412994385e-01" nType="-99"/>
          </Node>
        </Node>
        <Node pos="r" depth="1" NCoef="0" IVar="4" Cut="7.1419489383697510e-01" cType="1" res="-1.1394287459552288e-02" rms="1.9330754876136780e-01" purity="3.1699937582015991e-01" nType="0">
          <Node pos="l" depth="2" NCoef="0" IVar="1" Cut="3.0000000000000000e+00" cType="1" res="-2.0380998030304909e-02" rms="2.0333880186080933e-01" purity="1.3370183110237122e-01" nType="0">
            <Node pos="l" depth="3" NCoef="0" IVar="-1" Cut="0.0000000000000000e+00" cType="1" res="-2.4291709065437317e-02" rms="2.1422207355499268e-01" purity="1.3625957071781158e-01" nType="-99"/>
            <Node pos="r" depth="3" NCoef="0" IVar="-1" Cut="0.0000000000000000e+00" cType="1" res="-1.2882886454463005e-02" rms="2.0037651062011719e-01" purity="1.3200305402278900e-01" nType="-99"/>
          </Node>
          <Node pos="r" depth="2" NCoef="0" IVar="-1" Cut="0.0000000000000000e+00" cType="1" res="3.4448336809873581e-02" rms="1.2840294837951660e-01" purity="9.7997283935546875e-01" nType="-99"/>
        </Node>
      </Node>
    </BinaryTree>
    <BinaryTree type="DecisionTree" boostWeight="1.0000000000000000e+00" itree="40">
      <Node pos="s" depth="0" NCoef="0" IVar="4" Cut="1.4282675087451935e-01" cType="1" res="-1.3083756202831864e-03" rms="1.9263395667076111e-01" purity="4.9239730834960938e-01" nType="0">
