<?xml version="1.0"?>
<MethodSetup Method="BDT::BDTG">
  <GeneralInfo>
    <Info name="TMVA Release" value="4.2.1 [262657]"/>
    <Info name="ROOT Release" value="6.16/00 [397312]"/>
    <Info name="Creator" value="vardan"/>
    <Info name="Date" value="Thu May  9 20:15:46 2019"/>
    <Info name="Host" value="Linux ec-ubuntu-14-04-x86-64-2 3.13.0-157-generic #207-Ubuntu SMP Mon Aug 20 16:44:59 UTC 2018 x86_64 x86_64 x86_64 GNU/Linux"/>
    <Info name="Dir" value="/home/vardan/Analyse2019/CMS_VBF_Hbb_2017_18/SingleBTag/Analysis/TMVA_BJets_Identification/Regression"/>
    <Info name="Training events" value="57355"/>
    <Info name="TrainingTime" value="1.71022968e+01"/>
    <Info name="AnalysisType" value="Regression"/>
  </GeneralInfo>
  <Options>
    <Option name="V" modified="Yes">False</Option>
    <Option name="VerbosityLevel" modified="No">Default</Option>
    <Option name="VarTransform" modified="No">None</Option>
    <Option name="H" modified="Yes">False</Option>
    <Option name="CreateMVAPdfs" modified="No">False</Option>
    <Option name="IgnoreNegWeightsInTraining" modified="No">False</Option>
    <Option name="NTrees" modified="Yes">150</Option>
    <Option name="MaxDepth" modified="Yes">4</Option>
    <Option name="MinNodeSize" modified="No">0.2%</Option>
    <Option name="nCuts" modified="Yes">20</Option>
    <Option name="BoostType" modified="Yes">Grad</Option>
    <Option name="AdaBoostR2Loss" modified="No">quadratic</Option>
    <Option name="UseBaggedBoost" modified="Yes">True</Option>
    <Option name="Shrinkage" modified="Yes">1.000000e-01</Option>
    <Option name="AdaBoostBeta" modified="No">5.000000e-01</Option>
    <Option name="UseRandomisedTrees" modified="No">False</Option>
    <Option name="UseNvars" modified="No">3</Option>
    <Option name="UsePoissonNvars" modified="No">True</Option>
    <Option name="BaggedSampleFraction" modified="Yes">5.000000e-01</Option>
    <Option name="UseYesNoLeaf" modified="No">False</Option>
    <Option name="NegWeightTreatment" modified="No">pray</Option>
    <Option name="Css" modified="No">1.000000e+00</Option>
    <Option name="Cts_sb" modified="No">1.000000e+00</Option>
    <Option name="Ctb_ss" modified="No">1.000000e+00</Option>
    <Option name="Cbb" modified="No">1.000000e+00</Option>
    <Option name="NodePurityLimit" modified="No">5.000000e-01</Option>
    <Option name="SeparationType" modified="No">regressionvariance</Option>
    <Option name="RegressionLossFunctionBDTG" modified="No">huber</Option>
    <Option name="HuberQuantile" modified="No">7.000000e-01</Option>
    <Option name="DoBoostMonitor" modified="No">False</Option>
    <Option name="UseFisherCuts" modified="No">False</Option>
    <Option name="MinLinCorrForFisher" modified="No">8.000000e-01</Option>
    <Option name="UseExclusiveVars" modified="No">False</Option>
    <Option name="DoPreselection" modified="No">False</Option>
    <Option name="SigToBkgFraction" modified="No">1.000000e+00</Option>
    <Option name="PruneMethod" modified="No">nopruning</Option>
    <Option name="PruneStrength" modified="No">0.000000e+00</Option>
    <Option name="PruningValFraction" modified="No">5.000000e-01</Option>
    <Option name="SkipNormalization" modified="No">False</Option>
    <Option name="nEventsMin" modified="No">0</Option>
    <Option name="UseBaggedGrad" modified="No">False</Option>
    <Option name="GradBaggingFraction" modified="No">5.000000e-01</Option>
    <Option name="UseNTrainEvents" modified="No">0</Option>
    <Option name="NNodesMax" modified="No">0</Option>
  </Options>
  <Variables NVar="6">
    <Variable VarIndex="0" Expression="ptbj" Label="ptbj" Title="PT" Unit="units" Internal="ptbj" Type="F" Min="2.00016441e+01" Max="8.03844177e+02"/>
    <Variable VarIndex="1" Expression="ebj" Label="ebj" Title="Energy" Unit="units" Internal="ebj" Type="F" Min="2.05065517e+01" Max="3.00787939e+03"/>
    <Variable VarIndex="2" Expression="etabj" Label="etabj" Title="ETA" Unit="units" Internal="etabj" Type="F" Min="-3.71595311e+00" Max="3.99345636e+00"/>
    <Variable VarIndex="3" Expression="btgbj" Label="btgbj" Title="BTAG" Unit="units" Internal="btgbj" Type="F" Min="-1.00000000e+01" Max="1.00000000e+00"/>
    <Variable VarIndex="4" Expression="btg_D_bj" Label="btg_D_bj" Title="BTAG_D" Unit="units" Internal="btg_D_bj" Type="F" Min="-2.00000000e+00" Max="9.99899626e-01"/>
    <Variable VarIndex="5" Expression="phibj" Label="phibj" Title="PHI" Unit="units" Internal="phibj" Type="F" Min="-3.14156437e+00" Max="3.14148569e+00"/>
  </Variables>
  <Spectators NSpec="0"/>
  <Classes NClass="1">
    <Class Name="Regression" Index="0"/>
  </Classes>
  <Targets NTrgt="1">
    <Target TargetIndex="0" Expression="ptbq" Label="ptbq" Title="ptbq" Unit="" Internal="ptbq" Type="F" Min="3.26075792e+00" Max="8.04925781e+02"/>
  </Targets>
  <Transformations NTransformations="0"/>
  <MVAPdfs/>
  <Weights NTrees="150" AnalysisType="1">
    <BinaryTree type="DecisionTree" boostWeight="1.2006624603271484e+02" itree="0">
      <Node pos="s" depth="0" NCoef="0" IVar="0" Cut="1.3202178955078125e+02" cType="1" res="2.3265068531036377e+00" rms="3.9805477142333984e+01" purity="1.0000000000000000e+00" nType="0">
        <Node pos="l" depth="1" NCoef="0" IVar="0" Cut="8.4032012939453125e+01" cType="1" res="-1.8533248901367188e+01" rms="3.0013267517089844e+01" purity="1.0000000000000000e+00" nType="0">
          <Node pos="l" depth="2" NCoef="0" IVar="0" Cut="6.5749542236328125e+01" cType="1" res="-4.3657398223876953e+01" rms="1.9774667739868164e+01" purity="1.0000000000000000e+00" nType="0">
            <Node pos="l" depth="3" NCoef="0" IVar="0" Cut="5.7021224975585938e+01" cType="1" res="-5.0898658752441406e+01" rms="1.4932087898254395e+01" purity="1.0000000000000000e+00" nType="0">
              <Node pos="l" depth="4" NCoef="0" IVar="-1" Cut="0.0000000000000000e+00" cType="1" res="-6.6874456405639648e+00" rms="1.3271937370300293e+01" purity="1.0000000000000000e+00" nType="-99"/>
              <Node pos="r" depth="4" NCoef="0" IVar="-1" Cut="0.0000000000000000e+00" cType="1" res="-4.5666351318359375e+00" rms="1.8304910659790039e+01" purity="1.0000000000000000e+00" nType="-99"/>
            </Node>
            <Node pos="r" depth="3" NCoef="0" IVar="0" Cut="7.6207321166992188e+01" cType="1" res="-3.0168390274047852e+01" rms="2.0603097915649414e+01" purity="1.0000000000000000e+00" nType="0">
              <Node pos="l" depth="4" NCoef="0" IVar="-1" Cut="0.0000000000000000e+00" cType="1" res="-3.6908693313598633e+00" rms="1.9989797592163086e+01" purity="1.0000000000000000e+00" nType="-99"/>
              <Node pos="r" depth="4" NCoef="0" IVar="-1" Cut="0.0000000000000000e+00" cType="1" res="-2.6610827445983887e+00" rms="2.0031101226806641e+01" purity="1.0000000000000000e+00" nType="-99"/>
            </Node>
          </Node>
          <Node pos="r" depth="2" NCoef="0" IVar="0" Cut="1.1145509338378906e+02" cType="1" res="-2.5060350894927979e+00" rms="2.3800004959106445e+01" purity="1.0000000000000000e+00" nType="0">
            <Node pos="l" depth="3" NCoef="0" IVar="0" Cut="9.5788459777832031e+01" cType="1" res="-1.0761489868164062e+01" rms="2.1753324508666992e+01" purity="1.0000000000000000e+00" nType="0">
              <Node pos="l" depth="4" NCoef="0" IVar="-1" Cut="0.0000000000000000e+00" cType="1" res="-1.8605802059173584e+00" rms="2.0944236755371094e+01" purity="1.0000000000000000e+00" nType="-99"/>
              <Node pos="r" depth="4" NCoef="0" IVar="-1" Cut="0.0000000000000000e+00" cType="1" res="-5.7728075981140137e-01" rms="2.0798511505126953e+01" purity="1.0000000000000000e+00" nType="-99"/>
            </Node>
            <Node pos="r" depth="3" NCoef="0" IVar="0" Cut="1.1928902435302734e+02" cType="1" res="1.1127461433410645e+01" rms="2.0542331695556641e+01" purity="1.0000000000000000e+00" nType="0">
              <Node pos="l" depth="4" NCoef="0" IVar="-1" Cut="0.0000000000000000e+00" cType="1" res="5.4695266485214233e-01" rms="1.9680532455444336e+01" purity="1.0000000000000000e+00" nType="-99"/>
              <Node pos="r" depth="4" NCoef="0" IVar="-1" Cut="0.0000000000000000e+00" cType="1" res="1.5940332412719727e+00" rms="2.0137577056884766e+01" purity="1.0000000000000000e+00" nType="-99"/>
            </Node>
          </Node>
        </Node>
        <Node pos="r" depth="1" NCoef="0" IVar="0" Cut="1.6401473999023438e+02" cType="1" res="4.4054744720458984e+01" rms="1.8450872421264648e+01" purity="1.0000000000000000e+00" nType="0">
          <Node pos="l" depth="2" NCoef="0" IVar="0" Cut="1.4878036499023438e+02" cType="1" res="3.2342807769775391e+01" rms="1.9024597167968750e+01" purity="1.0000000000000000e+00" nType="0">
            <Node pos="l" depth="3" NCoef="0" IVar="0" Cut="1.3920402526855469e+02" cType="1" res="2.6676042556762695e+01" rms="1.9210199356079102e+01" purity="1.0000000000000000e+00" nType="0">
              <Node pos="l" depth="4" NCoef="0" IVar="-1" Cut="0.0000000000000000e+00" cType="1" res="2.4051587581634521e+00" rms="1.9254182815551758e+01" purity="1.0000000000000000e+00" nType="-99"/>
              <Node pos="r" depth="4" NCoef="0" IVar="-1" Cut="0.0000000000000000e+00" cType="1" res="3.2216761112213135e+00" rms="1.8553438186645508e+01" purity="1.0000000000000000e+00" nType="-99"/>
            </Node>
            <Node pos="r" depth="3" NCoef="0" IVar="0" Cut="1.5386331176757812e+02" cType="1" res="4.0684314727783203e+01" rms="1.5317937850952148e+01" purity="1.0000000000000000e+00" nType="0">
              <Node pos="l" depth="4" NCoef="0" IVar="-1" Cut="0.0000000000000000e+00" cType="1" res="4.0520086288452148e+00" rms="1.5727289199829102e+01" purity="1.0000000000000000e+00" nType="-99"/>
              <Node pos="r" depth="4" NCoef="0" IVar="-1" Cut="0.0000000000000000e+00" cType="1" res="4.8848447799682617e+00" rms="1.4722861289978027e+01" purity="1.0000000000000000e+00" nType="-99"/>
            </Node>
          </Node>
          <Node pos="r" depth="2" NCoef="0" IVar="0" Cut="1.9448332214355469e+02" cType="1" res="5.4102977752685547e+01" rms="1.0165484428405762e+01" purity="1.0000000000000000e+00" nType="0">
            <Node pos="l" depth="3" NCoef="0" IVar="0" Cut="1.7706530761718750e+02" cType="1" res="5.1127845764160156e+01" rms="1.1737177848815918e+01" purity="1.0000000000000000e+00" nType="0">
              <Node pos="l" depth="4" NCoef="0" IVar="-1" Cut="0.0000000000000000e+00" cType="1" res="5.7298932075500488e+00" rms="1.3503002166748047e+01" purity="1.0000000000000000e+00" nType="-99"/>
              <Node pos="r" depth="4" NCoef="0" IVar="-1" Cut="0.0000000000000000e+00" cType="1" res="7.1784009933471680e+00" rms="8.8662662506103516e+00" purity="1.0000000000000000e+00" nType="-99"/>
            </Node>
            <Node pos="r" depth="3" NCoef="0" IVar="1" Cut="7.3159649658203125e+02" cType="1" res="5.6453075408935547e+01" rms="7.9768490791320801e+00" purity="1.0000000000000000e+00" nType="0">
              <Node pos="l" depth="4" NCoef="0" IVar="-1" Cut="0.0000000000000000e+00" cType="1" res="1.2045288085937500e+01" rms="5.7623348236083984e+00" purity="1.0000000000000000e+00" nType="-99"/>
              <Node pos="r" depth="4" NCoef="0" IVar="-1" Cut="0.0000000000000000e+00" cType="1" res="1.2986190795898438e+01" rms="2.4846933364868164e+01" purity="1.0000000000000000e+00" nType="-99"/>
            </Node>
          </Node>
        </Node>
      </Node>
    </BinaryTree>
    <BinaryTree type="DecisionTree" boostWeight="1.0000000000000000e+00" itree="1">
      <Node pos="s" depth="0" NCoef="0" IVar="0" Cut="1.3943276977539062e+02" cType="1" res="7.9337150573730469e+01" rms="8.2821716308593750e+01" purity="1.0000000000000000e+00" nType="0">
        <Node pos="l" depth="1" NCoef="0" IVar="0" Cut="8.2552513122558594e+01" cType="1" res="5.5743625640869141e+01" rms="6.6480354309082031e+01" purity="1.0000000000000000e+00" nType="0">
          <Node pos="l" depth="2" NCoef="0" IVar="0" Cut="5.5739917755126953e+01" cType="1" res="2.4341192245483398e+01" rms="5.7837081909179688e+01" purity="1.0000000000000000e+00" nType="0">
            <Node pos="l" depth="3" NCoef="0" IVar="0" Cut="4.0422916412353516e+01" cType="1" res="1.1722453117370605e+01" rms="5.2642204284667969e+01" purity="1.0000000000000000e+00" nType="0">
              <Node pos="l" depth="4" NCoef="0" IVar="-1" Cut="0.0000000000000000e+00" cType="1" res="-7.0000371932983398e+00" rms="4.8679985046386719e+01" purity="1.0000000000000000e+00" nType="-99"/>
              <Node pos="r" depth="4" NCoef="0" IVar="-1" Cut="0.0000000000000000e+00" cType="1" res="-5.3219857215881348e+00" rms="5.5344928741455078e+01" purity="1.0000000000000000e+00" nType="-99"/>
            </Node>
            <Node pos="r" depth="3" NCoef="0" IVar="0" Cut="7.6160301208496094e+01" cType="1" res="3.7838684082031250e+01" rms="6.0054294586181641e+01" purity="1.0000000000000000e+00" nType="0">
              <Node pos="l" depth="4" NCoef="0" IVar="-1" Cut="0.0000000000000000e+00" cType="1" res="-3.9078180789947510e+00" rms="5.8944984436035156e+01" purity="1.0000000000000000e+00" nType="-99"/>
              <Node pos="r" depth="4" NCoef="0" IVar="-1" Cut="0.0000000000000000e+00" cType="1" res="-2.5258805751800537e+00" rms="6.0993648529052734e+01" purity="1.0000000000000000e+00" nType="-99"/>
            </Node>
          </Node>
          <Node pos="r" depth="2" NCoef="0" IVar="0" Cut="1.0963144683837891e+02" cType="1" res="7.2339721679687500e+01" rms="6.4737350463867188e+01" purity="1.0000000000000000e+00" nType="0">
            <Node pos="l" depth="3" NCoef="0" IVar="0" Cut="9.2870269775390625e+01" cType="1" res="6.0594833374023438e+01" rms="6.2979061126708984e+01" purity="1.0000000000000000e+00" nType="0">
              <Node pos="l" depth="4" NCoef="0" IVar="-1" Cut="0.0000000000000000e+00" cType="1" res="-1.9186557531356812e+00" rms="6.1225189208984375e+01" purity="1.0000000000000000e+00" nType="-99"/>
              <Node pos="r" depth="4" NCoef="0" IVar="-1" Cut="0.0000000000000000e+00" cType="1" res="-7.2684097290039062e-01" rms="6.3563468933105469e+01" purity="1.0000000000000000e+00" nType="-99"/>
            </Node>
            <Node pos="r" depth="3" NCoef="0" IVar="0" Cut="1.1814677429199219e+02" cType="1" res="8.5989181518554688e+01" rms="6.4072479248046875e+01" purity="1.0000000000000000e+00" nType="0">
              <Node pos="l" depth="4" NCoef="0" IVar="-1" Cut="0.0000000000000000e+00" cType="1" res="3.6927315592765808e-01" rms="6.3229907989501953e+01" purity="1.0000000000000000e+00" nType="-99"/>
              <Node pos="r" depth="4" NCoef="0" IVar="-1" Cut="0.0000000000000000e+00" cType="1" res="1.5647608041763306e+00" rms="6.3976715087890625e+01" purity="1.0000000000000000e+00" nType="-99"/>
            </Node>
          </Node>
        </Node>
        <Node pos="r" depth="1" NCoef="0" IVar="0" Cut="2.3611834716796875e+02" cType="1" res="1.3811495971679688e+02" rms="8.9977920532226562e+01" purity="1.0000000000000000e+00" nType="0">
          <Node pos="l" depth="2" NCoef="0" IVar="0" Cut="1.8086903381347656e+02" cType="1" res="1.2523513031005859e+02" rms="7.4504058837890625e+01" purity="1.0000000000000000e+00" nType="0">
            <Node pos="l" depth="3" NCoef="0" IVar="0" Cut="1.5719113159179688e+02" cType="1" res="1.1392315673828125e+02" rms="6.7326927185058594e+01" purity="1.0000000000000000e+00" nType="0">
              <Node pos="l" depth="4" NCoef="0" IVar="-1" Cut="0.0000000000000000e+00" cType="1" res="3.2005667686462402e+00" rms="6.5495140075683594e+01" purity="1.0000000000000000e+00" nType="-99"/>
              <Node pos="r" depth="4" NCoef="0" IVar="-1" Cut="0.0000000000000000e+00" cType="1" res="4.9190788269042969e+00" rms="6.7889053344726562e+01" purity="1.0000000000000000e+00" nType="-99"/>
            </Node>
            <Node pos="r" depth="3" NCoef="0" IVar="0" Cut="1.9667741394042969e+02" cType="1" res="1.4603263854980469e+02" rms="8.2186256408691406e+01" purity="1.0000000000000000e+00" nType="0">
              <Node pos="l" depth="4" NCoef="0" IVar="-1" Cut="0.0000000000000000e+00" cType="1" res="6.6541795730590820e+00" rms="7.6195137023925781e+01" purity="1.0000000000000000e+00" nType="-99"/>
              <Node pos="r" depth="4" NCoef="0" IVar="-1" Cut="0.0000000000000000e+00" cType="1" res="8.5330038070678711e+00" rms="8.5048118591308594e+01" purity="1.0000000000000000e+00" nType="-99"/>
            </Node>
          </Node>
          <Node pos="r" depth="2" NCoef="0" IVar="0" Cut="2.9483328247070312e+02" cType="1" res="2.1026884460449219e+02" rms="1.2735294342041016e+02" purity="1.0000000000000000e+00" nType="0">
            <Node pos="l" depth="3" NCoef="0" IVar="2" Cut="-4.9568176269531250e-01" cType="1" res="1.9048286437988281e+02" rms="1.0724115753173828e+02" purity="1.0000000000000000e+00" nType="0">
              <Node pos="l" depth="4" NCoef="0" IVar="-1" Cut="0.0000000000000000e+00" cType="1" res="1.2858036994934082e+01" rms="1.0790722656250000e+02" purity="1.0000000000000000e+00" nType="-99"/>
              <Node pos="r" depth="4" NCoef="0" IVar="-1" Cut="0.0000000000000000e+00" cType="1" res="1.3132534027099609e+01" rms="1.0594838714599609e+02" purity="1.0000000000000000e+00" nType="-99"/>
            </Node>
            <Node pos="r" depth="3" NCoef="0" IVar="0" Cut="4.1222360229492188e+02" cType="1" res="2.4317514038085938e+02" rms="1.4943763732910156e+02" purity="1.0000000000000000e+00" nType="0">
              <Node pos="l" depth="4" NCoef="0" IVar="-1" Cut="0.0000000000000000e+00" cType="1" res="1.9597940444946289e+01" rms="1.3399864196777344e+02" purity="1.0000000000000000e+00" nType="-99"/>
              <Node pos="r" depth="4" NCoef="0" IVar="-1" Cut="0.0000000000000000e+00" cType="1" res="3.2795627593994141e+01" rms="2.0926994323730469e+02" purity="1.0000000000000000e+00" nType="-99"/>
            </Node>
          </Node>
        </Node>
      </Node>
    </BinaryTree>
    <BinaryTree type="DecisionTree" boostWeight="1.0000000000000000e+00" itree="2">
      <Node pos="s" depth="0" NCoef="0" IVar="0" Cut="1.3995840454101562e+02" cType="1" res="4.8757122039794922e+01" rms="7.8048858642578125e+01" purity="1.0000000000000000e+00" nType="0">
        <Node pos="l" depth="1" NCoef="0" IVar="0" Cut="8.8542968750000000e+01" cType="1" res="2.8995290756225586e+01" rms="6.3703330993652344e+01" purity="1.0000000000000000e+00" nType="0">
          <Node pos="l" depth="2" NCoef="0" IVar="0" Cut="6.8959213256835938e+01" cType="1" res="5.4082050323486328e+00" rms="5.6645355224609375e+01" purity="1.0000000000000000e+00" nType="0">
            <Node pos="l" depth="3" NCoef="0" IVar="0" Cut="5.4967712402343750e+01" cType="1" res="-4.6216540336608887e+00" rms="5.2225070953369141e+01" purity="1.0000000000000000e+00" nType="0">
              <Node pos="l" depth="4" NCoef="0" IVar="-1" Cut="0.0000000000000000e+00" cType="1" res="-5.5194206237792969e+00" rms="4.9849105834960938e+01" purity="1.0000000000000000e+00" nType="-99"/>
              <Node pos="r" depth="4" NCoef="0" IVar="-1" Cut="0.0000000000000000e+00" cType="1" res="-3.7646076679229736e+00" rms="5.6114849090576172e+01" purity="1.0000000000000000e+00" nType="-99"/>
            </Node>
            <Node pos="r" depth="3" NCoef="0" IVar="0" Cut="7.1758293151855469e+01" cType="1" res="2.1034072875976562e+01" rms="5.9645122528076172e+01" purity="1.0000000000000000e+00" nType="0">
              <Node pos="l" depth="4" NCoef="0" IVar="-1" Cut="0.0000000000000000e+00" cType="1" res="-3.0942652225494385e+00" rms="5.4452083587646484e+01" purity="1.0000000000000000e+00" nType="-99"/>
              <Node pos="r" depth="4" NCoef="0" IVar="-1" Cut="0.0000000000000000e+00" cType="1" res="-2.1508860588073730e+00" rms="5.9958454132080078e+01" purity="1.0000000000000000e+00" nType="-99"/>
            </Node>
          </Node>
          <Node pos="r" depth="2" NCoef="0" IVar="0" Cut="1.1302417755126953e+02" cType="1" res="4.6009056091308594e+01" rms="6.3087566375732422e+01" purity="1.0000000000000000e+00" nType="0">
            <Node pos="l" depth="3" NCoef="0" IVar="0" Cut="9.6705406188964844e+01" cType="1" res="3.7422851562500000e+01" rms="6.1823261260986328e+01" purity="1.0000000000000000e+00" nType="0">
              <Node pos="l" depth="4" NCoef="0" IVar="-1" Cut="0.0000000000000000e+00" cType="1" res="-1.3895714282989502e+00" rms="6.0547496795654297e+01" purity="1.0000000000000000e+00" nType="-99"/>
              <Node pos="r" depth="4" NCoef="0" IVar="-1" Cut="0.0000000000000000e+00" cType="1" res="-3.6980509757995605e-01" rms="6.2127536773681641e+01" purity="1.0000000000000000e+00" nType="-99"/>
            </Node>
            <Node pos="r" depth="3" NCoef="0" IVar="0" Cut="1.2456958007812500e+02" cType="1" res="5.6755802154541016e+01" rms="6.3007446289062500e+01" purity="1.0000000000000000e+00" nType="0">
              <Node pos="l" depth="4" NCoef="0" IVar="-1" Cut="0.0000000000000000e+00" cType="1" res="6.3728326559066772e-01" rms="6.1969970703125000e+01" purity="1.0000000000000000e+00" nType="-99"/>
              <Node pos="r" depth="4" NCoef="0" IVar="-1" Cut="0.0000000000000000e+00" cType="1" res="1.7962338924407959e+00" rms="6.3498954772949219e+01" purity="1.0000000000000000e+00" nType="-99"/>
            </Node>
          </Node>
        </Node>
        <Node pos="r" depth="1" NCoef="0" IVar="0" Cut="2.6134518432617188e+02" cType="1" res="9.9294662475585938e+01" rms="8.7972862243652344e+01" purity="1.0000000000000000e+00" nType="0">
          <Node pos="l" depth="2" NCoef="0" IVar="0" Cut="1.6885913085937500e+02" cType="1" res="9.1861816406250000e+01" rms="7.5505142211914062e+01" purity="1.0000000000000000e+00" nType="0">
            <Node pos="l" depth="3" NCoef="0" IVar="0" Cut="1.4821647644042969e+02" cType="1" res="7.8349548339843750e+01" rms="6.6545288085937500e+01" purity="1.0000000000000000e+00" nType="0">
              <Node pos="l" depth="4" NCoef="0" IVar="-1" Cut="0.0000000000000000e+00" cType="1" res="2.5615642070770264e+00" rms="6.4026176452636719e+01" purity="1.0000000000000000e+00" nType="-99"/>
              <Node pos="r" depth="4" NCoef="0" IVar="-1" Cut="0.0000000000000000e+00" cType="1" res="3.6250038146972656e+00" rms="6.7255081176757812e+01" purity="1.0000000000000000e+00" nType="-99"/>
            </Node>
            <Node pos="r" depth="3" NCoef="0" IVar="0" Cut="2.1730284118652344e+02" cType="1" res="1.0410895538330078e+02" rms="8.0864906311035156e+01" purity="1.0000000000000000e+00" nType="0">
              <Node pos="l" depth="4" NCoef="0" IVar="-1" Cut="0.0000000000000000e+00" cType="1" res="6.0081934928894043e+00" rms="7.5346946716308594e+01" purity="1.0000000000000000e+00" nType="-99"/>
              <Node pos="r" depth="4" NCoef="0" IVar="-1" Cut="0.0000000000000000e+00" cType="1" res="9.5693864822387695e+00" rms="9.3164550781250000e+01" purity="1.0000000000000000e+00" nType="-99"/>
            </Node>
          </Node>
          <Node pos="r" depth="2" NCoef="0" IVar="0" Cut="3.9083923339843750e+02" cType="1" res="1.6680737304687500e+02" rms="1.4557629394531250e+02" purity="1.0000000000000000e+00" nType="0">
            <Node pos="l" depth="3" NCoef="0" IVar="0" Cut="3.0443173217773438e+02" cType="1" res="1.5478976440429688e+02" rms="1.3113031005859375e+02" purity="1.0000000000000000e+00" nType="0">
              <Node pos="l" depth="4" NCoef="0" IVar="-1" Cut="0.0000000000000000e+00" cType="1" res="1.3252853393554688e+01" rms="1.1608895874023438e+02" purity="1.0000000000000000e+00" nType="-99"/>
              <Node pos="r" depth="4" NCoef="0" IVar="-1" Cut="0.0000000000000000e+00" cType="1" res="1.8269969940185547e+01" rms="1.4729446411132812e+02" purity="1.0000000000000000e+00" nType="-99"/>
            </Node>
            <Node pos="r" depth="3" NCoef="0" IVar="-1" Cut="0.0000000000000000e+00" cType="1" res="2.7791933059692383e+01" rms="2.0229478454589844e+02" purity="1.0000000000000000e+00" nType="-99"/>
          </Node>
        </Node>
      </Node>
    </BinaryTree>
    <BinaryTree type="DecisionTree" boostWeight="1.0000000000000000e+00" itree="3">
      <Node pos="s" depth="0" NCoef="0" IVar="0" Cut="1.3199121093750000e+02" cType="1" res="2.9845026016235352e+01" rms="6.6863044738769531e+01" purity="1.0000000000000000e+00" nType="0">
        <Node pos="l" depth="1" NCoef="0" IVar="0" Cut="8.3999496459960938e+01" cType="1" res="1.0672607421875000e+01" rms="5.4834236145019531e+01" purity="1.0000000000000000e+00" nType="0">
          <Node pos="l" depth="2" NCoef="0" IVar="0" Cut="6.2670356750488281e+01" cType="1" res="-1.0886406898498535e+01" rms="4.7458053588867188e+01" purity="1.0000000000000000e+00" nType="0">
            <Node pos="l" depth="3" NCoef="0" IVar="0" Cut="5.0483169555664062e+01" cType="1" res="-1.8552772521972656e+01" rms="4.3145503997802734e+01" purity="1.0000000000000000e+00" nType="0">
              <Node pos="l" depth="4" NCoef="0" IVar="-1" Cut="0.0000000000000000e+00" cType="1" res="-5.1765184402465820e+00" rms="4.1512813568115234e+01" purity="1.0000000000000000e+00" nType="-99"/>
              <Node pos="r" depth="4" NCoef="0" IVar="-1" Cut="0.0000000000000000e+00" cType="1" res="-3.6360189914703369e+00" rms="4.6009784698486328e+01" purity="1.0000000000000000e+00" nType="-99"/>
            </Node>
            <Node pos="r" depth="3" NCoef="0" IVar="0" Cut="7.2826774597167969e+01" cType="1" res="3.5557755827903748e-01" rms="5.1114292144775391e+01" purity="1.0000000000000000e+00" nType="0">
              <Node pos="l" depth="4" NCoef="0" IVar="-1" Cut="0.0000000000000000e+00" cType="1" res="-3.0391252040863037e+00" rms="4.8449180603027344e+01" purity="1.0000000000000000e+00" nType="-99"/>
              <Node pos="r" depth="4" NCoef="0" IVar="-1" Cut="0.0000000000000000e+00" cType="1" res="-2.0644104480743408e+00" rms="5.2186111450195312e+01" purity="1.0000000000000000e+00" nType="-99"/>
            </Node>
          </Node>
          <Node pos="r" depth="2" NCoef="0" IVar="0" Cut="1.0228630828857422e+02" cType="1" res="2.4426879882812500e+01" rms="5.4794704437255859e+01" purity="1.0000000000000000e+00" nType="0">
            <Node pos="l" depth="3" NCoef="0" IVar="0" Cut="9.5321296691894531e+01" cType="1" res="1.4566445350646973e+01" rms="5.2911998748779297e+01" purity="1.0000000000000000e+00" nType="0">
              <Node pos="l" depth="4" NCoef="0" IVar="-1" Cut="0.0000000000000000e+00" cType="1" res="-1.4198862314224243e+00" rms="5.1155353546142578e+01" purity="1.0000000000000000e+00" nType="-99"/>
              <Node pos="r" depth="4" NCoef="0" IVar="-1" Cut="0.0000000000000000e+00" cType="1" res="-8.0763262510299683e-01" rms="5.4844818115234375e+01" purity="1.0000000000000000e+00" nType="-99"/>
            </Node>
            <Node pos="r" depth="3" NCoef="0" IVar="0" Cut="1.2067304229736328e+02" cType="1" res="3.1525987625122070e+01" rms="5.5027767181396484e+01" purity="1.0000000000000000e+00" nType="0">
              <Node pos="l" depth="4" NCoef="0" IVar="-1" Cut="0.0000000000000000e+00" cType="1" res="8.6530126631259918e-02" rms="5.3041553497314453e+01" purity="1.0000000000000000e+00" nType="-99"/>
              <Node pos="r" depth="4" NCoef="0" IVar="-1" Cut="0.0000000000000000e+00" cType="1" res="1.0338859558105469e+00" rms="5.7784309387207031e+01" purity="1.0000000000000000e+00" nType="-99"/>
            </Node>
          </Node>
        </Node>
        <Node pos="r" depth="1" NCoef="0" IVar="0" Cut="1.9599232482910156e+02" cType="1" res="6.9393287658691406e+01" rms="7.1888786315917969e+01" purity="1.0000000000000000e+00" nType="0">
          <Node pos="l" depth="2" NCoef="0" IVar="0" Cut="1.5637994384765625e+02" cType="1" res="6.0692474365234375e+01" rms="6.0862342834472656e+01" purity="1.0000000000000000e+00" nType="0">
            <Node pos="l" depth="3" NCoef="0" IVar="0" Cut="1.3548864746093750e+02" cType="1" res="5.3152046203613281e+01" rms="5.7955989837646484e+01" purity="1.0000000000000000e+00" nType="0">
              <Node pos="l" depth="4" NCoef="0" IVar="-1" Cut="0.0000000000000000e+00" cType="1" res="1.5111935138702393e+00" rms="5.5304458618164062e+01" purity="1.0000000000000000e+00" nType="-99"/>
              <Node pos="r" depth="4" NCoef="0" IVar="-1" Cut="0.0000000000000000e+00" cType="1" res="2.4952931404113770e+00" rms="5.8241977691650391e+01" purity="1.0000000000000000e+00" nType="-99"/>
            </Node>
            <Node pos="r" depth="3" NCoef="0" IVar="0" Cut="1.7147564697265625e+02" cType="1" res="6.9206718444824219e+01" rms="6.2908325195312500e+01" purity="1.0000000000000000e+00" nType="0">
              <Node pos="l" depth="4" NCoef="0" IVar="-1" Cut="0.0000000000000000e+00" cType="1" res="3.6384766101837158e+00" rms="6.0698303222656250e+01" purity="1.0000000000000000e+00" nType="-99"/>
              <Node pos="r" depth="4" NCoef="0" IVar="-1" Cut="0.0000000000000000e+00" cType="1" res="4.9943447113037109e+00" rms="6.4584800720214844e+01" purity="1.0000000000000000e+00" nType="-99"/>
            </Node>
          </Node>
          <Node pos="r" depth="2" NCoef="0" IVar="0" Cut="4.2756152343750000e+02" cType="1" res="9.0626602172851562e+01" rms="9.0025360107421875e+01" purity="1.0000000000000000e+00" nType="0">
            <Node pos="l" depth="3" NCoef="0" IVar="0" Cut="2.3983731079101562e+02" cType="1" res="8.9212303161621094e+01" rms="8.5897384643554688e+01" purity="1.0000000000000000e+00" nType="0">
              <Node pos="l" depth="4" NCoef="0" IVar="-1" Cut="0.0000000000000000e+00" cType="1" res="6.9355583190917969e+00" rms="7.4504951477050781e+01" purity="1.0000000000000000e+00" nType="-99"/>
              <Node pos="r" depth="4" NCoef="0" IVar="-1" Cut="0.0000000000000000e+00" cType="1" res="1.2265353202819824e+01" rms="9.9134300231933594e+01" purity="1.0000000000000000e+00" nType="-99"/>
            </Node>
            <Node pos="r" depth="3" NCoef="0" IVar="-1" Cut="0.0000000000000000e+00" cType="1" res="2.7106792449951172e+01" rms="1.7873292541503906e+02" purity="1.0000000000000000e+00" nType="-99"/>
          </Node>
        </Node>
      </Node>
    </BinaryTree>
    <BinaryTree type="DecisionTree" boostWeight="1.0000000000000000e+00" itree="4">
      <Node pos="s" depth="0" NCoef="0" IVar="0" Cut="1.0996920776367188e+02" cType="1" res="1.8554801940917969e+01" rms="5.7507755279541016e+01" purity="1.0000000000000000e+00" nType="0">
        <Node pos="l" depth="1" NCoef="0" IVar="0" Cut="7.5687583923339844e+01" cType="1" res="-5.7973051071166992e+00" rms="4.3941150665283203e+01" purity="1.0000000000000000e+00" nType="0">
          <Node pos="l" depth="2" NCoef="0" IVar="0" Cut="5.4469882965087891e+01" cType="1" res="-2.2159648895263672e+01" rms="3.6381736755371094e+01" purity="1.0000000000000000e+00" nType="0">
            <Node pos="l" depth="3" NCoef="0" IVar="0" Cut="3.6408016204833984e+01" cType="1" res="-2.6280420303344727e+01" rms="3.3706996917724609e+01" purity="1.0000000000000000e+00" nType="0">
              <Node pos="l" depth="4" NCoef="0" IVar="-1" Cut="0.0000000000000000e+00" cType="1" res="-5.4198999404907227e+00" rms="3.1631668090820312e+01" purity="1.0000000000000000e+00" nType="-99"/>
              <Node pos="r" depth="4" NCoef="0" IVar="-1" Cut="0.0000000000000000e+00" cType="1" res="-4.0111880302429199e+00" rms="3.4904216766357422e+01" purity="1.0000000000000000e+00" nType="-99"/>
            </Node>
            <Node pos="r" depth="3" NCoef="0" IVar="0" Cut="6.6595642089843750e+01" cType="1" res="-1.5973219871520996e+01" rms="3.9259517669677734e+01" purity="1.0000000000000000e+00" nType="0">
              <Node pos="l" depth="4" NCoef="0" IVar="-1" Cut="0.0000000000000000e+00" cType="1" res="-3.2068142890930176e+00" rms="3.8275623321533203e+01" purity="1.0000000000000000e+00" nType="-99"/>
              <Node pos="r" depth="4" NCoef="0" IVar="-1" Cut="0.0000000000000000e+00" cType="1" res="-2.3410573005676270e+00" rms="4.0191604614257812e+01" purity="1.0000000000000000e+00" nType="-99"/>
            </Node>
          </Node>
          <Node pos="r" depth="2" NCoef="0" IVar="0" Cut="9.3637672424316406e+01" cType="1" res="5.5395450592041016e+00" rms="4.5138725280761719e+01" purity="1.0000000000000000e+00" nType="0">
            <Node pos="l" depth="3" NCoef="0" IVar="4" Cut="8.5697197914123535e-01" cType="1" res="-1.8355731666088104e-01" rms="4.4337299346923828e+01" purity="1.0000000000000000e+00" nType="0">
              <Node pos="l" depth="4" NCoef="0" IVar="-1" Cut="0.0000000000000000e+00" cType="1" res="-1.3367050886154175e+00" rms="4.7122287750244141e+01" purity="1.0000000000000000e+00" nType="-99"/>
              <Node pos="r" depth="4" NCoef="0" IVar="-1" Cut="0.0000000000000000e+00" cType="1" res="-1.7545770406723022e+00" rms="4.2104698181152344e+01" purity="1.0000000000000000e+00" nType="-99"/>
            </Node>
            <Node pos="r" depth="3" NCoef="0" IVar="0" Cut="1.0451830291748047e+02" cType="1" res="1.0692008018493652e+01" rms="4.5233032226562500e+01" purity="1.0000000000000000e+00" nType="0">
              <Node pos="l" depth="4" NCoef="0" IVar="-1" Cut="0.0000000000000000e+00" cType="1" res="-7.1855539083480835e-01" rms="4.4338756561279297e+01" purity="1.0000000000000000e+00" nType="-99"/>
              <Node pos="r" depth="4" NCoef="0" IVar="-1" Cut="0.0000000000000000e+00" cType="1" res="-1.4914408326148987e-01" rms="4.6641098022460938e+01" purity="1.0000000000000000e+00" nType="-99"/>
            </Node>
          </Node>
        </Node>
        <Node pos="r" depth="1" NCoef="0" IVar="0" Cut="1.6137963867187500e+02" cType="1" res="4.3223773956298828e+01" rms="5.9093723297119141e+01" purity="1.0000000000000000e+00" nType="0">
          <Node pos="l" depth="2" NCoef="0" IVar="0" Cut="1.2465012359619141e+02" cType="1" res="3.0487571716308594e+01" rms="4.8357879638671875e+01" purity="1.0000000000000000e+00" nType="0">
            <Node pos="l" depth="3" NCoef="0" IVar="0" Cut="1.1835756683349609e+02" cType="1" res="2.0433177947998047e+01" rms="4.5364978790283203e+01" purity="1.0000000000000000e+00" nType="0">
              <Node pos="l" depth="4" NCoef="0" IVar="-1" Cut="0.0000000000000000e+00" cType="1" res="2.1673925220966339e-01" rms="4.4461833953857422e+01" purity="1.0000000000000000e+00" nType="-99"/>
              <Node pos="r" depth="4" NCoef="0" IVar="-1" Cut="0.0000000000000000e+00" cType="1" res="6.2066167593002319e-01" rms="4.6349048614501953e+01" purity="1.0000000000000000e+00" nType="-99"/>
            </Node>
            <Node pos="r" depth="3" NCoef="0" IVar="0" Cut="1.4562286376953125e+02" cType="1" res="3.6709266662597656e+01" rms="4.9099853515625000e+01" purity="1.0000000000000000e+00" nType="0">
              <Node pos="l" depth="4" NCoef="0" IVar="-1" Cut="0.0000000000000000e+00" cType="1" res="1.4722138643264771e+00" rms="4.7931602478027344e+01" purity="1.0000000000000000e+00" nType="-99"/>
              <Node pos="r" depth="4" NCoef="0" IVar="-1" Cut="0.0000000000000000e+00" cType="1" res="2.6816847324371338e+00" rms="5.0273742675781250e+01" purity="1.0000000000000000e+00" nType="-99"/>
            </Node>
          </Node>
          <Node pos="r" depth="2" NCoef="0" IVar="0" Cut="2.0789868164062500e+02" cType="1" res="6.4527000427246094e+01" rms="6.8530738830566406e+01" purity="1.0000000000000000e+00" nType="0">
            <Node pos="l" depth="3" NCoef="0" IVar="0" Cut="1.9012182617187500e+02" cType="1" res="5.7256587982177734e+01" rms="5.5087089538574219e+01" purity="1.0000000000000000e+00" nType="0">
              <Node pos="l" depth="4" NCoef="0" IVar="-1" Cut="0.0000000000000000e+00" cType="1" res="3.9448957443237305e+00" rms="5.2064319610595703e+01" purity="1.0000000000000000e+00" nType="-99"/>
              <Node pos="r" depth="4" NCoef="0" IVar="-1" Cut="0.0000000000000000e+00" cType="1" res="5.1829915046691895e+00" rms="6.1421821594238281e+01" purity="1.0000000000000000e+00" nType="-99"/>
            </Node>
            <Node pos="r" depth="3" NCoef="0" IVar="0" Cut="3.9732287597656250e+02" cType="1" res="7.4918556213378906e+01" rms="8.2995376586914062e+01" purity="1.0000000000000000e+00" nType="0">
              <Node pos="l" depth="4" NCoef="0" IVar="-1" Cut="0.0000000000000000e+00" cType="1" res="8.8752651214599609e+00" rms="7.7437400817871094e+01" purity="1.0000000000000000e+00" nType="-99"/>
              <Node pos="r" depth="4" NCoef="0" IVar="-1" Cut="0.0000000000000000e+00" cType="1" res="2.3536550521850586e+01" rms="1.5545094299316406e+02" purity="1.0000000000000000e+00" nType="-99"/>
            </Node>
          </Node>
        </Node>
      </Node>
    </BinaryTree>
    <BinaryTree type="DecisionTree" boostWeight="1.0000000000000000e+00" itree="5">
      <Node pos="s" depth="0" NCoef="0" IVar="0" Cut="1.0999458312988281e+02" cType="1" res="1.2003686904907227e+01" rms="4.8565883636474609e+01" purity="1.0000000000000000e+00" nType="0">
        <Node pos="l" depth="1" NCoef="0" IVar="0" Cut="7.5721633911132812e+01" cType="1" res="-9.7989959716796875e+00" rms="3.7537601470947266e+01" purity="1.0000000000000000e+00" nType="0">
          <Node pos="l" depth="2" NCoef="0" IVar="0" Cut="5.1835468292236328e+01" cType="1" res="-2.4595514297485352e+01" rms="3.1074668884277344e+01" purity="1.0000000000000000e+00" nType="0">
            <Node pos="l" depth="3" NCoef="0" IVar="0" Cut="3.0627944946289062e+01" cType="1" res="-2.9883335113525391e+01" rms="2.6893163681030273e+01" purity="1.0000000000000000e+00" nType="0">
              <Node pos="l" depth="4" NCoef="0" IVar="-1" Cut="0.0000000000000000e+00" cType="1" res="-5.2984399795532227e+00" rms="2.0983512878417969e+01" purity="1.0000000000000000e+00" nType="-99"/>
              <Node pos="r" depth="4" NCoef="0" IVar="-1" Cut="0.0000000000000000e+00" cType="1" res="-3.9373114109039307e+00" rms="2.8432922363281250e+01" purity="1.0000000000000000e+00" nType="-99"/>
            </Node>
            <Node pos="r" depth="3" NCoef="0" IVar="0" Cut="7.2281677246093750e+01" cType="1" res="-1.8402338027954102e+01" rms="3.4328201293945312e+01" purity="1.0000000000000000e+00" nType="0">
              <Node pos="l" depth="4" NCoef="0" IVar="-1" Cut="0.0000000000000000e+00" cType="1" res="-2.8092653751373291e+00" rms="3.3805049896240234e+01" purity="1.0000000000000000e+00" nType="-99"/>
              <Node pos="r" depth="4" NCoef="0" IVar="-1" Cut="0.0000000000000000e+00" cType="1" res="-2.1212081909179688e+00" rms="3.6640995025634766e+01" purity="1.0000000000000000e+00" nType="-99"/>
            </Node>
          </Node>
          <Node pos="r" depth="2" NCoef="0" IVar="0" Cut="9.6937438964843750e+01" cType="1" res="3.0543386936187744e-01" rms="3.8213626861572266e+01" purity="1.0000000000000000e+00" nType="0">
            <Node pos="l" depth="3" NCoef="0" IVar="0" Cut="8.3804199218750000e+01" cType="1" res="-4.5880184173583984e+00" rms="3.6560451507568359e+01" purity="1.0000000000000000e+00" nType="0">
              <Node pos="l" depth="4" NCoef="0" IVar="-1" Cut="0.0000000000000000e+00" cType="1" res="-1.7248752117156982e+00" rms="3.5618152618408203e+01" purity="1.0000000000000000e+00" nType="-99"/>
              <Node pos="r" depth="4" NCoef="0" IVar="-1" Cut="0.0000000000000000e+00" cType="1" res="-1.0982409715652466e+00" rms="3.6826705932617188e+01" purity="1.0000000000000000e+00" nType="-99"/>
            </Node>
            <Node pos="r" depth="3" NCoef="0" IVar="4" Cut="8.5702764987945557e-01" cType="1" res="7.1322889328002930e+00" rms="3.9404605865478516e+01" purity="1.0000000000000000e+00" nType="0">
              <Node pos="l" depth="4" NCoef="0" IVar="-1" Cut="0.0000000000000000e+00" cType="1" res="-1.0582580417394638e-01" rms="4.0172969818115234e+01" purity="1.0000000000000000e+00" nType="-99"/>
              <Node pos="r" depth="4" NCoef="0" IVar="-1" Cut="0.0000000000000000e+00" cType="1" res="-5.9375667572021484e-01" rms="3.8796222686767578e+01" purity="1.0000000000000000e+00" nType="-99"/>
            </Node>
          </Node>
        </Node>
        <Node pos="r" depth="1" NCoef="0" IVar="0" Cut="1.6141178894042969e+02" cType="1" res="3.3538555145263672e+01" rms="4.8613636016845703e+01" purity="1.0000000000000000e+00" nType="0">
          <Node pos="l" depth="2" NCoef="0" IVar="0" Cut="1.3447607421875000e+02" cType="1" res="2.2985006332397461e+01" rms="4.1318222045898438e+01" purity="1.0000000000000000e+00" nType="0">
            <Node pos="l" depth="3" NCoef="0" IVar="0" Cut="1.2515289306640625e+02" cType="1" res="1.6366529464721680e+01" rms="3.9288955688476562e+01" purity="1.0000000000000000e+00" nType="0">
              <Node pos="l" depth="4" NCoef="0" IVar="-1" Cut="0.0000000000000000e+00" cType="1" res="2.7904403209686279e-01" rms="3.8669132232666016e+01" purity="1.0000000000000000e+00" nType="-99"/>
              <Node pos="r" depth="4" NCoef="0" IVar="-1" Cut="0.0000000000000000e+00" cType="1" res="1.0645899772644043e+00" rms="3.9897533416748047e+01" purity="1.0000000000000000e+00" nType="-99"/>
            </Node>
            <Node pos="r" depth="3" NCoef="0" IVar="0" Cut="1.4473348999023438e+02" cType="1" res="3.2063217163085938e+01" rms="4.2297309875488281e+01" purity="1.0000000000000000e+00" nType="0">
              <Node pos="l" depth="4" NCoef="0" IVar="-1" Cut="0.0000000000000000e+00" cType="1" res="1.6445199251174927e+00" rms="4.1531291961669922e+01" purity="1.0000000000000000e+00" nType="-99"/>
              <Node pos="r" depth="4" NCoef="0" IVar="-1" Cut="0.0000000000000000e+00" cType="1" res="2.3055157661437988e+00" rms="4.2639987945556641e+01" purity="1.0000000000000000e+00" nType="-99"/>
            </Node>
          </Node>
          <Node pos="r" depth="2" NCoef="0" IVar="0" Cut="2.0793257141113281e+02" cType="1" res="5.0922801971435547e+01" rms="5.4390689849853516e+01" purity="1.0000000000000000e+00" nType="0">
            <Node pos="l" depth="3" NCoef="0" IVar="0" Cut="1.8567469787597656e+02" cType="1" res="4.5001815795898438e+01" rms="4.4029079437255859e+01" purity="1.0000000000000000e+00" nType="0">
              <Node pos="l" depth="4" NCoef="0" IVar="-1" Cut="0.0000000000000000e+00" cType="1" res="3.3776288032531738e+00" rms="4.0909515380859375e+01" purity="1.0000000000000000e+00" nType="-99"/>
              <Node pos="r" depth="4" NCoef="0" IVar="-1" Cut="0.0000000000000000e+00" cType="1" res="4.7331199645996094e+00" rms="4.8825160980224609e+01" purity="1.0000000000000000e+00" nType="-99"/>
            </Node>
            <Node pos="r" depth="3" NCoef="0" IVar="5" Cut="-2.8422706127166748e+00" cType="1" res="5.9562229156494141e+01" rms="6.5730850219726562e+01" purity="1.0000000000000000e+00" nType="0">
              <Node pos="l" depth="4" NCoef="0" IVar="-1" Cut="0.0000000000000000e+00" cType="1" res="8.1681327819824219e+00" rms="9.3423294067382812e+01" purity="1.0000000000000000e+00" nType="-99"/>
              <Node pos="r" depth="4" NCoef="0" IVar="-1" Cut="0.0000000000000000e+00" cType="1" res="8.0037174224853516e+00" rms="6.3450649261474609e+01" purity="1.0000000000000000e+00" nType="-99"/>
            </Node>
          </Node>
        </Node>
      </Node>
    </BinaryTree>
    <BinaryTree type="DecisionTree" boostWeight="1.0000000000000000e+00" itree="6">
      <Node pos="s" depth="0" NCoef="0" IVar="0" Cut="1.1233462524414062e+02" cType="1" res="7.6867437362670898e+00" rms="4.1666095733642578e+01" purity="1.0000000000000000e+00" nType="0">
        <Node pos="l" depth="1" NCoef="0" IVar="0" Cut="7.2768638610839844e+01" cType="1" res="-1.1248833656311035e+01" rms="3.1383029937744141e+01" purity="1.0000000000000000e+00" nType="0">
          <Node pos="l" depth="2" NCoef="0" IVar="0" Cut="4.5135494232177734e+01" cType="1" res="-2.4756601333618164e+01" rms="2.6318727493286133e+01" purity="1.0000000000000000e+00" nType="0">
            <Node pos="l" depth="3" NCoef="0" IVar="4" Cut="4.2838227748870850e-01" cType="1" res="-3.0270509719848633e+01" rms="2.2119823455810547e+01" purity="1.0000000000000000e+00" nType="0">
              <Node pos="l" depth="4" NCoef="0" IVar="-1" Cut="0.0000000000000000e+00" cType="1" res="-3.8641266822814941e+00" rms="2.5253282546997070e+01" purity="1.0000000000000000e+00" nType="-99"/>
              <Node pos="r" depth="4" NCoef="0" IVar="-1" Cut="0.0000000000000000e+00" cType="1" res="-4.2123241424560547e+00" rms="2.0830017089843750e+01" purity="1.0000000000000000e+00" nType="-99"/>
            </Node>
            <Node pos="r" depth="3" NCoef="0" IVar="0" Cut="6.0937397003173828e+01" cType="1" res="-2.0880834579467773e+01" rms="2.8270952224731445e+01" purity="1.0000000000000000e+00" nType="0">
              <Node pos="l" depth="4" NCoef="0" IVar="-1" Cut="0.0000000000000000e+00" cType="1" res="-2.8481073379516602e+00" rms="2.7029367446899414e+01" purity="1.0000000000000000e+00" nType="-99"/>
              <Node pos="r" depth="4" NCoef="0" IVar="-1" Cut="0.0000000000000000e+00" cType="1" res="-2.2313251495361328e+00" rms="2.9682300567626953e+01" purity="1.0000000000000000e+00" nType="-99"/>
            </Node>
          </Node>
          <Node pos="r" depth="2" NCoef="0" IVar="0" Cut="9.9151008605957031e+01" cType="1" res="-3.0482101440429688e+00" rms="3.1373233795166016e+01" purity="1.0000000000000000e+00" nType="0">
            <Node pos="l" depth="3" NCoef="0" IVar="0" Cut="8.7851417541503906e+01" cType="1" res="-6.8308835029602051e+00" rms="3.0696487426757812e+01" purity="1.0000000000000000e+00" nType="0">
              <Node pos="l" depth="4" NCoef="0" IVar="-1" Cut="0.0000000000000000e+00" cType="1" res="-1.5338803529739380e+00" rms="3.1043560028076172e+01" purity="1.0000000000000000e+00" nType="-99"/>
              <Node pos="r" depth="4" NCoef="0" IVar="-1" Cut="0.0000000000000000e+00" cType="1" res="-9.0885889530181885e-01" rms="3.0107948303222656e+01" purity="1.0000000000000000e+00" nType="-99"/>
            </Node>
            <Node pos="r" depth="3" NCoef="0" IVar="4" Cut="8.5700350999832153e-01" cType="1" res="3.2802629470825195e+00" rms="3.1473281860351562e+01" purity="1.0000000000000000e+00" nType="0">
              <Node pos="l" depth="4" NCoef="0" IVar="-1" Cut="0.0000000000000000e+00" cType="1" res="1.0996787808835506e-02" rms="3.2922748565673828e+01" purity="1.0000000000000000e+00" nType="-99"/>
              <Node pos="r" depth="4" NCoef="0" IVar="-1" Cut="0.0000000000000000e+00" cType="1" res="-4.8707294464111328e-01" rms="3.0262384414672852e+01" purity="1.0000000000000000e+00" nType="-99"/>
            </Node>
          </Node>
        </Node>
        <Node pos="r" depth="1" NCoef="0" IVar="0" Cut="1.6508831787109375e+02" cType="1" res="2.8065319061279297e+01" rms="4.1752952575683594e+01" purity="1.0000000000000000e+00" nType="0">
          <Node pos="l" depth="2" NCoef="0" IVar="0" Cut="1.4246223449707031e+02" cType="1" res="1.8975238800048828e+01" rms="3.4993495941162109e+01" purity="1.0000000000000000e+00" nType="0">
            <Node pos="l" depth="3" NCoef="0" IVar="0" Cut="1.2380937194824219e+02" cType="1" res="1.4699593544006348e+01" rms="3.4229080200195312e+01" purity="1.0000000000000000e+00" nType="0">
              <Node pos="l" depth="4" NCoef="0" IVar="-1" Cut="0.0000000000000000e+00" cType="1" res="2.9198232293128967e-01" rms="3.5299507141113281e+01" purity="1.0000000000000000e+00" nType="-99"/>
              <Node pos="r" depth="4" NCoef="0" IVar="-1" Cut="0.0000000000000000e+00" cType="1" res="1.0386713743209839e+00" rms="3.3062934875488281e+01" purity="1.0000000000000000e+00" nType="-99"/>
            </Node>
            <Node pos="r" depth="3" NCoef="0" IVar="5" Cut="2.8416073322296143e+00" cType="1" res="2.7873889923095703e+01" rms="3.4891826629638672e+01" purity="1.0000000000000000e+00" nType="0">
              <Node pos="l" depth="4" NCoef="0" IVar="-1" Cut="0.0000000000000000e+00" cType="1" res="2.0355875492095947e+00" rms="3.4062610626220703e+01" purity="1.0000000000000000e+00" nType="-99"/>
              <Node pos="r" depth="4" NCoef="0" IVar="-1" Cut="0.0000000000000000e+00" cType="1" res="2.5612115859985352e+00" rms="4.8140483856201172e+01" purity="1.0000000000000000e+00" nType="-99"/>
            </Node>
          </Node>
          <Node pos="r" depth="2" NCoef="0" IVar="0" Cut="2.3669409179687500e+02" cType="1" res="4.4150428771972656e+01" rms="4.7500835418701172e+01" purity="1.0000000000000000e+00" nType="0">
            <Node pos="l" depth="3" NCoef="0" IVar="0" Cut="1.8555358886718750e+02" cType="1" res="4.1538406372070312e+01" rms="4.1283092498779297e+01" purity="1.0000000000000000e+00" nType="0">
              <Node pos="l" depth="4" NCoef="0" IVar="-1" Cut="0.0000000000000000e+00" cType="1" res="3.2122113704681396e+00" rms="3.9806739807128906e+01" purity="1.0000000000000000e+00" nType="-99"/>
              <Node pos="r" depth="4" NCoef="0" IVar="-1" Cut="0.0000000000000000e+00" cType="1" res="4.6583890914916992e+00" rms="4.2164470672607422e+01" purity="1.0000000000000000e+00" nType="-99"/>
            </Node>
            <Node pos="r" depth="3" NCoef="0" IVar="2" Cut="1.3238212466239929e-01" cType="1" res="5.1689716339111328e+01" rms="6.1426216125488281e+01" purity="1.0000000000000000e+00" nType="0">
              <Node pos="l" depth="4" NCoef="0" IVar="-1" Cut="0.0000000000000000e+00" cType="1" res="9.3795251846313477e+00" rms="5.2617309570312500e+01" purity="1.0000000000000000e+00" nType="-99"/>
              <Node pos="r" depth="4" NCoef="0" IVar="-1" Cut="0.0000000000000000e+00" cType="1" res="9.2330751419067383e+00" rms="7.1633239746093750e+01" purity="1.0000000000000000e+00" nType="-99"/>
            </Node>
          </Node>
        </Node>
      </Node>
    </BinaryTree>
    <BinaryTree type="DecisionTree" boostWeight="1.0000000000000000e+00" itree="7">
      <Node pos="s" depth="0" NCoef="0" IVar="0" Cut="1.3198254394531250e+02" cType="1" res="4.6097927093505859e+00" rms="3.4445938110351562e+01" purity="1.0000000000000000e+00" nType="0">
        <Node pos="l" depth="1" NCoef="0" IVar="0" Cut="7.8656944274902344e+01" cType="1" res="-7.4287910461425781e+00" rms="2.8060178756713867e+01" purity="1.0000000000000000e+00" nType="0">
          <Node pos="l" depth="2" NCoef="0" IVar="0" Cut="5.0727310180664062e+01" cType="1" res="-2.3620206832885742e+01" rms="2.1501760482788086e+01" purity="1.0000000000000000e+00" nType="0">
            <Node pos="l" depth="3" NCoef="0" IVar="0" Cut="3.7559875488281250e+01" cType="1" res="-2.8407865524291992e+01" rms="1.8483448028564453e+01" purity="1.0000000000000000e+00" nType="0">
              <Node pos="l" depth="4" NCoef="0" IVar="-1" Cut="0.0000000000000000e+00" cType="1" res="-4.0404000282287598e+00" rms="1.6867805480957031e+01" purity="1.0000000000000000e+00" nType="-99"/>
              <Node pos="r" depth="4" NCoef="0" IVar="-1" Cut="0.0000000000000000e+00" cType="1" res="-2.9563856124877930e+00" rms="1.9632530212402344e+01" purity="1.0000000000000000e+00" nType="-99"/>
            </Node>
            <Node pos="r" depth="3" NCoef="0" IVar="0" Cut="6.8016891479492188e+01" cType="1" res="-1.9340856552124023e+01" rms="2.3052097320556641e+01" purity="1.0000000000000000e+00" nType="0">
              <Node pos="l" depth="4" NCoef="0" IVar="-1" Cut="0.0000000000000000e+00" cType="1" res="-2.4013381004333496e+00" rms="2.2187919616699219e+01" purity="1.0000000000000000e+00" nType="-99"/>
              <Node pos="r" depth="4" NCoef="0" IVar="-1" Cut="0.0000000000000000e+00" cType="1" res="-1.7557796239852905e+00" rms="2.3882631301879883e+01" purity="1.0000000000000000e+00" nType="-99"/>
            </Node>
          </Node>
          <Node pos="r" depth="2" NCoef="0" IVar="0" Cut="1.0405052947998047e+02" cType="1" res="4.2664942145347595e-01" rms="2.7498645782470703e+01" purity="1.0000000000000000e+00" nType="0">
            <Node pos="l" depth="3" NCoef="0" IVar="0" Cut="8.9541374206542969e+01" cType="1" res="-5.4441013336181641e+00" rms="2.6819450378417969e+01" purity="1.0000000000000000e+00" nType="0">
              <Node pos="l" depth="4" NCoef="0" IVar="-1" Cut="0.0000000000000000e+00" cType="1" res="-1.1873875856399536e+00" rms="2.6577455520629883e+01" purity="1.0000000000000000e+00" nType="-99"/>
              <Node pos="r" depth="4" NCoef="0" IVar="-1" Cut="0.0000000000000000e+00" cType="1" res="-6.7788618803024292e-01" rms="2.6738508224487305e+01" purity="1.0000000000000000e+00" nType="-99"/>
            </Node>
            <Node pos="r" depth="3" NCoef="0" IVar="0" Cut="1.1735227203369141e+02" cType="1" res="6.3770933151245117e+00" rms="2.6892890930175781e+01" purity="1.0000000000000000e+00" nType="0">
              <Node pos="l" depth="4" NCoef="0" IVar="-1" Cut="0.0000000000000000e+00" cType="1" res="-7.4255146086215973e-02" rms="2.6483739852905273e+01" purity="1.0000000000000000e+00" nType="-99"/>
              <Node pos="r" depth="4" NCoef="0" IVar="-1" Cut="0.0000000000000000e+00" cType="1" res="5.9847539663314819e-01" rms="2.6862634658813477e+01" purity="1.0000000000000000e+00" nType="-99"/>
            </Node>
          </Node>
        </Node>
        <Node pos="r" depth="1" NCoef="0" IVar="0" Cut="1.6397633361816406e+02" cType="1" res="2.8532188415527344e+01" rms="3.3457675933837891e+01" purity="1.0000000000000000e+00" nType="0">
          <Node pos="l" depth="2" NCoef="0" IVar="0" Cut="1.4568162536621094e+02" cType="1" res="1.9548913955688477e+01" rms="2.6852157592773438e+01" purity="1.0000000000000000e+00" nType="0">
            <Node pos="l" depth="3" NCoef="0" IVar="0" Cut="1.3589561462402344e+02" cType="1" res="1.5378304481506348e+01" rms="2.5795289993286133e+01" purity="1.0000000000000000e+00" nType="0">
              <Node pos="l" depth="4" NCoef="0" IVar="-1" Cut="0.0000000000000000e+00" cType="1" res="7.7768486738204956e-01" rms="2.5876754760742188e+01" purity="1.0000000000000000e+00" nType="-99"/>
              <Node pos="r" depth="4" NCoef="0" IVar="-1" Cut="0.0000000000000000e+00" cType="1" res="1.3259612321853638e+00" rms="2.5610046386718750e+01" purity="1.0000000000000000e+00" nType="-99"/>
            </Node>
            <Node pos="r" depth="3" NCoef="0" IVar="0" Cut="1.5525135803222656e+02" cType="1" res="2.3423461914062500e+01" rms="2.7231571197509766e+01" purity="1.0000000000000000e+00" nType="0">
              <Node pos="l" depth="4" NCoef="0" IVar="-1" Cut="0.0000000000000000e+00" cType="1" res="1.7665524482727051e+00" rms="2.7057157516479492e+01" purity="1.0000000000000000e+00" nType="-99"/>
              <Node pos="r" depth="4" NCoef="0" IVar="-1" Cut="0.0000000000000000e+00" cType="1" res="2.1838734149932861e+00" rms="2.7305482864379883e+01" purity="1.0000000000000000e+00" nType="-99"/>
            </Node>
          </Node>
          <Node pos="r" depth="2" NCoef="0" IVar="0" Cut="2.2492633056640625e+02" cType="1" res="3.5989837646484375e+01" rms="3.6435245513916016e+01" purity="1.0000000000000000e+00" nType="0">
            <Node pos="l" depth="3" NCoef="0" IVar="0" Cut="1.7849566650390625e+02" cType="1" res="3.2762584686279297e+01" rms="2.9322271347045898e+01" purity="1.0000000000000000e+00" nType="0">
              <Node pos="l" depth="4" NCoef="0" IVar="-1" Cut="0.0000000000000000e+00" cType="1" res="2.6682865619659424e+00" rms="2.6891622543334961e+01" purity="1.0000000000000000e+00" nType="-99"/>
              <Node pos="r" depth="4" NCoef="0" IVar="-1" Cut="0.0000000000000000e+00" cType="1" res="3.7305343151092529e+00" rms="3.0261068344116211e+01" purity="1.0000000000000000e+00" nType="-99"/>
            </Node>
            <Node pos="r" depth="3" NCoef="0" IVar="5" Cut="-1.9457688331604004e+00" cType="1" res="4.3222381591796875e+01" rms="4.7959369659423828e+01" purity="1.0000000000000000e+00" nType="0">
              <Node pos="l" depth="4" NCoef="0" IVar="-1" Cut="0.0000000000000000e+00" cType="1" res="7.1849722862243652e+00" rms="6.2081558227539062e+01" purity="1.0000000000000000e+00" nType="-99"/>
              <Node pos="r" depth="4" NCoef="0" IVar="-1" Cut="0.0000000000000000e+00" cType="1" res="7.4630846977233887e+00" rms="4.3234710693359375e+01" purity="1.0000000000000000e+00" nType="-99"/>
            </Node>
          </Node>
        </Node>
      </Node>
    </BinaryTree>
    <BinaryTree type="DecisionTree" boostWeight="1.0000000000000000e+00" itree="8">
      <Node pos="s" depth="0" NCoef="0" IVar="0" Cut="1.1232257080078125e+02" cType="1" res="2.9195654392242432e+00" rms="3.0537384033203125e+01" purity="1.0000000000000000e+00" nType="0">
        <Node pos="l" depth="1" NCoef="0" IVar="0" Cut="6.8359214782714844e+01" cType="1" res="-1.2082653999328613e+01" rms="2.3632324218750000e+01" purity="1.0000000000000000e+00" nType="0">
          <Node pos="l" depth="2" NCoef="0" IVar="0" Cut="4.0720172882080078e+01" cType="1" res="-2.4261089324951172e+01" rms="1.8399946212768555e+01" purity="1.0000000000000000e+00" nType="0">
            <Node pos="l" depth="3" NCoef="0" IVar="4" Cut="2.8550919890403748e-01" cType="1" res="-2.8365095138549805e+01" rms="1.4425303459167480e+01" purity="1.0000000000000000e+00" nType="0">
              <Node pos="l" depth="4" NCoef="0" IVar="-1" Cut="0.0000000000000000e+00" cType="1" res="-3.4379003047943115e+00" rms="1.7268802642822266e+01" purity="1.0000000000000000e+00" nType="-99"/>
              <Node pos="r" depth="4" NCoef="0" IVar="-1" Cut="0.0000000000000000e+00" cType="1" res="-3.5259306430816650e+00" rms="1.3377764701843262e+01" purity="1.0000000000000000e+00" nType="-99"/>
            </Node>
            <Node pos="r" depth="3" NCoef="0" IVar="4" Cut="8.5691720247268677e-01" cType="1" res="-2.1895853042602539e+01" rms="1.9961187362670898e+01" purity="1.0000000000000000e+00" nType="0">
              <Node pos="l" depth="4" NCoef="0" IVar="-1" Cut="0.0000000000000000e+00" cType="1" res="-2.0974812507629395e+00" rms="2.2465675354003906e+01" purity="1.0000000000000000e+00" nType="-99"/>
              <Node pos="r" depth="4" NCoef="0" IVar="-1" Cut="0.0000000000000000e+00" cType="1" res="-2.5568134784698486e+00" rms="1.7572225570678711e+01" purity="1.0000000000000000e+00" nType="-99"/>
            </Node>
          </Node>
          <Node pos="r" depth="2" NCoef="0" IVar="0" Cut="9.1400596618652344e+01" cType="1" res="-5.7920370101928711e+00" rms="2.3577667236328125e+01" purity="1.0000000000000000e+00" nType="0">
            <Node pos="l" depth="3" NCoef="0" IVar="4" Cut="8.5697340965270996e-01" cType="1" res="-1.0839691162109375e+01" rms="2.2278478622436523e+01" purity="1.0000000000000000e+00" nType="0">
              <Node pos="l" depth="4" NCoef="0" IVar="-1" Cut="0.0000000000000000e+00" cType="1" res="-9.7154521942138672e-01" rms="2.3503425598144531e+01" purity="1.0000000000000000e+00" nType="-99"/>
              <Node pos="r" depth="4" NCoef="0" IVar="-1" Cut="0.0000000000000000e+00" cType="1" res="-1.3904491662979126e+00" rms="2.1276912689208984e+01" purity="1.0000000000000000e+00" nType="-99"/>
            </Node>
            <Node pos="r" depth="3" NCoef="0" IVar="0" Cut="1.0235932922363281e+02" cType="1" res="-2.0616292953491211e+00" rms="2.3815736770629883e+01" purity="1.0000000000000000e+00" nType="0">
              <Node pos="l" depth="4" NCoef="0" IVar="-1" Cut="0.0000000000000000e+00" cType="1" res="-6.8459951877593994e-01" rms="2.2588455200195312e+01" purity="1.0000000000000000e+00" nType="-99"/>
              <Node pos="r" depth="4" NCoef="0" IVar="-1" Cut="0.0000000000000000e+00" cType="1" res="-2.0442207157611847e-01" rms="2.4842941284179688e+01" purity="1.0000000000000000e+00" nType="-99"/>
            </Node>
          </Node>
        </Node>
        <Node pos="r" depth="1" NCoef="0" IVar="0" Cut="1.6507789611816406e+02" cType="1" res="1.9186477661132812e+01" rms="2.8800291061401367e+01" purity="1.0000000000000000e+00" nType="0">
          <Node pos="l" depth="2" NCoef="0" IVar="0" Cut="1.3492375183105469e+02" cType="1" res="1.2134588241577148e+01" rms="2.5288818359375000e+01" purity="1.0000000000000000e+00" nType="0">
            <Node pos="l" depth="3" NCoef="0" IVar="0" Cut="1.2738969421386719e+02" cType="1" res="6.7748236656188965e+00" rms="2.3340740203857422e+01" purity="1.0000000000000000e+00" nType="0">
              <Node pos="l" depth="4" NCoef="0" IVar="-1" Cut="0.0000000000000000e+00" cType="1" res="2.4297958612442017e-01" rms="2.2266773223876953e+01" purity="1.0000000000000000e+00" nType="-99"/>
              <Node pos="r" depth="4" NCoef="0" IVar="-1" Cut="0.0000000000000000e+00" cType="1" res="8.4912729263305664e-01" rms="2.5174552917480469e+01" purity="1.0000000000000000e+00" nType="-99"/>
            </Node>
            <Node pos="r" depth="3" NCoef="0" IVar="0" Cut="1.4784074401855469e+02" cType="1" res="1.8435644149780273e+01" rms="2.6027303695678711e+01" purity="1.0000000000000000e+00" nType="0">
              <Node pos="l" depth="4" NCoef="0" IVar="-1" Cut="0.0000000000000000e+00" cType="1" res="1.2523308992385864e+00" rms="2.3813112258911133e+01" purity="1.0000000000000000e+00" nType="-99"/>
              <Node pos="r" depth="4" NCoef="0" IVar="-1" Cut="0.0000000000000000e+00" cType="1" res="1.7185536623001099e+00" rms="2.7629104614257812e+01" purity="1.0000000000000000e+00" nType="-99"/>
            </Node>
          </Node>
          <Node pos="r" depth="2" NCoef="0" IVar="0" Cut="1.8896234130859375e+02" cType="1" res="3.1633668899536133e+01" rms="3.0364368438720703e+01" purity="1.0000000000000000e+00" nType="0">
            <Node pos="l" depth="3" NCoef="0" IVar="0" Cut="1.7190925598144531e+02" cType="1" res="2.6549133300781250e+01" rms="2.7171794891357422e+01" purity="1.0000000000000000e+00" nType="0">
              <Node pos="l" depth="4" NCoef="0" IVar="-1" Cut="0.0000000000000000e+00" cType="1" res="2.0436699390411377e+00" rms="2.6623458862304688e+01" purity="1.0000000000000000e+00" nType="-99"/>
              <Node pos="r" depth="4" NCoef="0" IVar="-1" Cut="0.0000000000000000e+00" cType="1" res="2.7140939235687256e+00" rms="2.7228162765502930e+01" purity="1.0000000000000000e+00" nType="-99"/>
            </Node>
            <Node pos="r" depth="3" NCoef="0" IVar="0" Cut="2.3444956970214844e+02" cType="1" res="3.4484210968017578e+01" rms="3.1660020828247070e+01" purity="1.0000000000000000e+00" nType="0">
              <Node pos="l" depth="4" NCoef="0" IVar="-1" Cut="0.0000000000000000e+00" cType="1" res="3.6471385955810547e+00" rms="2.9739061355590820e+01" purity="1.0000000000000000e+00" nType="-99"/>
              <Node pos="r" depth="4" NCoef="0" IVar="-1" Cut="0.0000000000000000e+00" cType="1" res="7.5209007263183594e+00" rms="3.3855018615722656e+01" purity="1.0000000000000000e+00" nType="-99"/>
            </Node>
          </Node>
        </Node>
      </Node>
    </BinaryTree>
    <BinaryTree type="DecisionTree" boostWeight="1.0000000000000000e+00" itree="9">
      <Node pos="s" depth="0" NCoef="0" IVar="0" Cut="1.1232700347900391e+02" cType="1" res="1.8568601608276367e+00" rms="2.6499666213989258e+01" purity="1.0000000000000000e+00" nType="0">
        <Node pos="l" depth="1" NCoef="0" IVar="0" Cut="6.8364837646484375e+01" cType="1" res="-1.1230599403381348e+01" rms="2.1474920272827148e+01" purity="1.0000000000000000e+00" nType="0">
          <Node pos="l" depth="2" NCoef="0" IVar="0" Cut="5.2229404449462891e+01" cType="1" res="-2.2397411346435547e+01" rms="1.6839359283447266e+01" purity="1.0000000000000000e+00" nType="0">
            <Node pos="l" depth="3" NCoef="0" IVar="0" Cut="2.6141895294189453e+01" cType="1" res="-2.4724536895751953e+01" rms="1.4759376525878906e+01" purity="1.0000000000000000e+00" nType="0">
              <Node pos="l" depth="4" NCoef="0" IVar="-1" Cut="0.0000000000000000e+00" cType="1" res="-3.9886896610260010e+00" rms="1.1749412536621094e+01" purity="1.0000000000000000e+00" nType="-99"/>
              <Node pos="r" depth="4" NCoef="0" IVar="-1" Cut="0.0000000000000000e+00" cType="1" res="-2.6740572452545166e+00" rms="1.5075886726379395e+01" purity="1.0000000000000000e+00" nType="-99"/>
            </Node>
            <Node pos="r" depth="3" NCoef="0" IVar="4" Cut="8.5703796148300171e-01" cType="1" res="-1.8258335113525391e+01" rms="1.9331312179565430e+01" purity="1.0000000000000000e+00" nType="0">
              <Node pos="l" depth="4" NCoef="0" IVar="-1" Cut="0.0000000000000000e+00" cType="1" res="-1.6186326742172241e+00" rms="1.9999021530151367e+01" purity="1.0000000000000000e+00" nType="-99"/>
              <Node pos="r" depth="4" NCoef="0" IVar="-1" Cut="0.0000000000000000e+00" cType="1" res="-2.1615219116210938e+00" rms="1.8534111022949219e+01" purity="1.0000000000000000e+00" nType="-99"/>
            </Node>
          </Node>
          <Node pos="r" depth="2" NCoef="0" IVar="0" Cut="9.3496208190917969e+01" cType="1" res="-5.4244012832641602e+00" rms="2.1330051422119141e+01" purity="1.0000000000000000e+00" nType="0">
            <Node pos="l" depth="3" NCoef="0" IVar="0" Cut="8.0344657897949219e+01" cType="1" res="-9.5992994308471680e+00" rms="2.0593851089477539e+01" purity="1.0000000000000000e+00" nType="0">
              <Node pos="l" depth="4" NCoef="0" IVar="-1" Cut="0.0000000000000000e+00" cType="1" res="-1.4244464635848999e+00" rms="2.1047628402709961e+01" purity="1.0000000000000000e+00" nType="-99"/>
              <Node pos="r" depth="4" NCoef="0" IVar="-1" Cut="0.0000000000000000e+00" cType="1" res="-9.1476166248321533e-01" rms="2.0227159500122070e+01" purity="1.0000000000000000e+00" nType="-99"/>
            </Node>
            <Node pos="r" depth="3" NCoef="0" IVar="0" Cut="1.0426174926757812e+02" cType="1" res="-1.5730310678482056e+00" rms="2.1272789001464844e+01" purity="1.0000000000000000e+00" nType="0">
              <Node pos="l" depth="4" NCoef="0" IVar="-1" Cut="0.0000000000000000e+00" cType="1" res="-4.6275413036346436e-01" rms="2.0904197692871094e+01" purity="1.0000000000000000e+00" nType="-99"/>
              <Node pos="r" depth="4" NCoef="0" IVar="-1" Cut="0.0000000000000000e+00" cType="1" res="-1.1367756128311157e-01" rms="2.1563491821289062e+01" purity="1.0000000000000000e+00" nType="-99"/>
            </Node>
          </Node>
        </Node>
        <Node pos="r" depth="1" NCoef="0" IVar="0" Cut="1.6508712768554688e+02" cType="1" res="1.5969031333923340e+01" rms="2.4048303604125977e+01" purity="1.0000000000000000e+00" nType="0">
          <Node pos="l" depth="2" NCoef="0" IVar="0" Cut="1.3492958068847656e+02" cType="1" res="9.6010608673095703e+00" rms="2.1275463104248047e+01" purity="1.0000000000000000e+00" nType="0">
            <Node pos="l" depth="3" NCoef="0" IVar="0" Cut="1.2523850250244141e+02" cType="1" res="5.2527260780334473e+00" rms="2.0603929519653320e+01" purity="1.0000000000000000e+00" nType="0">
              <Node pos="l" depth="4" NCoef="0" IVar="-1" Cut="0.0000000000000000e+00" cType="1" res="1.4402531087398529e-01" rms="2.0369390487670898e+01" purity="1.0000000000000000e+00" nType="-99"/>
              <Node pos="r" depth="4" NCoef="0" IVar="-1" Cut="0.0000000000000000e+00" cType="1" res="6.3116091489791870e-01" rms="2.0658758163452148e+01" purity="1.0000000000000000e+00" nType="-99"/>
            </Node>
            <Node pos="r" depth="3" NCoef="0" IVar="0" Cut="1.4927767944335938e+02" cType="1" res="1.4796725273132324e+01" rms="2.0896448135375977e+01" purity="1.0000000000000000e+00" nType="0">
              <Node pos="l" depth="4" NCoef="0" IVar="-1" Cut="0.0000000000000000e+00" cType="1" res="1.0823050737380981e+00" rms="2.0243478775024414e+01" purity="1.0000000000000000e+00" nType="-99"/>
              <Node pos="r" depth="4" NCoef="0" IVar="-1" Cut="0.0000000000000000e+00" cType="1" res="1.5792431831359863e+00" rms="2.1293983459472656e+01" purity="1.0000000000000000e+00" nType="-99"/>
            </Node>
          </Node>
          <Node pos="r" depth="2" NCoef="0" IVar="0" Cut="1.8896586608886719e+02" cType="1" res="2.7296522140502930e+01" rms="2.4524078369140625e+01" purity="1.0000000000000000e+00" nType="0">
            <Node pos="l" depth="3" NCoef="0" IVar="0" Cut="1.8326213073730469e+02" cType="1" res="2.3090961456298828e+01" rms="2.1723421096801758e+01" purity="1.0000000000000000e+00" nType="0">
              <Node pos="l" depth="4" NCoef="0" IVar="-1" Cut="0.0000000000000000e+00" cType="1" res="2.2046496868133545e+00" rms="1.9972595214843750e+01" purity="1.0000000000000000e+00" nType="-99"/>
              <Node pos="r" depth="4" NCoef="0" IVar="-1" Cut="0.0000000000000000e+00" cType="1" res="2.6499717235565186e+00" rms="2.6929512023925781e+01" purity="1.0000000000000000e+00" nType="-99"/>
            </Node>
            <Node pos="r" depth="3" NCoef="0" IVar="0" Cut="2.3444227600097656e+02" cType="1" res="2.9780227661132812e+01" rms="2.5715942382812500e+01" purity="1.0000000000000000e+00" nType="0">
              <Node pos="l" depth="4" NCoef="0" IVar="-1" Cut="0.0000000000000000e+00" cType="1" res="3.3049998283386230e+00" rms="2.1095130920410156e+01" purity="1.0000000000000000e+00" nType="-99"/>
              <Node pos="r" depth="4" NCoef="0" IVar="-1" Cut="0.0000000000000000e+00" cType="1" res="6.5458903312683105e+00" rms="3.0588785171508789e+01" purity="1.0000000000000000e+00" nType="-99"/>
            </Node>
          </Node>
        </Node>
      </Node>
    </BinaryTree>
    <BinaryTree type="DecisionTree" boostWeight="1.0000000000000000e+00" itree="10">
      <Node pos="s" depth="0" NCoef="0" IVar="0" Cut="1.3201329040527344e+02" cType="1" res="1.0464221239089966e+00" rms="2.3855031967163086e+01" purity="1.0000000000000000e+00" nType="0">
        <Node pos="l" depth="1" NCoef="0" IVar="0" Cut="8.9357192993164062e+01" cType="1" res="-7.5116844177246094e+00" rms="2.0604888916015625e+01" purity="1.0000000000000000e+00" nType="0">
          <Node pos="l" depth="2" NCoef="0" IVar="0" Cut="6.2934558868408203e+01" cType="1" res="-1.6357540130615234e+01" rms="1.7948087692260742e+01" purity="1.0000000000000000e+00" nType="0">
            <Node pos="l" depth="3" NCoef="0" IVar="0" Cut="4.0462863922119141e+01" cType="1" res="-2.1359024047851562e+01" rms="1.5664123535156250e+01" purity="1.0000000000000000e+00" nType="0">
              <Node pos="l" depth="4" NCoef="0" IVar="-1" Cut="0.0000000000000000e+00" cType="1" res="-2.8767044544219971e+00" rms="1.3884888648986816e+01" purity="1.0000000000000000e+00" nType="-99"/>
              <Node pos="r" depth="4" NCoef="0" IVar="-1" Cut="0.0000000000000000e+00" cType="1" res="-2.0262641906738281e+00" rms="1.6471120834350586e+01" purity="1.0000000000000000e+00" nType="-99"/>
            </Node>
            <Node pos="r" depth="3" NCoef="0" IVar="0" Cut="7.1734710693359375e+01" cType="1" res="-1.1137219429016113e+01" rms="1.8678888320922852e+01" purity="1.0000000000000000e+00" nType="0">
              <Node pos="l" depth="4" NCoef="0" IVar="-1" Cut="0.0000000000000000e+00" cType="1" res="-1.5359655618667603e+00" rms="1.8210622787475586e+01" purity="1.0000000000000000e+00" nType="-99"/>
              <Node pos="r" depth="4" NCoef="0" IVar="-1" Cut="0.0000000000000000e+00" cType="1" res="-1.0771812200546265e+00" rms="1.8674077987670898e+01" purity="1.0000000000000000e+00" nType="-99"/>
            </Node>
          </Node>
          <Node pos="r" depth="2" NCoef="0" IVar="0" Cut="1.0764390563964844e+02" cType="1" res="-1.5171554684638977e-01" rms="1.9761310577392578e+01" purity="1.0000000000000000e+00" nType="0">
            <Node pos="l" depth="3" NCoef="0" IVar="4" Cut="8.5702764987945557e-01" cType="1" res="-4.2455778121948242e+00" rms="1.9010179519653320e+01" purity="1.0000000000000000e+00" nType="0">
              <Node pos="l" depth="4" NCoef="0" IVar="-1" Cut="0.0000000000000000e+00" cType="1" res="-2.4375829100608826e-01" rms="1.9608463287353516e+01" purity="1.0000000000000000e+00" nType="-99"/>
              <Node pos="r" depth="4" NCoef="0" IVar="-1" Cut="0.0000000000000000e+00" cType="1" res="-6.9071865081787109e-01" rms="1.8430330276489258e+01" purity="1.0000000000000000e+00" nType="-99"/>
            </Node>
            <Node pos="r" depth="3" NCoef="0" IVar="0" Cut="1.2505344390869141e+02" cType="1" res="3.5923595428466797e+00" rms="1.9692581176757812e+01" purity="1.0000000000000000e+00" nType="0">
              <Node pos="l" depth="4" NCoef="0" IVar="-1" Cut="0.0000000000000000e+00" cType="1" res="1.0173720866441727e-01" rms="1.9125143051147461e+01" purity="1.0000000000000000e+00" nType="-99"/>
              <Node pos="r" depth="4" NCoef="0" IVar="-1" Cut="0.0000000000000000e+00" cType="1" res="5.8120423555374146e-01" rms="2.0933511734008789e+01" purity="1.0000000000000000e+00" nType="-99"/>
            </Node>
          </Node>
        </Node>
        <Node pos="r" depth="1" NCoef="0" IVar="0" Cut="1.6401327514648438e+02" cType="1" res="1.8325216293334961e+01" rms="2.0356307983398438e+01" purity="1.0000000000000000e+00" nType="0">
          <Node pos="l" depth="2" NCoef="0" IVar="0" Cut="1.4877804565429688e+02" cType="1" res="1.1712030410766602e+01" rms="1.8888124465942383e+01" purity="1.0000000000000000e+00" nType="0">
            <Node pos="l" depth="3" NCoef="0" IVar="0" Cut="1.3600817871093750e+02" cType="1" res="9.8350172042846680e+00" rms="1.9390985488891602e+01" purity="1.0000000000000000e+00" nType="0">
              <Node pos="l" depth="4" NCoef="0" IVar="-1" Cut="0.0000000000000000e+00" cType="1" res="5.6073731184005737e-01" rms="1.8904575347900391e+01" purity="1.0000000000000000e+00" nType="-99"/>
              <Node pos="r" depth="4" NCoef="0" IVar="-1" Cut="0.0000000000000000e+00" cType="1" res="9.0597158670425415e-01" rms="1.9480010986328125e+01" purity="1.0000000000000000e+00" nType="-99"/>
            </Node>
            <Node pos="r" depth="3" NCoef="0" IVar="4" Cut="8.5701727867126465e-01" cType="1" res="1.4440893173217773e+01" rms="1.7782222747802734e+01" purity="1.0000000000000000e+00" nType="0">
              <Node pos="l" depth="4" NCoef="0" IVar="-1" Cut="0.0000000000000000e+00" cType="1" res="1.7583395242691040e+00" rms="1.8753215789794922e+01" purity="1.0000000000000000e+00" nType="-99"/>
              <Node pos="r" depth="4" NCoef="0" IVar="-1" Cut="0.0000000000000000e+00" cType="1" res="1.1696870326995850e+00" rms="1.6910188674926758e+01" purity="1.0000000000000000e+00" nType="-99"/>
            </Node>
          </Node>
          <Node pos="r" depth="2" NCoef="0" IVar="0" Cut="1.9448219299316406e+02" cType="1" res="2.4022432327270508e+01" rms="1.9846458435058594e+01" purity="1.0000000000000000e+00" nType="0">
            <Node pos="l" depth="3" NCoef="0" IVar="0" Cut="1.7416380310058594e+02" cType="1" res="2.0951890945434570e+01" rms="1.9725517272949219e+01" purity="1.0000000000000000e+00" nType="0">
              <Node pos="l" depth="4" NCoef="0" IVar="-1" Cut="0.0000000000000000e+00" cType="1" res="1.7758167982101440e+00" rms="1.9101377487182617e+01" purity="1.0000000000000000e+00" nType="-99"/>
              <Node pos="r" depth="4" NCoef="0" IVar="-1" Cut="0.0000000000000000e+00" cType="1" res="2.4884693622589111e+00" rms="1.9899808883666992e+01" purity="1.0000000000000000e+00" nType="-99"/>
            </Node>
            <Node pos="r" depth="3" NCoef="0" IVar="0" Cut="2.2350288391113281e+02" cType="1" res="2.6457015991210938e+01" rms="1.9602903366088867e+01" purity="1.0000000000000000e+00" nType="0">
              <Node pos="l" depth="4" NCoef="0" IVar="-1" Cut="0.0000000000000000e+00" cType="1" res="2.7968571186065674e+00" rms="1.8491453170776367e+01" purity="1.0000000000000000e+00" nType="-99"/>
              <Node pos="r" depth="4" NCoef="0" IVar="-1" Cut="0.0000000000000000e+00" cType="1" res="5.2271041870117188e+00" rms="2.0169471740722656e+01" purity="1.0000000000000000e+00" nType="-99"/>
            </Node>
          </Node>
        </Node>
      </Node>
    </BinaryTree>
    <BinaryTree type="DecisionTree" boostWeight="1.0000000000000000e+00" itree="11">
      <Node pos="s" depth="0" NCoef="0" IVar="0" Cut="1.3198358154296875e+02" cType="1" res="9.7562921047210693e-01" rms="2.2144554138183594e+01" purity="1.0000000000000000e+00" nType="0">
        <Node pos="l" depth="1" NCoef="0" IVar="0" Cut="7.3327857971191406e+01" cType="1" res="-6.6850523948669434e+00" rms="1.9194696426391602e+01" purity="1.0000000000000000e+00" nType="0">
          <Node pos="l" depth="2" NCoef="0" IVar="0" Cut="4.7935394287109375e+01" cType="1" res="-1.8215629577636719e+01" rms="1.5598705291748047e+01" purity="1.0000000000000000e+00" nType="0">
            <Node pos="l" depth="3" NCoef="0" IVar="0" Cut="3.7291919708251953e+01" cType="1" res="-2.1321268081665039e+01" rms="1.3710082054138184e+01" purity="1.0000000000000000e+00" nType="0">
              <Node pos="l" depth="4" NCoef="0" IVar="-1" Cut="0.0000000000000000e+00" cType="1" res="-2.6915912628173828e+00" rms="1.2549528121948242e+01" purity="1.0000000000000000e+00" nType="-99"/>
              <Node pos="r" depth="4" NCoef="0" IVar="-1" Cut="0.0000000000000000e+00" cType="1" res="-2.0873353481292725e+00" rms="1.4710929870605469e+01" purity="1.0000000000000000e+00" nType="-99"/>
            </Node>
            <Node pos="r" depth="3" NCoef="0" IVar="4" Cut="8.5698372125625610e-01" cType="1" res="-1.5314938545227051e+01" rms="1.6661256790161133e+01" purity="1.0000000000000000e+00" nType="0">
              <Node pos="l" depth="4" NCoef="0" IVar="-1" Cut="0.0000000000000000e+00" cType="1" res="-1.3091614246368408e+00" rms="1.8265430450439453e+01" purity="1.0000000000000000e+00" nType="-99"/>
              <Node pos="r" depth="4" NCoef="0" IVar="-1" Cut="0.0000000000000000e+00" cType="1" res="-1.7115036249160767e+00" rms="1.5334942817687988e+01" purity="1.0000000000000000e+00" nType="-99"/>
            </Node>
          </Node>
          <Node pos="r" depth="2" NCoef="0" IVar="0" Cut="1.0125888061523438e+02" cType="1" res="-1.9913015365600586e+00" rms="1.8526054382324219e+01" purity="1.0000000000000000e+00" nType="0">
            <Node pos="l" depth="3" NCoef="0" IVar="4" Cut="8.5696911811828613e-01" cType="1" res="-6.2984995841979980e+00" rms="1.8175819396972656e+01" purity="1.0000000000000000e+00" nType="0">
              <Node pos="l" depth="4" NCoef="0" IVar="-1" Cut="0.0000000000000000e+00" cType="1" res="-4.5856079459190369e-01" rms="1.8973653793334961e+01" purity="1.0000000000000000e+00" nType="-99"/>
              <Node pos="r" depth="4" NCoef="0" IVar="-1" Cut="0.0000000000000000e+00" cType="1" res="-8.3781254291534424e-01" rms="1.7512332916259766e+01" purity="1.0000000000000000e+00" nType="-99"/>
            </Node>
            <Node pos="r" depth="3" NCoef="0" IVar="0" Cut="1.1881637573242188e+02" cType="1" res="1.9503453969955444e+00" rms="1.7957283020019531e+01" purity="1.0000000000000000e+00" nType="0">
              <Node pos="l" depth="4" NCoef="0" IVar="-1" Cut="0.0000000000000000e+00" cType="1" res="-7.6200455427169800e-02" rms="1.7229175567626953e+01" purity="1.0000000000000000e+00" nType="-99"/>
              <Node pos="r" depth="4" NCoef="0" IVar="-1" Cut="0.0000000000000000e+00" cType="1" res="4.1327095031738281e-01" rms="1.8616357803344727e+01" purity="1.0000000000000000e+00" nType="-99"/>
            </Node>
          </Node>
        </Node>
        <Node pos="r" depth="1" NCoef="0" IVar="0" Cut="1.6397743225097656e+02" cType="1" res="1.6569017410278320e+01" rms="1.9390499114990234e+01" purity="1.0000000000000000e+00" nType="0">
          <Node pos="l" depth="2" NCoef="0" IVar="4" Cut="8.5701280832290649e-01" cType="1" res="1.1300449371337891e+01" rms="1.9239070892333984e+01" purity="1.0000000000000000e+00" nType="0">
            <Node pos="l" depth="3" NCoef="0" IVar="1" Cut="4.5382046508789062e+02" cType="1" res="1.3868506431579590e+01" rms="2.1050970077514648e+01" purity="1.0000000000000000e+00" nType="0">
              <Node pos="l" depth="4" NCoef="0" IVar="-1" Cut="0.0000000000000000e+00" cType="1" res="1.4425543546676636e+00" rms="2.1017459869384766e+01" purity="1.0000000000000000e+00" nType="-99"/>
              <Node pos="r" depth="4" NCoef="0" IVar="-1" Cut="0.0000000000000000e+00" cType="1" res="5.5337804555892944e-01" rms="1.9954324722290039e+01" purity="1.0000000000000000e+00" nType="-99"/>
            </Node>
            <Node pos="r" depth="3" NCoef="0" IVar="0" Cut="1.5178713989257812e+02" cType="1" res="9.5966901779174805e+00" rms="1.7732213973999023e+01" purity="1.0000000000000000e+00" nType="0">
              <Node pos="l" depth="4" NCoef="0" IVar="-1" Cut="0.0000000000000000e+00" cType="1" res="6.9804263114929199e-01" rms="1.6477991104125977e+01" purity="1.0000000000000000e+00" nType="-99"/>
              <Node pos="r" depth="4" NCoef="0" IVar="-1" Cut="0.0000000000000000e+00" cType="1" res="1.1659085750579834e+00" rms="1.9802412033081055e+01" purity="1.0000000000000000e+00" nType="-99"/>
            </Node>
          </Node>
          <Node pos="r" depth="2" NCoef="0" IVar="0" Cut="1.9445697021484375e+02" cType="1" res="2.1005924224853516e+01" rms="1.8380844116210938e+01" purity="1.0000000000000000e+00" nType="0">
            <Node pos="l" depth="3" NCoef="0" IVar="0" Cut="1.7122801208496094e+02" cType="1" res="1.7459360122680664e+01" rms="1.6457561492919922e+01" purity="1.0000000000000000e+00" nType="0">
              <Node pos="l" depth="4" NCoef="0" IVar="-1" Cut="0.0000000000000000e+00" cType="1" res="1.4657312631607056e+00" rms="1.4424067497253418e+01" purity="1.0000000000000000e+00" nType="-99"/>
              <Node pos="r" depth="4" NCoef="0" IVar="-1" Cut="0.0000000000000000e+00" cType="1" res="2.0784945487976074e+00" rms="1.6992900848388672e+01" purity="1.0000000000000000e+00" nType="-99"/>
            </Node>
            <Node pos="r" depth="3" NCoef="0" IVar="0" Cut="2.5253388977050781e+02" cType="1" res="2.3680162429809570e+01" rms="1.9280637741088867e+01" purity="1.0000000000000000e+00" nType="0">
              <Node pos="l" depth="4" NCoef="0" IVar="-1" Cut="0.0000000000000000e+00" cType="1" res="2.6361021995544434e+00" rms="1.8290271759033203e+01" purity="1.0000000000000000e+00" nType="-99"/>
              <Node pos="r" depth="4" NCoef="0" IVar="-1" Cut="0.0000000000000000e+00" cType="1" res="6.6524910926818848e+00" rms="2.0801376342773438e+01" purity="1.0000000000000000e+00" nType="-99"/>
            </Node>
          </Node>
        </Node>
      </Node>
    </BinaryTree>
    <BinaryTree type="DecisionTree" boostWeight="1.0000000000000000e+00" itree="12">
      <Node pos="s" depth="0" NCoef="0" IVar="0" Cut="1.3198254394531250e+02" cType="1" res="3.9497435092926025e-01" rms="2.0212272644042969e+01" purity="1.0000000000000000e+00" nType="0">
        <Node pos="l" depth="1" NCoef="0" IVar="0" Cut="7.8655029296875000e+01" cType="1" res="-6.4092831611633301e+00" rms="1.8242301940917969e+01" purity="1.0000000000000000e+00" nType="0">
          <Node pos="l" depth="2" NCoef="0" IVar="0" Cut="4.7930732727050781e+01" cType="1" res="-1.5672950744628906e+01" rms="1.5320578575134277e+01" purity="1.0000000000000000e+00" nType="0">
            <Node pos="l" depth="3" NCoef="0" IVar="0" Cut="3.4629875183105469e+01" cType="1" res="-1.9691299438476562e+01" rms="1.3377907752990723e+01" purity="1.0000000000000000e+00" nType="0">
              <Node pos="l" depth="4" NCoef="0" IVar="-1" Cut="0.0000000000000000e+00" cType="1" res="-2.6303534507751465e+00" rms="1.1405899047851562e+01" purity="1.0000000000000000e+00" nType="-99"/>
              <Node pos="r" depth="4" NCoef="0" IVar="-1" Cut="0.0000000000000000e+00" cType="1" res="-1.9087945222854614e+00" rms="1.4398991584777832e+01" purity="1.0000000000000000e+00" nType="-99"/>
            </Node>
            <Node pos="r" depth="3" NCoef="0" IVar="4" Cut="8.5695946216583252e-01" cType="1" res="-1.2768870353698730e+01" rms="1.5965866088867188e+01" purity="1.0000000000000000e+00" nType="0">
              <Node pos="l" depth="4" NCoef="0" IVar="-1" Cut="0.0000000000000000e+00" cType="1" res="-1.0827695131301880e+00" rms="1.6793970108032227e+01" purity="1.0000000000000000e+00" nType="-99"/>
              <Node pos="r" depth="4" NCoef="0" IVar="-1" Cut="0.0000000000000000e+00" cType="1" res="-1.4694321155548096e+00" rms="1.5140634536743164e+01" purity="1.0000000000000000e+00" nType="-99"/>
            </Node>
          </Node>
          <Node pos="r" depth="2" NCoef="0" IVar="0" Cut="1.0150609588623047e+02" cType="1" res="-1.8872388601303101e+00" rms="1.7841257095336914e+01" purity="1.0000000000000000e+00" nType="0">
            <Node pos="l" depth="3" NCoef="0" IVar="4" Cut="8.5702764987945557e-01" cType="1" res="-5.4423117637634277e+00" rms="1.8070779800415039e+01" purity="1.0000000000000000e+00" nType="0">
              <Node pos="l" depth="4" NCoef="0" IVar="-1" Cut="0.0000000000000000e+00" cType="1" res="-4.2364680767059326e-01" rms="2.0041889190673828e+01" purity="1.0000000000000000e+00" nType="-99"/>
              <Node pos="r" depth="4" NCoef="0" IVar="-1" Cut="0.0000000000000000e+00" cType="1" res="-7.4871098995208740e-01" rms="1.6504781723022461e+01" purity="1.0000000000000000e+00" nType="-99"/>
            </Node>
            <Node pos="r" depth="3" NCoef="0" IVar="0" Cut="1.1891648864746094e+02" cType="1" res="9.9416822195053101e-01" rms="1.7119686126708984e+01" purity="1.0000000000000000e+00" nType="0">
              <Node pos="l" depth="4" NCoef="0" IVar="-1" Cut="0.0000000000000000e+00" cType="1" res="-1.2418463081121445e-01" rms="1.6751600265502930e+01" purity="1.0000000000000000e+00" nType="-99"/>
              <Node pos="r" depth="4" NCoef="0" IVar="-1" Cut="0.0000000000000000e+00" cType="1" res="2.6609304547309875e-01" rms="1.7464067459106445e+01" purity="1.0000000000000000e+00" nType="-99"/>
            </Node>
          </Node>
        </Node>
        <Node pos="r" depth="1" NCoef="0" IVar="0" Cut="1.6397616577148438e+02" cType="1" res="1.4355072975158691e+01" rms="1.6555564880371094e+01" purity="1.0000000000000000e+00" nType="0">
          <Node pos="l" depth="2" NCoef="0" IVar="0" Cut="1.4721238708496094e+02" cType="1" res="9.0623941421508789e+00" rms="1.6325902938842773e+01" purity="1.0000000000000000e+00" nType="0">
            <Node pos="l" depth="3" NCoef="0" IVar="4" Cut="8.5701280832290649e-01" cType="1" res="6.8848061561584473e+00" rms="1.6346017837524414e+01" purity="1.0000000000000000e+00" nType="0">
              <Node pos="l" depth="4" NCoef="0" IVar="-1" Cut="0.0000000000000000e+00" cType="1" res="9.5676797628402710e-01" rms="1.5122252464294434e+01" purity="1.0000000000000000e+00" nType="-99"/>
              <Node pos="r" depth="4" NCoef="0" IVar="-1" Cut="0.0000000000000000e+00" cType="1" res="4.2043736577033997e-01" rms="1.6950414657592773e+01" purity="1.0000000000000000e+00" nType="-99"/>
            </Node>
            <Node pos="r" depth="3" NCoef="0" IVar="0" Cut="1.5279914855957031e+02" cType="1" res="1.1596805572509766e+01" rms="1.5931985855102539e+01" purity="1.0000000000000000e+00" nType="0">
              <Node pos="l" depth="4" NCoef="0" IVar="-1" Cut="0.0000000000000000e+00" cType="1" res="9.2507165670394897e-01" rms="1.4500878334045410e+01" purity="1.0000000000000000e+00" nType="-99"/>
              <Node pos="r" depth="4" NCoef="0" IVar="-1" Cut="0.0000000000000000e+00" cType="1" res="1.3451942205429077e+00" rms="1.6571514129638672e+01" purity="1.0000000000000000e+00" nType="-99"/>
            </Node>
          </Node>
          <Node pos="r" depth="2" NCoef="0" IVar="0" Cut="1.9446705627441406e+02" cType="1" res="1.8932497024536133e+01" rms="1.5343995094299316e+01" purity="1.0000000000000000e+00" nType="0">
            <Node pos="l" depth="3" NCoef="0" IVar="0" Cut="1.7270309448242188e+02" cType="1" res="1.5384690284729004e+01" rms="1.5199831962585449e+01" purity="1.0000000000000000e+00" nType="0">
              <Node pos="l" depth="4" NCoef="0" IVar="-1" Cut="0.0000000000000000e+00" cType="1" res="1.3023830652236938e+00" rms="1.4692014694213867e+01" purity="1.0000000000000000e+00" nType="-99"/>
              <Node pos="r" depth="4" NCoef="0" IVar="-1" Cut="0.0000000000000000e+00" cType="1" res="1.9012981653213501e+00" rms="1.5304917335510254e+01" purity="1.0000000000000000e+00" nType="-99"/>
            </Node>
            <Node pos="r" depth="3" NCoef="0" IVar="0" Cut="2.5251995849609375e+02" cType="1" res="2.1770236968994141e+01" rms="1.4860675811767578e+01" purity="1.0000000000000000e+00" nType="0">
              <Node pos="l" depth="4" NCoef="0" IVar="-1" Cut="0.0000000000000000e+00" cType="1" res="2.3953843116760254e+00" rms="1.7162548065185547e+01" purity="1.0000000000000000e+00" nType="-99"/>
              <Node pos="r" depth="4" NCoef="0" IVar="-1" Cut="0.0000000000000000e+00" cType="1" res="6.1484627723693848e+00" rms="8.3275365829467773e+00" purity="1.0000000000000000e+00" nType="-99"/>
            </Node>
          </Node>
        </Node>
      </Node>
    </BinaryTree>
    <BinaryTree type="DecisionTree" boostWeight="1.0000000000000000e+00" itree="13">
      <Node pos="s" depth="0" NCoef="0" IVar="0" Cut="1.1233462524414062e+02" cType="1" res="1.1558200418949127e-01" rms="1.9251218795776367e+01" purity="1.0000000000000000e+00" nType="0">
        <Node pos="l" depth="1" NCoef="0" IVar="0" Cut="6.8372566223144531e+01" cType="1" res="-8.5481939315795898e+00" rms="1.6344438552856445e+01" purity="1.0000000000000000e+00" nType="0">
          <Node pos="l" depth="2" NCoef="0" IVar="0" Cut="4.5338821411132812e+01" cType="1" res="-1.5896216392517090e+01" rms="1.3965368270874023e+01" purity="1.0000000000000000e+00" nType="0">
            <Node pos="l" depth="3" NCoef="0" IVar="0" Cut="3.2073722839355469e+01" cType="1" res="-1.8363084793090820e+01" rms="1.2463356971740723e+01" purity="1.0000000000000000e+00" nType="0">
              <Node pos="l" depth="4" NCoef="0" IVar="-1" Cut="0.0000000000000000e+00" cType="1" res="-2.4870927333831787e+00" rms="1.2109719276428223e+01" purity="1.0000000000000000e+00" nType="-99"/>
              <Node pos="r" depth="4" NCoef="0" IVar="-1" Cut="0.0000000000000000e+00" cType="1" res="-1.7870084047317505e+00" rms="1.2555384635925293e+01" purity="1.0000000000000000e+00" nType="-99"/>
            </Node>
            <Node pos="r" depth="3" NCoef="0" IVar="4" Cut="7.1411144733428955e-01" cType="1" res="-1.3803007125854492e+01" rms="1.4804382324218750e+01" purity="1.0000000000000000e+00" nType="0">
              <Node pos="l" depth="4" NCoef="0" IVar="-1" Cut="0.0000000000000000e+00" cType="1" res="-1.1740057468414307e+00" rms="1.5477464675903320e+01" purity="1.0000000000000000e+00" nType="-99"/>
              <Node pos="r" depth="4" NCoef="0" IVar="-1" Cut="0.0000000000000000e+00" cType="1" res="-1.5131732225418091e+00" rms="1.4342308998107910e+01" purity="1.0000000000000000e+00" nType="-99"/>
            </Node>
          </Node>
          <Node pos="r" depth="2" NCoef="0" IVar="0" Cut="9.5594619750976562e+01" cType="1" res="-4.7421798706054688e+00" rms="1.6187595367431641e+01" purity="1.0000000000000000e+00" nType="0">
            <Node pos="l" depth="3" NCoef="0" IVar="0" Cut="8.2639587402343750e+01" cType="1" res="-6.8859891891479492e+00" rms="1.5664324760437012e+01" purity="1.0000000000000000e+00" nType="0">
              <Node pos="l" depth="4" NCoef="0" IVar="-1" Cut="0.0000000000000000e+00" cType="1" res="-9.5560240745544434e-01" rms="1.5246117591857910e+01" purity="1.0000000000000000e+00" nType="-99"/>
              <Node pos="r" depth="4" NCoef="0" IVar="-1" Cut="0.0000000000000000e+00" cType="1" res="-6.0211610794067383e-01" rms="1.5782090187072754e+01" purity="1.0000000000000000e+00" nType="-99"/>
            </Node>
            <Node pos="r" depth="3" NCoef="0" IVar="4" Cut="8.5702764987945557e-01" cType="1" res="-2.1612405776977539e+00" rms="1.6428926467895508e+01" purity="1.0000000000000000e+00" nType="0">
              <Node pos="l" depth="4" NCoef="0" IVar="-1" Cut="0.0000000000000000e+00" cType="1" res="-5.6458551436662674e-02" rms="1.6394237518310547e+01" purity="1.0000000000000000e+00" nType="-99"/>
              <Node pos="r" depth="4" NCoef="0" IVar="-1" Cut="0.0000000000000000e+00" cType="1" res="-4.1812685132026672e-01" rms="1.6327747344970703e+01" purity="1.0000000000000000e+00" nType="-99"/>
            </Node>
          </Node>
        </Node>
        <Node pos="r" depth="1" NCoef="0" IVar="0" Cut="1.6508831787109375e+02" cType="1" res="9.6031761169433594e+00" rms="1.7655139923095703e+01" purity="1.0000000000000000e+00" nType="0">
          <Node pos="l" depth="2" NCoef="0" IVar="0" Cut="1.4496289062500000e+02" cType="1" res="5.1806783676147461e+00" rms="1.6072687149047852e+01" purity="1.0000000000000000e+00" nType="0">
            <Node pos="l" depth="3" NCoef="0" IVar="0" Cut="1.2787144470214844e+02" cType="1" res="3.2579383850097656e+00" rms="1.5729563713073730e+01" purity="1.0000000000000000e+00" nType="0">
              <Node pos="l" depth="4" NCoef="0" IVar="-1" Cut="0.0000000000000000e+00" cType="1" res="8.8683202862739563e-02" rms="1.5400771141052246e+01" purity="1.0000000000000000e+00" nType="-99"/>
              <Node pos="r" depth="4" NCoef="0" IVar="-1" Cut="0.0000000000000000e+00" cType="1" res="4.8973754048347473e-01" rms="1.5844610214233398e+01" purity="1.0000000000000000e+00" nType="-99"/>
            </Node>
            <Node pos="r" depth="3" NCoef="0" IVar="0" Cut="1.5548608398437500e+02" cType="1" res="9.9335441589355469e+00" rms="1.5924097061157227e+01" purity="1.0000000000000000e+00" nType="0">
              <Node pos="l" depth="4" NCoef="0" IVar="-1" Cut="0.0000000000000000e+00" cType="1" res="8.0390292406082153e-01" rms="1.6343095779418945e+01" purity="1.0000000000000000e+00" nType="-99"/>
              <Node pos="r" depth="4" NCoef="0" IVar="-1" Cut="0.0000000000000000e+00" cType="1" res="1.2594906091690063e+00" rms="1.5119869232177734e+01" purity="1.0000000000000000e+00" nType="-99"/>
            </Node>
          </Node>
          <Node pos="r" depth="2" NCoef="0" IVar="0" Cut="2.6055902099609375e+02" cType="1" res="1.7470006942749023e+01" rms="1.7605863571166992e+01" purity="1.0000000000000000e+00" nType="0">
            <Node pos="l" depth="3" NCoef="0" IVar="0" Cut="1.8323445129394531e+02" cType="1" res="1.5918708801269531e+01" rms="1.6215145111083984e+01" purity="1.0000000000000000e+00" nType="0">
              <Node pos="l" depth="4" NCoef="0" IVar="-1" Cut="0.0000000000000000e+00" cType="1" res="1.3242931365966797e+00" rms="1.6476194381713867e+01" purity="1.0000000000000000e+00" nType="-99"/>
              <Node pos="r" depth="4" NCoef="0" IVar="-1" Cut="0.0000000000000000e+00" cType="1" res="2.0644316673278809e+00" rms="1.5794440269470215e+01" purity="1.0000000000000000e+00" nType="-99"/>
            </Node>
            <Node pos="r" depth="3" NCoef="0" IVar="1" Cut="6.1383062744140625e+02" cType="1" res="2.4499877929687500e+01" rms="2.1512506484985352e+01" purity="1.0000000000000000e+00" nType="0">
              <Node pos="l" depth="4" NCoef="0" IVar="-1" Cut="0.0000000000000000e+00" cType="1" res="5.9106721878051758e+00" rms="2.2574563980102539e+01" purity="1.0000000000000000e+00" nType="-99"/>
              <Node pos="r" depth="4" NCoef="0" IVar="-1" Cut="0.0000000000000000e+00" cType="1" res="6.9102168083190918e+00" rms="1.2972036361694336e+01" purity="1.0000000000000000e+00" nType="-99"/>
            </Node>
          </Node>
        </Node>
      </Node>
    </BinaryTree>
    <BinaryTree type="DecisionTree" boostWeight="1.0000000000000000e+00" itree="14">
      <Node pos="s" depth="0" NCoef="0" IVar="0" Cut="1.0944761657714844e+02" cType="1" res="1.3046458363533020e-01" rms="1.7936603546142578e+01" purity="1.0000000000000000e+00" nType="0">
        <Node pos="l" depth="1" NCoef="0" IVar="0" Cut="6.2600688934326172e+01" cType="1" res="-7.8162469863891602e+00" rms="1.6088115692138672e+01" purity="1.0000000000000000e+00" nType="0">
          <Node pos="l" depth="2" NCoef="0" IVar="0" Cut="3.4205032348632812e+01" cType="1" res="-1.4943765640258789e+01" rms="1.3237675666809082e+01" purity="1.0000000000000000e+00" nType="0">
            <Node pos="l" depth="3" NCoef="0" IVar="4" Cut="4.2799767851829529e-01" cType="1" res="-1.8801963806152344e+01" rms="1.1381494522094727e+01" purity="1.0000000000000000e+00" nType="0">
              <Node pos="l" depth="4" NCoef="0" IVar="-1" Cut="0.0000000000000000e+00" cType="1" res="-2.0745809078216553e+00" rms="1.3484460830688477e+01" purity="1.0000000000000000e+00" nType="-99"/>
              <Node pos="r" depth="4" NCoef="0" IVar="-1" Cut="0.0000000000000000e+00" cType="1" res="-2.2188589572906494e+00" rms="1.0026991844177246e+01" purity="1.0000000000000000e+00" nType="-99"/>
            </Node>
            <Node pos="r" depth="3" NCoef="0" IVar="4" Cut="7.1411144733428955e-01" cType="1" res="-1.3697518348693848e+01" rms="1.3551220893859863e+01" purity="1.0000000000000000e+00" nType="0">
              <Node pos="l" depth="4" NCoef="0" IVar="-1" Cut="0.0000000000000000e+00" cType="1" res="-1.1651514768600464e+00" rms="1.4824790954589844e+01" purity="1.0000000000000000e+00" nType="-99"/>
              <Node pos="r" depth="4" NCoef="0" IVar="-1" Cut="0.0000000000000000e+00" cType="1" res="-1.5439555644989014e+00" rms="1.2666789054870605e+01" purity="1.0000000000000000e+00" nType="-99"/>
            </Node>
          </Node>
          <Node pos="r" depth="2" NCoef="0" IVar="0" Cut="9.1604774475097656e+01" cType="1" res="-4.5612173080444336e+00" rms="1.6223651885986328e+01" purity="1.0000000000000000e+00" nType="0">
            <Node pos="l" depth="3" NCoef="0" IVar="4" Cut="7.1413457393646240e-01" cType="1" res="-6.8388090133666992e+00" rms="1.5503419876098633e+01" purity="1.0000000000000000e+00" nType="0">
              <Node pos="l" depth="4" NCoef="0" IVar="-1" Cut="0.0000000000000000e+00" cType="1" res="-3.8360708951950073e-01" rms="1.5917481422424316e+01" purity="1.0000000000000000e+00" nType="-99"/>
              <Node pos="r" depth="4" NCoef="0" IVar="-1" Cut="0.0000000000000000e+00" cType="1" res="-8.6134719848632812e-01" rms="1.5181269645690918e+01" purity="1.0000000000000000e+00" nType="-99"/>
            </Node>
            <Node pos="r" depth="3" NCoef="0" IVar="4" Cut="8.5700035095214844e-01" cType="1" res="-2.3064475059509277e+00" rms="1.6601484298706055e+01" purity="1.0000000000000000e+00" nType="0">
              <Node pos="l" depth="4" NCoef="0" IVar="-1" Cut="0.0000000000000000e+00" cType="1" res="-1.9469913095235825e-02" rms="1.5937736511230469e+01" purity="1.0000000000000000e+00" nType="-99"/>
              <Node pos="r" depth="4" NCoef="0" IVar="-1" Cut="0.0000000000000000e+00" cType="1" res="-4.4730794429779053e-01" rms="1.6835460662841797e+01" purity="1.0000000000000000e+00" nType="-99"/>
            </Node>
          </Node>
        </Node>
        <Node pos="r" depth="1" NCoef="0" IVar="0" Cut="1.6055352783203125e+02" cType="1" res="7.8867568969726562e+00" rms="1.6165145874023438e+01" purity="1.0000000000000000e+00" nType="0">
          <Node pos="l" depth="2" NCoef="0" IVar="0" Cut="1.2891427612304688e+02" cType="1" res="3.7807545661926270e+00" rms="1.5707861900329590e+01" purity="1.0000000000000000e+00" nType="0">
            <Node pos="l" depth="3" NCoef="0" IVar="4" Cut="8.5699886083602905e-01" cType="1" res="1.0039668083190918e+00" rms="1.5699272155761719e+01" purity="1.0000000000000000e+00" nType="0">
              <Node pos="l" depth="4" NCoef="0" IVar="-1" Cut="0.0000000000000000e+00" cType="1" res="3.1361597776412964e-01" rms="1.5315475463867188e+01" purity="1.0000000000000000e+00" nType="-99"/>
              <Node pos="r" depth="4" NCoef="0" IVar="-1" Cut="0.0000000000000000e+00" cType="1" res="-1.2039790302515030e-01" rms="1.5811861038208008e+01" purity="1.0000000000000000e+00" nType="-99"/>
            </Node>
            <Node pos="r" depth="3" NCoef="0" IVar="0" Cut="1.4548417663574219e+02" cType="1" res="6.4570822715759277e+00" rms="1.5244756698608398e+01" purity="1.0000000000000000e+00" nType="0">
