<?xml version="1.0"?>
<MethodSetup Method="BDT::BDTG">
  <GeneralInfo>
    <Info name="TMVA Release" value="4.2.1 [262657]"/>
    <Info name="ROOT Release" value="6.16/00 [397312]"/>
    <Info name="Creator" value="vardan"/>
    <Info name="Date" value="Sun May  5 14:39:01 2019"/>
    <Info name="Host" value="Linux ec-ubuntu-14-04-x86-64-2 3.13.0-157-generic #207-Ubuntu SMP Mon Aug 20 16:44:59 UTC 2018 x86_64 x86_64 x86_64 GNU/Linux"/>
    <Info name="Dir" value="/home/vardan/Analyse2019/CMS_VBF_Hbb_2017_18/DoubleBTag/Analysis/TMVA_Signal_vs_Background_Separation/withData"/>
    <Info name="Training events" value="48993"/>
    <Info name="TrainingTime" value="9.51841998e+00"/>
    <Info name="AnalysisType" value="Classification"/>
  </GeneralInfo>
  <Options>
    <Option name="V" modified="Yes">False</Option>
    <Option name="VerbosityLevel" modified="No">Default</Option>
    <Option name="VarTransform" modified="No">None</Option>
    <Option name="H" modified="Yes">False</Option>
    <Option name="CreateMVAPdfs" modified="No">False</Option>
    <Option name="IgnoreNegWeightsInTraining" modified="No">False</Option>
    <Option name="NTrees" modified="Yes">120</Option>
    <Option name="MaxDepth" modified="Yes">3</Option>
    <Option name="MinNodeSize" modified="Yes">8.0%</Option>
    <Option name="nCuts" modified="Yes">20</Option>
    <Option name="BoostType" modified="Yes">Grad</Option>
    <Option name="AdaBoostR2Loss" modified="No">quadratic</Option>
    <Option name="UseBaggedBoost" modified="Yes">True</Option>
    <Option name="Shrinkage" modified="Yes">1.000000e-01</Option>
    <Option name="AdaBoostBeta" modified="No">5.000000e-01</Option>
    <Option name="UseRandomisedTrees" modified="No">False</Option>
    <Option name="UseNvars" modified="No">3</Option>
    <Option name="UsePoissonNvars" modified="No">True</Option>
    <Option name="BaggedSampleFraction" modified="Yes">6.000000e-01</Option>
    <Option name="UseYesNoLeaf" modified="No">True</Option>
    <Option name="NegWeightTreatment" modified="Yes">ignorenegweightsintraining</Option>
    <Option name="Css" modified="No">1.000000e+00</Option>
    <Option name="Cts_sb" modified="No">1.000000e+00</Option>
    <Option name="Ctb_ss" modified="No">1.000000e+00</Option>
    <Option name="Cbb" modified="No">1.000000e+00</Option>
    <Option name="NodePurityLimit" modified="No">5.000000e-01</Option>
    <Option name="SeparationType" modified="No">giniindex</Option>
    <Option name="RegressionLossFunctionBDTG" modified="No">huber</Option>
    <Option name="HuberQuantile" modified="No">7.000000e-01</Option>
    <Option name="DoBoostMonitor" modified="No">False</Option>
    <Option name="UseFisherCuts" modified="No">False</Option>
    <Option name="MinLinCorrForFisher" modified="No">8.000000e-01</Option>
    <Option name="UseExclusiveVars" modified="No">False</Option>
    <Option name="DoPreselection" modified="No">False</Option>
    <Option name="SigToBkgFraction" modified="No">1.000000e+00</Option>
    <Option name="PruneMethod" modified="No">nopruning</Option>
    <Option name="PruneStrength" modified="No">0.000000e+00</Option>
    <Option name="PruningValFraction" modified="No">5.000000e-01</Option>
    <Option name="SkipNormalization" modified="No">False</Option>
    <Option name="nEventsMin" modified="No">0</Option>
    <Option name="UseBaggedGrad" modified="No">False</Option>
    <Option name="GradBaggingFraction" modified="No">6.000000e-01</Option>
    <Option name="UseNTrainEvents" modified="No">0</Option>
    <Option name="NNodesMax" modified="No">0</Option>
  </Options>
  <Variables NVar="11">
    <Variable VarIndex="0" Expression="mqq" Label="mqq" Title="Mqq" Unit="units" Internal="mqq" Type="F" Min="2.40013855e+02" Max="5.60053955e+03"/>
    <Variable VarIndex="1" Expression="detaqq" Label="detaqq" Title="dETAqq" Unit="units" Internal="detaqq" Type="F" Min="2.30002236e+00" Max="9.06376457e+00"/>
    <Variable VarIndex="2" Expression="dphiqq" Label="dphiqq" Title="dPHIqq" Unit="units" Internal="dphiqq" Type="F" Min="1.57654285e-05" Max="3.14151978e+00"/>
    <Variable VarIndex="3" Expression="btgb1_D" Label="btgb1_D" Title="Btg_1b" Unit="units" Internal="btgb1_D" Type="F" Min="-2.00000000e+00" Max="9.99900281e-01"/>
    <Variable VarIndex="4" Expression="btgb2_D" Label="btgb2_D" Title="Btg_2b" Unit="units" Internal="btgb2_D" Type="F" Min="-2.00000000e+00" Max="9.99879301e-01"/>
    <Variable VarIndex="5" Expression="qtgq1" Label="qtgq1" Title="Qtg_1q" Unit="units" Internal="qtgq1" Type="F" Min="-1.00000000e+00" Max="1.00000000e+00"/>
    <Variable VarIndex="6" Expression="qtgq2" Label="qtgq2" Title="Qtg_2q" Unit="units" Internal="qtgq2" Type="F" Min="-1.00000000e+00" Max="1.00000000e+00"/>
    <Variable VarIndex="7" Expression="pt_All" Label="pt_All" Title="Summ_PT" Unit="units" Internal="pt_All" Type="F" Min="1.07119329e-01" Max="1.46627234e+03"/>
    <Variable VarIndex="8" Expression="pz_All" Label="pz_All" Title="Summ_PZ" Unit="units" Internal="pz_All" Type="F" Min="-5.65476758e+03" Max="5.32875293e+03"/>
    <Variable VarIndex="9" Expression="Njet_20" Label="Njet_20" Title="Njet_20" Unit="" Internal="Njet_20" Type="I" Min="4.00000000e+00" Max="1.60000000e+01"/>
    <Variable VarIndex="10" Expression="E_rest_20" Label="E_rest_20" Title="E_Rest_PTgt20" Unit="units" Internal="E_rest_20" Type="F" Min="-3.20434570e-04" Max="5.25393652e+03"/>
  </Variables>
  <Spectators NSpec="1">
    <Spectator SpecIndex="0" Expression="minvbb" Label="minvbb" Title="MinvBB" Unit="units" Internal="minvbb" Type="F" Min="1.55084724e+01" Max="2.66315308e+03"/>
  </Spectators>
  <Classes NClass="2">
    <Class Name="Signal" Index="0"/>
    <Class Name="Background" Index="1"/>
  </Classes>
  <Transformations NTransformations="0"/>
  <MVAPdfs/>
  <Weights NTrees="120" AnalysisType="1">
    <BinaryTree type="DecisionTree" boostWeight="1.0000000000000000e+00" itree="0">
      <Node pos="s" depth="0" NCoef="0" IVar="9" Cut="6.0000000000000000e+00" cType="1" res="2.8400737210176885e-04" rms="4.9944415688514709e-01" purity="5.0062870979309082e-01" nType="0">
        <Node pos="l" depth="1" NCoef="0" IVar="4" Cut="4.2844545841217041e-01" cType="1" res="2.0802915096282959e-01" rms="4.5466896891593933e-01" purity="7.0802915096282959e-01" nType="0">
          <Node pos="l" depth="2" NCoef="0" IVar="-1" Cut="0.0000000000000000e+00" cType="1" res="-2.2509768605232239e-03" rms="4.9987331032752991e-01" purity="4.8874509334564209e-01" nType="-99"/>
          <Node pos="r" depth="2" NCoef="0" IVar="9" Cut="5.0000000000000000e+00" cType="1" res="1.1058853566646576e-01" rms="3.4130513668060303e-01" purity="7.7510029077529907e-01" nType="0">
            <Node pos="l" depth="3" NCoef="0" IVar="-1" Cut="0.0000000000000000e+00" cType="1" res="7.1907237172126770e-02" rms="3.4746760129928589e-01" purity="8.5953617095947266e-01" nType="-99"/>
            <Node pos="r" depth="3" NCoef="0" IVar="-1" Cut="0.0000000000000000e+00" cType="1" res="3.6506213247776031e-02" rms="4.6549159288406372e-01" purity="6.8253105878829956e-01" nType="-99"/>
          </Node>
        </Node>
        <Node pos="r" depth="1" NCoef="0" IVar="4" Cut="5.7128041982650757e-01" cType="1" res="-1.9606006145477295e-01" rms="4.5995700359344482e-01" purity="3.0393993854522705e-01" nType="0">
          <Node pos="l" depth="2" NCoef="0" IVar="3" Cut="8.5700809955596924e-01" cType="1" res="-3.2744929194450378e-01" rms="3.7785840034484863e-01" purity="1.7255072295665741e-01" nType="0">
            <Node pos="l" depth="3" NCoef="0" IVar="-1" Cut="0.0000000000000000e+00" cType="1" res="-7.9236306250095367e-02" rms="3.0502489209175110e-01" purity="1.0381846129894257e-01" nType="-99"/>
            <Node pos="r" depth="3" NCoef="0" IVar="-1" Cut="0.0000000000000000e+00" cType="1" res="-5.2948918193578720e-02" rms="4.2415833473205566e-01" purity="2.3525540530681610e-01" nType="-99"/>
          </Node>
          <Node pos="r" depth="2" NCoef="0" IVar="9" Cut="7.0000000000000000e+00" cType="1" res="-6.4184017479419708e-02" rms="4.9279162287712097e-01" purity="4.3757328391075134e-01" nType="0">
            <Node pos="l" depth="3" NCoef="0" IVar="-1" Cut="0.0000000000000000e+00" cType="1" res="1.0742269456386566e-02" rms="4.9710673093795776e-01" purity="5.5371135473251343e-01" nType="-99"/>
            <Node pos="r" depth="3" NCoef="0" IVar="-1" Cut="0.0000000000000000e+00" cType="1" res="-3.0915552750229836e-02" rms="4.7550573945045471e-01" purity="3.4542220830917358e-01" nType="-99"/>
          </Node>
        </Node>
      </Node>
    </BinaryTree>
    <BinaryTree type="DecisionTree" boostWeight="1.0000000000000000e+00" itree="1">
      <Node pos="s" depth="0" NCoef="0" IVar="9" Cut="6.0000000000000000e+00" cType="1" res="-9.6081022638827562e-04" rms="4.8711085319519043e-01" purity="5.0026333332061768e-01" nType="0">
        <Node pos="l" depth="1" NCoef="0" IVar="4" Cut="4.2844313383102417e-01" cType="1" res="1.8719914555549622e-01" rms="4.5036309957504272e-01" purity="7.0816236734390259e-01" nType="0">
          <Node pos="l" depth="2" NCoef="0" IVar="-1" Cut="0.0000000000000000e+00" cType="1" res="-4.7671901993453503e-03" rms="4.9937656521797180e-01" purity="4.7503867745399475e-01" nType="-99"/>
          <Node pos="r" depth="2" NCoef="0" IVar="0" Cut="6.3862268066406250e+02" cType="1" res="2.4831019341945648e-01" rms="4.1559106111526489e-01" purity="7.7566981315612793e-01" nType="0">
            <Node pos="l" depth="3" NCoef="0" IVar="-1" Cut="0.0000000000000000e+00" cType="1" res="3.4251101315021515e-02" rms="4.5814710855484009e-01" purity="6.9737774133682251e-01" nType="-99"/>
            <Node pos="r" depth="3" NCoef="0" IVar="-1" Cut="0.0000000000000000e+00" cType="1" res="6.4342141151428223e-02" rms="3.5670524835586548e-01" purity="8.4861123561859131e-01" nType="-99"/>
          </Node>
        </Node>
        <Node pos="r" depth="1" NCoef="0" IVar="4" Cut="7.1417462825775146e-01" cType="1" res="-1.8083107471466064e-01" rms="4.5314595103263855e-01" purity="2.9966542124748230e-01" nType="0">
          <Node pos="l" depth="2" NCoef="0" IVar="3" Cut="9.5291519165039062e-01" cType="1" res="-2.7374085783958435e-01" rms="3.9626631140708923e-01" purity="1.9841113686561584e-01" nType="0">
            <Node pos="l" depth="3" NCoef="0" IVar="-1" Cut="0.0000000000000000e+00" cType="1" res="-6.7918352782726288e-02" rms="3.3543011546134949e-01" purity="1.3041195273399353e-01" nType="-99"/>
            <Node pos="r" depth="3" NCoef="0" IVar="-1" Cut="0.0000000000000000e+00" cType="1" res="-3.2994989305734634e-02" rms="4.6221688389778137e-01" purity="3.1381741166114807e-01" nType="-99"/>
          </Node>
          <Node pos="r" depth="2" NCoef="0" IVar="9" Cut="7.0000000000000000e+00" cType="1" res="-3.7599395960569382e-02" rms="4.9210277199745178e-01" purity="4.6001747250556946e-01" nType="0">
            <Node pos="l" depth="3" NCoef="0" IVar="-1" Cut="0.0000000000000000e+00" cType="1" res="1.2466659769415855e-02" rms="4.9539592862129211e-01" purity="5.6769704818725586e-01" nType="-99"/>
            <Node pos="r" depth="3" NCoef="0" IVar="-1" Cut="0.0000000000000000e+00" cType="1" res="-2.1853538230061531e-02" rms="4.8422184586524963e-01" purity="3.7538382411003113e-01" nType="-99"/>
          </Node>
        </Node>
      </Node>
    </BinaryTree>
    <BinaryTree type="DecisionTree" boostWeight="1.0000000000000000e+00" itree="2">
      <Node pos="s" depth="0" NCoef="0" IVar="9" Cut="6.0000000000000000e+00" cType="1" res="4.9006752669811249e-03" rms="4.7669646143913269e-01" purity="5.0530713796615601e-01" nType="0">
        <Node pos="l" depth="1" NCoef="0" IVar="4" Cut="5.7132512331008911e-01" cType="1" res="1.7698410153388977e-01" rms="4.4317591190338135e-01" purity="7.1613711118698120e-01" nType="0">
          <Node pos="l" depth="2" NCoef="0" IVar="-1" Cut="0.0000000000000000e+00" cType="1" res="7.2979042306542397e-03" rms="4.9303942918777466e-01" purity="5.5003720521926880e-01" nType="-99"/>
          <Node pos="r" depth="2" NCoef="0" IVar="9" Cut="5.0000000000000000e+00" cType="1" res="1.0390482097864151e-01" rms="3.2973352074623108e-01" purity="8.0149310827255249e-01" nType="0">
            <Node pos="l" depth="3" NCoef="0" IVar="-1" Cut="0.0000000000000000e+00" cType="1" res="6.2836043536663055e-02" rms="3.3450463414192200e-01" purity="8.7051123380661011e-01" nType="-99"/>
            <Node pos="r" depth="3" NCoef="0" IVar="-1" Cut="0.0000000000000000e+00" cType="1" res="3.6646086722612381e-02" rms="4.4606605172157288e-01" purity="7.2422182559967041e-01" nType="-99"/>
          </Node>
        </Node>
        <Node pos="r" depth="1" NCoef="0" IVar="4" Cut="5.7128912210464478e-01" cType="1" res="-1.6137543320655823e-01" rms="4.4931253790855408e-01" purity="3.0055519938468933e-01" nType="0">
          <Node pos="l" depth="2" NCoef="0" IVar="9" Cut="7.0000000000000000e+00" cType="1" res="-2.6790937781333923e-01" rms="3.7320759892463684e-01" purity="1.7052464187145233e-01" nType="0">
            <Node pos="l" depth="3" NCoef="0" IVar="-1" Cut="0.0000000000000000e+00" cType="1" res="-3.7036832422018051e-02" rms="4.3465548753738403e-01" purity="2.5787740945816040e-01" nType="-99"/>
            <Node pos="r" depth="3" NCoef="0" IVar="-1" Cut="0.0000000000000000e+00" cType="1" res="-6.4794190227985382e-02" rms="3.2378417253494263e-01" purity="1.2057591229677200e-01" nType="-99"/>
          </Node>
          <Node pos="r" depth="2" NCoef="0" IVar="1" Cut="3.8860361576080322e+00" cType="1" res="-4.7815278172492981e-02" rms="4.9203625321388245e-01" purity="4.3735638260841370e-01" nType="0">
            <Node pos="l" depth="3" NCoef="0" IVar="-1" Cut="0.0000000000000000e+00" cType="1" res="-2.7920939028263092e-02" rms="4.7186884284019470e-01" purity="3.4613302350044250e-01" nType="-99"/>
            <Node pos="r" depth="3" NCoef="0" IVar="-1" Cut="0.0000000000000000e+00" cType="1" res="2.5287400931119919e-03" rms="4.9575364589691162e-01" purity="4.9764916300773621e-01" nType="-99"/>
          </Node>
        </Node>
      </Node>
    </BinaryTree>
    <BinaryTree type="DecisionTree" boostWeight="1.0000000000000000e+00" itree="3">
      <Node pos="s" depth="0" NCoef="0" IVar="9" Cut="6.0000000000000000e+00" cType="1" res="6.8754861131310463e-03" rms="4.6861252188682556e-01" purity="5.0747239589691162e-01" nType="0">
        <Node pos="l" depth="1" NCoef="0" IVar="0" Cut="4.5407641601562500e+02" cType="1" res="1.5842692553997040e-01" rms="4.4087523221969604e-01" purity="7.1520382165908813e-01" nType="0">
          <Node pos="l" depth="2" NCoef="0" IVar="-1" Cut="0.0000000000000000e+00" cType="1" res="-1.8855929374694824e-03" rms="4.9069601297378540e-01" purity="5.3710711002349854e-01" nType="-99"/>
          <Node pos="r" depth="2" NCoef="0" IVar="4" Cut="7.1408367156982422e-01" cType="1" res="2.1137350797653198e-01" rms="4.0992271900177002e-01" purity="7.7141988277435303e-01" nType="0">
            <Node pos="l" depth="3" NCoef="0" IVar="-1" Cut="0.0000000000000000e+00" cType="1" res="2.5304609909653664e-02" rms="4.6563532948493958e-01" purity="6.6080838441848755e-01" nType="-99"/>
            <Node pos="r" depth="3" NCoef="0" IVar="-1" Cut="0.0000000000000000e+00" cType="1" res="5.7941559702157974e-02" rms="3.4207063913345337e-01" purity="8.6202299594879150e-01" nType="-99"/>
          </Node>
        </Node>
        <Node pos="r" depth="1" NCoef="0" IVar="4" Cut="7.1412068605422974e-01" cType="1" res="-1.3688626885414124e-01" rms="4.4910091161727905e-01" purity="3.0985265970230103e-01" nType="0">
          <Node pos="l" depth="2" NCoef="0" IVar="3" Cut="8.5703206062316895e-01" cType="1" res="-2.2056517004966736e-01" rms="3.9509293437004089e-01" purity="2.0111195743083954e-01" nType="0">
            <Node pos="l" depth="3" NCoef="0" IVar="-1" Cut="0.0000000000000000e+00" cType="1" res="-6.2095887959003448e-02" rms="3.0804279446601868e-01" purity="1.0771295428276062e-01" nType="-99"/>
            <Node pos="r" depth="3" NCoef="0" IVar="-1" Cut="0.0000000000000000e+00" cType="1" res="-3.2450463622808456e-02" rms="4.4192197918891907e-01" purity="2.7408149838447571e-01" nType="-99"/>
          </Node>
          <Node pos="r" depth="2" NCoef="0" IVar="9" Cut="7.0000000000000000e+00" cType="1" res="-6.6243535839021206e-03" rms="4.9320751428604126e-01" purity="4.8029127717018127e-01" nType="0">
            <Node pos="l" depth="3" NCoef="0" IVar="-1" Cut="0.0000000000000000e+00" cType="1" res="1.7147311940789223e-02" rms="4.8996552824974060e-01" purity="5.9243148565292358e-01" nType="-99"/>
            <Node pos="r" depth="3" NCoef="0" IVar="-1" Cut="0.0000000000000000e+00" cType="1" res="-1.6005363315343857e-02" rms="4.8653137683868408e-01" purity="3.8955721259117126e-01" nType="-99"/>
          </Node>
        </Node>
      </Node>
    </BinaryTree>
    <BinaryTree type="DecisionTree" boostWeight="1.0000000000000000e+00" itree="4">
      <Node pos="s" depth="0" NCoef="0" IVar="9" Cut="6.0000000000000000e+00" cType="1" res="-2.3933888878673315e-03" rms="4.6063771843910217e-01" purity="4.9821919202804565e-01" nType="0">
        <Node pos="l" depth="1" NCoef="0" IVar="3" Cut="8.6331999301910400e-01" cType="1" res="1.3979788124561310e-01" rms="4.3972221016883850e-01" purity="7.1160149574279785e-01" nType="0">
          <Node pos="l" depth="2" NCoef="0" IVar="-1" Cut="0.0000000000000000e+00" cType="1" res="-8.7052183225750923e-03" rms="4.8290216922760010e-01" purity="5.0980710983276367e-01" nType="-99"/>
          <Node pos="r" depth="2" NCoef="0" IVar="9" Cut="5.0000000000000000e+00" cType="1" res="5.8946184813976288e-02" rms="3.1882417201995850e-01" purity="7.6794469356536865e-01" nType="0">
            <Node pos="l" depth="3" NCoef="0" IVar="-1" Cut="0.0000000000000000e+00" cType="1" res="5.3316272795200348e-02" rms="3.5177963972091675e-01" purity="8.4864723682403564e-01" nType="-99"/>
            <Node pos="r" depth="3" NCoef="0" IVar="-1" Cut="0.0000000000000000e+00" cType="1" res="2.5359546765685081e-02" rms="4.5748862624168396e-01" purity="6.8535828590393066e-01" nType="-99"/>
          </Node>
        </Node>
        <Node pos="r" depth="1" NCoef="0" IVar="4" Cut="7.1412068605422974e-01" cType="1" res="-1.3447418808937073e-01" rms="4.4077089428901672e-01" purity="2.9899999499320984e-01" nType="0">
          <Node pos="l" depth="2" NCoef="0" IVar="9" Cut="7.0000000000000000e+00" cType="1" res="-2.1188306808471680e-01" rms="3.8094145059585571e-01" purity="1.8761068582534790e-01" nType="0">
            <Node pos="l" depth="3" NCoef="0" IVar="-1" Cut="0.0000000000000000e+00" cType="1" res="-2.5658780708909035e-02" rms="4.4640192389488220e-01" purity="2.8666526079177856e-01" nType="-99"/>
            <Node pos="r" depth="3" NCoef="0" IVar="-1" Cut="0.0000000000000000e+00" cType="1" res="-5.5492203682661057e-02" rms="3.3014550805091858e-01" purity="1.2887933850288391e-01" nType="-99"/>
          </Node>
          <Node pos="r" depth="2" NCoef="0" IVar="1" Cut="3.9958877563476562e+00" cType="1" res="-1.5794822946190834e-02" rms="4.9325102567672729e-01" purity="4.6999114751815796e-01" nType="0">
            <Node pos="l" depth="3" NCoef="0" IVar="-1" Cut="0.0000000000000000e+00" cType="1" res="-2.2938694804906845e-02" rms="4.7591221332550049e-01" purity="3.6486431956291199e-01" nType="-99"/>
            <Node pos="r" depth="3" NCoef="0" IVar="-1" Cut="0.0000000000000000e+00" cType="1" res="1.1594419367611408e-02" rms="4.9317160248756409e-01" purity="5.4863959550857544e-01" nType="-99"/>
          </Node>
        </Node>
      </Node>
    </BinaryTree>
    <BinaryTree type="DecisionTree" boostWeight="1.0000000000000000e+00" itree="5">
      <Node pos="s" depth="0" NCoef="0" IVar="9" Cut="6.0000000000000000e+00" cType="1" res="5.0588166341185570e-03" rms="4.5458754897117615e-01" purity="5.0754934549331665e-01" nType="0">
        <Node pos="l" depth="1" NCoef="0" IVar="4" Cut="4.2847371101379395e-01" cType="1" res="1.2715706229209900e-01" rms="4.3617510795593262e-01" purity="7.1338880062103271e-01" nType="0">
          <Node pos="l" depth="2" NCoef="0" IVar="-1" Cut="0.0000000000000000e+00" cType="1" res="-6.9144438020884991e-03" rms="4.9515855312347412e-01" purity="4.8393949866294861e-01" nType="-99"/>
          <Node pos="r" depth="2" NCoef="0" IVar="9" Cut="5.0000000000000000e+00" cType="1" res="5.5119119584560394e-02" rms="3.1714779138565063e-01" purity="7.8165549039840698e-01" nType="0">
            <Node pos="l" depth="3" NCoef="0" IVar="-1" Cut="0.0000000000000000e+00" cType="1" res="5.0136532634496689e-02" rms="3.4038829803466797e-01" purity="8.6168950796127319e-01" nType="-99"/>
            <Node pos="r" depth="3" NCoef="0" IVar="-1" Cut="0.0000000000000000e+00" cType="1" res="2.3336432874202728e-02" rms="4.5519480109214783e-01" purity="6.9676768779754639e-01" nType="-99"/>
          </Node>
        </Node>
        <Node pos="r" depth="1" NCoef="0" IVar="4" Cut="5.7128041982650757e-01" cType="1" res="-1.1314911395311356e-01" rms="4.4169569015502930e-01" purity="3.0692359805107117e-01" nType="0">
          <Node pos="l" depth="2" NCoef="0" IVar="3" Cut="8.5698270797729492e-01" cType="1" res="-2.0034782588481903e-01" rms="3.6974427103996277e-01" purity="1.6975520551204681e-01" nType="0">
            <Node pos="l" depth="3" NCoef="0" IVar="-1" Cut="0.0000000000000000e+00" cType="1" res="-5.8003418147563934e-02" rms="2.7965506911277771e-01" purity="8.6248315870761871e-02" nType="-99"/>
            <Node pos="r" depth="3" NCoef="0" IVar="-1" Cut="0.0000000000000000e+00" cType="1" res="-3.0629724264144897e-02" rms="4.2548754811286926e-01" purity="2.4234500527381897e-01" nType="-99"/>
          </Node>
          <Node pos="r" depth="2" NCoef="0" IVar="9" Cut="7.0000000000000000e+00" cType="1" res="-2.8014484792947769e-02" rms="4.8585644364356995e-01" purity="4.4257622957229614e-01" nType="0">
            <Node pos="l" depth="3" NCoef="0" IVar="-1" Cut="0.0000000000000000e+00" cType="1" res="1.1087312363088131e-02" rms="4.9259760975837708e-01" purity="5.5296128988265991e-01" nType="-99"/>
            <Node pos="r" depth="3" NCoef="0" IVar="-1" Cut="0.0000000000000000e+00" cType="1" res="-1.8483512103557587e-02" rms="4.7408390045166016e-01" purity="3.5627254843711853e-01" nType="-99"/>
          </Node>
        </Node>
      </Node>
    </BinaryTree>
    <BinaryTree type="DecisionTree" boostWeight="1.0000000000000000e+00" itree="6">
      <Node pos="s" depth="0" NCoef="0" IVar="9" Cut="6.0000000000000000e+00" cType="1" res="7.2838193736970425e-03" rms="4.4962739944458008e-01" purity="5.0874066352844238e-01" nType="0">
        <Node pos="l" depth="1" NCoef="0" IVar="3" Cut="8.6792212724685669e-01" cType="1" res="1.1771991848945618e-01" rms="4.3379572033882141e-01" purity="7.1534013748168945e-01" nType="0">
          <Node pos="l" depth="2" NCoef="0" IVar="-1" Cut="0.0000000000000000e+00" cType="1" res="-7.4175759218633175e-03" rms="4.8168104887008667e-01" purity="5.2115339040756226e-01" nType="-99"/>
          <Node pos="r" depth="2" NCoef="0" IVar="1" Cut="3.2614359855651855e+00" cType="1" res="1.6345234215259552e-01" rms="4.0745824575424194e-01" purity="7.7304482460021973e-01" nType="0">
            <Node pos="l" depth="3" NCoef="0" IVar="-1" Cut="0.0000000000000000e+00" cType="1" res="1.6992084681987762e-02" rms="4.5012468099594116e-01" purity="6.8599522113800049e-01" nType="-99"/>
            <Node pos="r" depth="3" NCoef="0" IVar="-1" Cut="0.0000000000000000e+00" cType="1" res="4.3565619736909866e-02" rms="3.7778243422508240e-01" purity="8.1627029180526733e-01" nType="-99"/>
          </Node>
        </Node>
        <Node pos="r" depth="1" NCoef="0" IVar="9" Cut="8.0000000000000000e+00" cType="1" res="-9.8549291491508484e-02" rms="4.3808731436729431e-01" purity="3.1022927165031433e-01" nType="0">
          <Node pos="l" depth="2" NCoef="0" IVar="3" Cut="8.5695850849151611e-01" cType="1" res="-4.3625712394714355e-02" rms="4.6289268136024475e-01" purity="3.7661153078079224e-01" nType="0">
            <Node pos="l" depth="3" NCoef="0" IVar="-1" Cut="0.0000000000000000e+00" cType="1" res="-3.7645600736141205e-02" rms="3.8145476579666138e-01" purity="1.9637551903724670e-01" nType="-99"/>
            <Node pos="r" depth="3" NCoef="0" IVar="-1" Cut="0.0000000000000000e+00" cType="1" res="2.8788754716515541e-03" rms="4.8421773314476013e-01" purity="4.5762082934379578e-01" nType="-99"/>
          </Node>
          <Node pos="r" depth="2" NCoef="0" IVar="-1" Cut="0.0000000000000000e+00" cType="1" res="-4.6556875109672546e-02" rms="3.5846298933029175e-01" purity="1.6447466611862183e-01" nType="-99"/>
        </Node>
      </Node>
    </BinaryTree>
    <BinaryTree type="DecisionTree" boostWeight="1.0000000000000000e+00" itree="7">
      <Node pos="s" depth="0" NCoef="0" IVar="9" Cut="6.0000000000000000e+00" cType="1" res="6.4773725171107799e-05" rms="4.4560670852661133e-01" purity="5.0128823518753052e-01" nType="0">
        <Node pos="l" depth="1" NCoef="0" IVar="4" Cut="4.2847371101379395e-01" cType="1" res="1.0065452009439468e-01" rms="4.3379205465316772e-01" purity="7.1141362190246582e-01" nType="0">
          <Node pos="l" depth="2" NCoef="0" IVar="-1" Cut="0.0000000000000000e+00" cType="1" res="-9.6738962456583977e-03" rms="4.9158504605293274e-01" purity="4.7608464956283569e-01" nType="-99"/>
          <Node pos="r" depth="2" NCoef="0" IVar="0" Cut="4.5412207031250000e+02" cType="1" res="1.4296634495258331e-01" rms="4.0605673193931580e-01" purity="7.7832931280136108e-01" nType="0">
            <Node pos="l" depth="3" NCoef="0" IVar="-1" Cut="0.0000000000000000e+00" cType="1" res="6.6514993086457253e-03" rms="4.7857764363288879e-01" purity="6.3344210386276245e-01" nType="-99"/>
            <Node pos="r" depth="3" NCoef="0" IVar="-1" Cut="0.0000000000000000e+00" cType="1" res="3.8866803050041199e-02" rms="3.7468653917312622e-01" purity="8.2252573966979980e-01" nType="-99"/>
          </Node>
        </Node>
        <Node pos="r" depth="1" NCoef="0" IVar="4" Cut="4.2843973636627197e-01" cType="1" res="-9.3866176903247833e-02" rms="4.3647491931915283e-01" purity="3.0444952845573425e-01" nType="0">
          <Node pos="l" depth="2" NCoef="0" IVar="1" Cut="4.1354103088378906e+00" cType="1" res="-1.8723668158054352e-01" rms="3.4968140721321106e-01" purity="1.5019540488719940e-01" nType="0">
            <Node pos="l" depth="3" NCoef="0" IVar="-1" Cut="0.0000000000000000e+00" cType="1" res="-5.1263198256492615e-02" rms="3.0508127808570862e-01" purity="1.0945285856723785e-01" nType="-99"/>
            <Node pos="r" depth="3" NCoef="0" IVar="-1" Cut="0.0000000000000000e+00" cType="1" res="-3.1362373381853104e-02" rms="3.9030224084854126e-01" purity="1.9803212583065033e-01" nType="-99"/>
          </Node>
          <Node pos="r" depth="2" NCoef="0" IVar="1" Cut="3.8547825813293457e+00" cType="1" res="-3.5060491412878036e-02" rms="4.7385179996490479e-01" purity="4.0160036087036133e-01" nType="0">
            <Node pos="l" depth="3" NCoef="0" IVar="-1" Cut="0.0000000000000000e+00" cType="1" res="-2.6602394878864288e-02" rms="4.4324913620948792e-01" purity="2.9353749752044678e-01" nType="-99"/>
            <Node pos="r" depth="3" NCoef="0" IVar="-1" Cut="0.0000000000000000e+00" cType="1" res="5.2206120453774929e-03" rms="4.8330065608024597e-01" purity="4.7200703620910645e-01" nType="-99"/>
          </Node>
        </Node>
      </Node>
    </BinaryTree>
    <BinaryTree type="DecisionTree" boostWeight="1.0000000000000000e+00" itree="8">
      <Node pos="s" depth="0" NCoef="0" IVar="9" Cut="5.0000000000000000e+00" cType="1" res="-5.0297188572585583e-03" rms="4.4179409742355347e-01" purity="4.9632507562637329e-01" nType="0">
        <Node pos="l" depth="1" NCoef="0" IVar="6" Cut="6.1904764175415039e-01" cType="1" res="1.6083063185214996e-01" rms="3.7368845939636230e-01" purity="8.1104540824890137e-01" nType="0">
          <Node pos="l" depth="2" NCoef="0" IVar="-1" Cut="0.0000000000000000e+00" cType="1" res="1.9584141671657562e-02" rms="4.2347183823585510e-01" purity="7.3088139295578003e-01" nType="-99"/>
          <Node pos="r" depth="2" NCoef="0" IVar="-1" Cut="0.0000000000000000e+00" cType="1" res="4.8300519585609436e-02" rms="3.2207170128822327e-01" purity="8.6996465921401978e-01" nType="-99"/>
        </Node>
        <Node pos="r" depth="1" NCoef="0" IVar="4" Cut="7.1417653560638428e-01" cType="1" res="-5.5933456867933273e-02" rms="4.4910863041877747e-01" purity="3.9903166890144348e-01" nType="0">
          <Node pos="l" depth="2" NCoef="0" IVar="3" Cut="7.1833181381225586e-01" cType="1" res="-1.2892892956733704e-01" rms="4.1806593537330627e-01" purity="2.6889815926551819e-01" nType="0">
            <Node pos="l" depth="3" NCoef="0" IVar="-1" Cut="0.0000000000000000e+00" cType="1" res="-5.2933234721422195e-02" rms="3.1381699442863464e-01" purity="1.2065877020359039e-01" nType="-99"/>
            <Node pos="r" depth="3" NCoef="0" IVar="-1" Cut="0.0000000000000000e+00" cType="1" res="-1.9585683941841125e-02" rms="4.4483819603919983e-01" purity="3.2425424456596375e-01" nType="-99"/>
          </Node>
          <Node pos="r" depth="2" NCoef="0" IVar="1" Cut="3.5834591388702393e+00" cType="1" res="4.2814414948225021e-02" rms="4.7027200460433960e-01" purity="5.7507550716400146e-01" nType="0">
            <Node pos="l" depth="3" NCoef="0" IVar="-1" Cut="0.0000000000000000e+00" cType="1" res="-1.1121664196252823e-02" rms="4.7486576437950134e-01" purity="4.6672925353050232e-01" nType="-99"/>
            <Node pos="r" depth="3" NCoef="0" IVar="-1" Cut="0.0000000000000000e+00" cType="1" res="1.8755635246634483e-02" rms="4.6057137846946716e-01" purity="6.2870150804519653e-01" nType="-99"/>
          </Node>
        </Node>
      </Node>
    </BinaryTree>
    <BinaryTree type="DecisionTree" boostWeight="1.0000000000000000e+00" itree="9">
      <Node pos="s" depth="0" NCoef="0" IVar="9" Cut="7.0000000000000000e+00" cType="1" res="-3.6808976437896490e-03" rms="4.3604531884193420e-01" purity="4.9676942825317383e-01" nType="0">
        <Node pos="l" depth="1" NCoef="0" IVar="4" Cut="4.2842131853103638e-01" cType="1" res="5.6561082601547241e-02" rms="4.4185176491737366e-01" purity="6.2048906087875366e-01" nType="0">
          <Node pos="l" depth="2" NCoef="0" IVar="3" Cut="9.0772008895874023e-01" cType="1" res="-6.6677764058113098e-02" rms="4.5828619599342346e-01" purity="3.7719693779945374e-01" nType="0">
            <Node pos="l" depth="3" NCoef="0" IVar="-1" Cut="0.0000000000000000e+00" cType="1" res="-3.1889125704765320e-02" rms="4.1830494999885559e-01" purity="2.6468485593795776e-01" nType="-99"/>
            <Node pos="r" depth="3" NCoef="0" IVar="-1" Cut="0.0000000000000000e+00" cType="1" res="3.4724134020507336e-03" rms="4.8187348246574402e-01" purity="4.9259090423583984e-01" nType="-99"/>
          </Node>
          <Node pos="r" depth="2" NCoef="0" IVar="5" Cut="3.3333334326744080e-01" cType="1" res="1.0082916170358658e-01" rms="4.2720478773117065e-01" purity="7.0788091421127319e-01" nType="0">
            <Node pos="l" depth="3" NCoef="0" IVar="-1" Cut="0.0000000000000000e+00" cType="1" res="-1.0601449757814407e-03" rms="4.6768146753311157e-01" purity="5.8131271600723267e-01" nType="-99"/>
            <Node pos="r" depth="3" NCoef="0" IVar="-1" Cut="0.0000000000000000e+00" cType="1" res="2.9156811535358429e-02" rms="4.0882959961891174e-01" purity="7.4616795778274536e-01" nType="-99"/>
          </Node>
        </Node>
        <Node pos="r" depth="1" NCoef="0" IVar="3" Cut="9.5542013645172119e-01" cType="1" res="-1.3771383464336395e-01" rms="3.9288362860679626e-01" purity="2.1767984330654144e-01" nType="0">
          <Node pos="l" depth="2" NCoef="0" IVar="1" Cut="4.0876684188842773e+00" cType="1" res="-1.8770940601825714e-01" rms="3.2862523198127747e-01" purity="1.3623403012752533e-01" nType="0">
            <Node pos="l" depth="3" NCoef="0" IVar="-1" Cut="0.0000000000000000e+00" cType="1" res="-5.0620391964912415e-02" rms="2.8719869256019592e-01" purity="9.7753658890724182e-02" nType="-99"/>
            <Node pos="r" depth="3" NCoef="0" IVar="-1" Cut="0.0000000000000000e+00" cType="1" res="-3.7121996283531189e-02" rms="3.6400529742240906e-01" purity="1.7526812851428986e-01" nType="-99"/>
          </Node>
          <Node pos="r" depth="2" NCoef="0" IVar="-1" Cut="0.0000000000000000e+00" cType="1" res="-1.5784768387675285e-02" rms="4.5373776555061340e-01" purity="3.2078048586845398e-01" nType="-99"/>
        </Node>
      </Node>
    </BinaryTree>
    <BinaryTree type="DecisionTree" boostWeight="1.0000000000000000e+00" itree="10">
      <Node pos="s" depth="0" NCoef="0" IVar="9" Cut="5.0000000000000000e+00" cType="1" res="-3.6370274610817432e-03" rms="4.3415778875350952e-01" purity="4.9783730506896973e-01" nType="0">
        <Node pos="l" depth="1" NCoef="0" IVar="0" Cut="6.6375964355468750e+02" cType="1" res="1.3752822577953339e-01" rms="3.7187516689300537e-01" purity="8.1004410982131958e-01" nType="0">
          <Node pos="l" depth="2" NCoef="0" IVar="-1" Cut="0.0000000000000000e+00" cType="1" res="1.6807142645120621e-02" rms="4.2084249854087830e-01" purity="7.3019635677337646e-01" nType="-99"/>
          <Node pos="r" depth="2" NCoef="0" IVar="-1" Cut="0.0000000000000000e+00" cType="1" res="4.6797685325145721e-02" rms="3.0819359421730042e-01" purity="8.8431507349014282e-01" nType="-99"/>
        </Node>
        <Node pos="r" depth="1" NCoef="0" IVar="4" Cut="7.1417653560638428e-01" cType="1" res="-4.8019159585237503e-02" rms="4.4333741068840027e-01" purity="3.9895680546760559e-01" nType="0">
          <Node pos="l" depth="2" NCoef="0" IVar="3" Cut="8.5703206062316895e-01" cType="1" res="-1.0845683515071869e-01" rms="4.1324496269226074e-01" purity="2.7138915657997131e-01" nType="0">
            <Node pos="l" depth="3" NCoef="0" IVar="-1" Cut="0.0000000000000000e+00" cType="1" res="-4.0936350822448730e-02" rms="3.4956592321395874e-01" purity="1.5487433969974518e-01" nType="-99"/>
            <Node pos="r" depth="3" NCoef="0" IVar="-1" Cut="0.0000000000000000e+00" cType="1" res="-1.3580688275396824e-02" rms="4.4881463050842285e-01" purity="3.5677757859230042e-01" nType="-99"/>
          </Node>
          <Node pos="r" depth="2" NCoef="0" IVar="0" Cut="7.5064215087890625e+02" cType="1" res="3.3694729208946228e-02" rms="4.6881046891212463e-01" purity="5.7143276929855347e-01" nType="0">
            <Node pos="l" depth="3" NCoef="0" IVar="-1" Cut="0.0000000000000000e+00" cType="1" res="-1.8830522894859314e-03" rms="4.7295895218849182e-01" purity="5.2032625675201416e-01" nType="-99"/>
            <Node pos="r" depth="3" NCoef="0" IVar="-1" Cut="0.0000000000000000e+00" cType="1" res="2.2227482870221138e-02" rms="4.5270779728889465e-01" purity="6.5752226114273071e-01" nType="-99"/>
          </Node>
        </Node>
      </Node>
    </BinaryTree>
    <BinaryTree type="DecisionTree" boostWeight="1.0000000000000000e+00" itree="11">
      <Node pos="s" depth="0" NCoef="0" IVar="9" Cut="6.0000000000000000e+00" cType="1" res="2.7136504650115967e-04" rms="4.3308293819427490e-01" purity="4.9952098727226257e-01" nType="0">
        <Node pos="l" depth="1" NCoef="0" IVar="0" Cut="4.5407641601562500e+02" cType="1" res="7.0604220032691956e-02" rms="4.2654836177825928e-01" purity="7.0553857088088989e-01" nType="0">
          <Node pos="l" depth="2" NCoef="0" IVar="-1" Cut="0.0000000000000000e+00" cType="1" res="-8.3998506888747215e-03" rms="4.7907149791717529e-01" purity="5.4366487264633179e-01" nType="-99"/>
          <Node pos="r" depth="2" NCoef="0" IVar="7" Cut="6.0022972106933594e+01" cType="1" res="1.0666880756616592e-01" rms="4.0140959620475769e-01" purity="7.5838696956634521e-01" nType="0">
            <Node pos="l" depth="3" NCoef="0" IVar="-1" Cut="0.0000000000000000e+00" cType="1" res="3.5739470273256302e-02" rms="3.6072766780853271e-01" purity="8.2373517751693726e-01" nType="-99"/>
            <Node pos="r" depth="3" NCoef="0" IVar="-1" Cut="0.0000000000000000e+00" cType="1" res="6.9622886367142200e-03" rms="4.4930383563041687e-01" purity="6.5330392122268677e-01" nType="-99"/>
          </Node>
        </Node>
        <Node pos="r" depth="1" NCoef="0" IVar="4" Cut="8.5698795318603516e-01" cType="1" res="-6.4850024878978729e-02" rms="4.3002879619598389e-01" purity="3.0654206871986389e-01" nType="0">
          <Node pos="l" depth="2" NCoef="0" IVar="0" Cut="9.2438439941406250e+02" cType="1" res="-9.9353231489658356e-02" rms="4.0256479382514954e-01" purity="2.3419401049613953e-01" nType="0">
            <Node pos="l" depth="3" NCoef="0" IVar="-1" Cut="0.0000000000000000e+00" cType="1" res="-2.9349070042371750e-02" rms="3.8459575176239014e-01" purity="2.0491459965705872e-01" nType="-99"/>
            <Node pos="r" depth="3" NCoef="0" IVar="-1" Cut="0.0000000000000000e+00" cType="1" res="-4.3147597461938858e-03" rms="4.4344490766525269e-01" purity="3.2366499304771423e-01" nType="-99"/>
          </Node>
          <Node pos="r" depth="2" NCoef="0" IVar="-1" Cut="0.0000000000000000e+00" cType="1" res="6.5811136737465858e-03" rms="4.8636907339096069e-01" purity="5.1042425632476807e-01" nType="-99"/>
        </Node>
      </Node>
    </BinaryTree>
    <BinaryTree type="DecisionTree" boostWeight="1.0000000000000000e+00" itree="12">
      <Node pos="s" depth="0" NCoef="0" IVar="9" Cut="7.0000000000000000e+00" cType="1" res="2.7064760797657073e-04" rms="4.3046319484710693e-01" purity="4.9919015169143677e-01" nType="0">
        <Node pos="l" depth="1" NCoef="0" IVar="3" Cut="8.6169886589050293e-01" cType="1" res="4.6166613698005676e-02" rms="4.3692749738693237e-01" purity="6.1867988109588623e-01" nType="0">
          <Node pos="l" depth="2" NCoef="0" IVar="0" Cut="6.0430010986328125e+02" cType="1" res="-6.9105856120586395e-02" rms="4.3735411763191223e-01" purity="4.0208157896995544e-01" nType="0">
            <Node pos="l" depth="3" NCoef="0" IVar="-1" Cut="0.0000000000000000e+00" cType="1" res="-3.0900942161679268e-02" rms="4.2094340920448303e-01" purity="3.0082803964614868e-01" nType="-99"/>
            <Node pos="r" depth="3" NCoef="0" IVar="-1" Cut="0.0000000000000000e+00" cType="1" res="-5.6179816601797938e-04" rms="4.4212210178375244e-01" purity="4.9782383441925049e-01" nType="-99"/>
          </Node>
          <Node pos="r" depth="2" NCoef="0" IVar="0" Cut="4.9527697753906250e+02" cType="1" res="8.3689123392105103e-02" rms="4.3017551302909851e-01" purity="6.8918514251708984e-01" nType="0">
            <Node pos="l" depth="3" NCoef="0" IVar="-1" Cut="0.0000000000000000e+00" cType="1" res="3.4585027606226504e-04" rms="4.7440862655639648e-01" purity="5.5906057357788086e-01" nType="-99"/>
            <Node pos="r" depth="3" NCoef="0" IVar="-1" Cut="0.0000000000000000e+00" cType="1" res="2.8129484504461288e-02" rms="4.0146443247795105e-01" purity="7.5136911869049072e-01" nType="-99"/>
          </Node>
        </Node>
        <Node pos="r" depth="1" NCoef="0" IVar="3" Cut="9.5523333549499512e-01" cType="1" res="-1.0054778307676315e-01" rms="3.9902326464653015e-01" purity="2.3174650967121124e-01" nType="0">
          <Node pos="l" depth="2" NCoef="0" IVar="4" Cut="4.2839029431343079e-01" cType="1" res="-1.4514885842800140e-01" rms="3.3624902367591858e-01" purity="1.4561837911605835e-01" nType="0">
            <Node pos="l" depth="3" NCoef="0" IVar="-1" Cut="0.0000000000000000e+00" cType="1" res="-4.7363433986902237e-02" rms="2.4985022842884064e-01" purity="6.7783758044242859e-02" nType="-99"/>
            <Node pos="r" depth="3" NCoef="0" IVar="-1" Cut="0.0000000000000000e+00" cType="1" res="-2.6916353031992912e-02" rms="4.0405219793319702e-01" purity="2.2503912448883057e-01" nType="-99"/>
          </Node>
          <Node pos="r" depth="2" NCoef="0" IVar="-1" Cut="0.0000000000000000e+00" cType="1" res="-9.8712379112839699e-03" rms="4.5872053503990173e-01" purity="3.3744114637374878e-01" nType="-99"/>
        </Node>
      </Node>
    </BinaryTree>
    <BinaryTree type="DecisionTree" boostWeight="1.0000000000000000e+00" itree="13">
      <Node pos="s" depth="0" NCoef="0" IVar="9" Cut="7.0000000000000000e+00" cType="1" res="4.1341679170727730e-03" rms="4.2864206433296204e-01" purity="5.0366407632827759e-01" nType="0">
        <Node pos="l" depth="1" NCoef="0" IVar="4" Cut="2.8558531403541565e-01" cType="1" res="4.5677013695240021e-02" rms="4.3603095412254333e-01" purity="6.2399399280548096e-01" nType="0">
          <Node pos="l" depth="2" NCoef="0" IVar="-1" Cut="0.0000000000000000e+00" cType="1" res="-2.1247668191790581e-02" rms="4.3693262338638306e-01" purity="3.2964888215065002e-01" nType="-99"/>
          <Node pos="r" depth="2" NCoef="0" IVar="1" Cut="2.9442572593688965e+00" cType="1" res="7.2085946798324585e-02" rms="4.3068799376487732e-01" purity="6.7818021774291992e-01" nType="0">
            <Node pos="l" depth="3" NCoef="0" IVar="-1" Cut="0.0000000000000000e+00" cType="1" res="-7.1055502630770206e-03" rms="4.5724514126777649e-01" purity="5.6064003705978394e-01" nType="-99"/>
            <Node pos="r" depth="3" NCoef="0" IVar="-1" Cut="0.0000000000000000e+00" cType="1" res="2.2015057504177094e-02" rms="4.2039459943771362e-01" purity="7.0601761341094971e-01" nType="-99"/>
          </Node>
        </Node>
        <Node pos="r" depth="1" NCoef="0" IVar="4" Cut="7.1413856744766235e-01" cType="1" res="-8.7343364953994751e-02" rms="3.9850676059722900e-01" purity="2.3587980866432190e-01" nType="0">
          <Node pos="l" depth="2" NCoef="0" IVar="10" Cut="6.5232580566406250e+02" cType="1" res="-1.2771274149417877e-01" rms="3.3337235450744629e-01" purity="1.3609148561954498e-01" nType="0">
            <Node pos="l" depth="3" NCoef="0" IVar="-1" Cut="0.0000000000000000e+00" cType="1" res="-4.0026150643825531e-02" rms="3.0353111028671265e-01" purity="1.1064039915800095e-01" nType="-99"/>
            <Node pos="r" depth="3" NCoef="0" IVar="-1" Cut="0.0000000000000000e+00" cType="1" res="-2.5546414777636528e-02" rms="3.6268937587738037e-01" purity="1.6563594341278076e-01" nType="-99"/>
          </Node>
          <Node pos="r" depth="2" NCoef="0" IVar="-1" Cut="0.0000000000000000e+00" cType="1" res="-3.8197524845600128e-03" rms="4.8221477866172791e-01" purity="4.0592366456985474e-01" nType="-99"/>
        </Node>
      </Node>
    </BinaryTree>
    <BinaryTree type="DecisionTree" boostWeight="1.0000000000000000e+00" itree="14">
      <Node pos="s" depth="0" NCoef="0" IVar="9" Cut="5.0000000000000000e+00" cType="1" res="3.5900340881198645e-03" rms="4.2480868101119995e-01" purity="5.0520223379135132e-01" nType="0">
        <Node pos="l" depth="1" NCoef="0" IVar="0" Cut="6.6823205566406250e+02" cType="1" res="1.1320100724697113e-01" rms="3.6487588286399841e-01" purity="8.1667745113372803e-01" nType="0">
          <Node pos="l" depth="2" NCoef="0" IVar="-1" Cut="0.0000000000000000e+00" cType="1" res="1.5098732896149158e-02" rms="4.1660079360008240e-01" purity="7.3923629522323608e-01" nType="-99"/>
          <Node pos="r" depth="2" NCoef="0" IVar="-1" Cut="0.0000000000000000e+00" cType="1" res="4.1136447340250015e-02" rms="3.0336126685142517e-01" purity="8.8742423057556152e-01" nType="-99"/>
        </Node>
        <Node pos="r" depth="1" NCoef="0" IVar="3" Cut="9.5295262336730957e-01" cType="1" res="-2.8893632814288139e-02" rms="4.3707022070884705e-01" purity="4.1138374805450439e-01" nType="0">
          <Node pos="l" depth="2" NCoef="0" IVar="4" Cut="2.8554776310920715e-01" cType="1" res="-9.1690413653850555e-02" rms="4.0077775716781616e-01" purity="2.8319981694221497e-01" nType="0">
            <Node pos="l" depth="3" NCoef="0" IVar="-1" Cut="0.0000000000000000e+00" cType="1" res="-4.2904380708932877e-02" rms="3.0897361040115356e-01" purity="1.1297895014286041e-01" nType="-99"/>
            <Node pos="r" depth="3" NCoef="0" IVar="-1" Cut="0.0000000000000000e+00" cType="1" res="-1.4216003939509392e-02" rms="4.2985296249389648e-01" purity="3.5417911410331726e-01" nType="-99"/>
          </Node>
          <Node pos="r" depth="2" NCoef="0" IVar="5" Cut="4.2857143282890320e-01" cType="1" res="3.0032759532332420e-02" rms="4.6085911989212036e-01" purity="5.3166729211807251e-01" nType="0">
            <Node pos="l" depth="3" NCoef="0" IVar="-1" Cut="0.0000000000000000e+00" cType="1" res="-1.2215002439916134e-02" rms="4.6087637543678284e-01" purity="4.2391672730445862e-01" nType="-99"/>
            <Node pos="r" depth="3" NCoef="0" IVar="-1" Cut="0.0000000000000000e+00" cType="1" res="1.6160979866981506e-02" rms="4.5443826913833618e-01" purity="5.8717250823974609e-01" nType="-99"/>
          </Node>
        </Node>
      </Node>
    </BinaryTree>
    <BinaryTree type="DecisionTree" boostWeight="1.0000000000000000e+00" itree="15">
      <Node pos="s" depth="0" NCoef="0" IVar="4" Cut="7.1417653560638428e-01" cType="1" res="-1.9216826185584068e-03" rms="4.2192679643630981e-01" purity="5.0037169456481934e-01" nType="0">
        <Node pos="l" depth="1" NCoef="0" IVar="3" Cut="9.5296448469161987e-01" cType="1" res="-5.6312352418899536e-02" rms="4.1096934676170349e-01" purity="3.5219466686248779e-01" nType="0">
          <Node pos="l" depth="2" NCoef="0" IVar="0" Cut="6.6071502685546875e+02" cType="1" res="-1.0616830736398697e-01" rms="3.7729033827781677e-01" purity="2.5152641534805298e-01" nType="0">
            <Node pos="l" depth="3" NCoef="0" IVar="-1" Cut="0.0000000000000000e+00" cType="1" res="-3.6691505461931229e-02" rms="3.5557895898818970e-01" purity="1.9016735255718231e-01" nType="-99"/>
            <Node pos="r" depth="3" NCoef="0" IVar="-1" Cut="0.0000000000000000e+00" cType="1" res="-1.3640095479786396e-02" rms="3.9736765623092651e-01" purity="3.2982385158538818e-01" nType="-99"/>
          </Node>
          <Node pos="r" depth="2" NCoef="0" IVar="9" Cut="6.0000000000000000e+00" cType="1" res="1.4660164713859558e-02" rms="4.4432511925697327e-01" purity="4.9684169888496399e-01" nType="0">
            <Node pos="l" depth="3" NCoef="0" IVar="-1" Cut="0.0000000000000000e+00" cType="1" res="1.6753578558564186e-02" rms="4.3903398513793945e-01" purity="7.0805048942565918e-01" nType="-99"/>
            <Node pos="r" depth="3" NCoef="0" IVar="-1" Cut="0.0000000000000000e+00" cType="1" res="-9.3056540936231613e-03" rms="4.4385683536529541e-01" purity="2.9831069707870483e-01" nType="-99"/>
          </Node>
        </Node>
        <Node pos="r" depth="1" NCoef="0" IVar="5" Cut="6.1904764175415039e-01" cType="1" res="6.1272345483303070e-02" rms="4.2567023634910583e-01" purity="6.7253184318542480e-01" nType="0">
          <Node pos="l" depth="2" NCoef="0" IVar="0" Cut="6.3849938964843750e+02" cType="1" res="-1.7684741178527474e-03" rms="4.5451757311820984e-01" purity="5.7582259178161621e-01" nType="0">
            <Node pos="l" depth="3" NCoef="0" IVar="-1" Cut="0.0000000000000000e+00" cType="1" res="-1.2323252856731415e-02" rms="4.6798980236053467e-01" purity="4.8462077975273132e-01" nType="-99"/>
            <Node pos="r" depth="3" NCoef="0" IVar="-1" Cut="0.0000000000000000e+00" cType="1" res="1.2234114110469818e-02" rms="4.3377128243446350e-01" purity="6.6608059406280518e-01" nType="-99"/>
          </Node>
          <Node pos="r" depth="2" NCoef="0" IVar="7" Cut="7.2157562255859375e+01" cType="1" res="1.0356882214546204e-01" rms="3.9962971210479736e-01" purity="7.3741781711578369e-01" nType="0">
            <Node pos="l" depth="3" NCoef="0" IVar="-1" Cut="0.0000000000000000e+00" cType="1" res="3.5756684839725494e-02" rms="3.3609578013420105e-01" purity="8.4318357706069946e-01" nType="-99"/>
            <Node pos="r" depth="3" NCoef="0" IVar="-1" Cut="0.0000000000000000e+00" cType="1" res="1.2853978201746941e-02" rms="4.5762312412261963e-01" purity="6.1677080392837524e-01" nType="-99"/>
          </Node>
        </Node>
      </Node>
    </BinaryTree>
    <BinaryTree type="DecisionTree" boostWeight="1.0000000000000000e+00" itree="16">
      <Node pos="s" depth="0" NCoef="0" IVar="3" Cut="7.1836882829666138e-01" cType="1" res="6.6473172046244144e-04" rms="4.2292141914367676e-01" purity="5.0111943483352661e-01" nType="0">
        <Node pos="l" depth="1" NCoef="0" IVar="-1" Cut="0.0000000000000000e+00" cType="1" res="-3.0941490083932877e-02" rms="3.5429888963699341e-01" purity="2.2113162279129028e-01" nType="-99"/>
        <Node pos="r" depth="1" NCoef="0" IVar="9" Cut="8.0000000000000000e+00" cType="1" res="2.3045197129249573e-02" rms="4.3056446313858032e-01" purity="5.5436259508132935e-01" nType="0">
          <Node pos="l" depth="2" NCoef="0" IVar="5" Cut="4.2857143282890320e-01" cType="1" res="4.4386442750692368e-02" rms="4.3291732668876648e-01" purity="6.1154478788375854e-01" nType="0">
            <Node pos="l" depth="3" NCoef="0" IVar="-1" Cut="0.0000000000000000e+00" cType="1" res="-5.6514902971684933e-03" rms="4.4839289784431458e-01" purity="5.0227600336074829e-01" nType="-99"/>
            <Node pos="r" depth="3" NCoef="0" IVar="-1" Cut="0.0000000000000000e+00" cType="1" res="1.7524741590023041e-02" rms="4.2213016748428345e-01" purity="6.6046977043151855e-01" nType="-99"/>
          </Node>
          <Node pos="r" depth="2" NCoef="0" IVar="-1" Cut="0.0000000000000000e+00" cType="1" res="-2.3180266842246056e-02" rms="3.9867275953292847e-01" purity="2.2369730472564697e-01" nType="-99"/>
        </Node>
      </Node>
    </BinaryTree>
    <BinaryTree type="DecisionTree" boostWeight="1.0000000000000000e+00" itree="17">
      <Node pos="s" depth="0" NCoef="0" IVar="9" Cut="8.0000000000000000e+00" cType="1" res="1.2490426888689399e-03" rms="4.1925948858261108e-01" purity="5.0270479917526245e-01" nType="0">
        <Node pos="l" depth="1" NCoef="0" IVar="4" Cut="2.8562232851982117e-01" cType="1" res="2.4787791073322296e-02" rms="4.2827364802360535e-01" purity="5.6873738765716553e-01" nType="0">
          <Node pos="l" depth="2" NCoef="0" IVar="-1" Cut="0.0000000000000000e+00" cType="1" res="-1.9836474210023880e-02" rms="4.0671378374099731e-01" purity="2.7723971009254456e-01" nType="-99"/>
          <Node pos="r" depth="2" NCoef="0" IVar="0" Cut="4.5178500366210938e+02" cType="1" res="4.7324508428573608e-02" rms="4.2923262715339661e-01" purity="6.2964010238647461e-01" nType="0">
            <Node pos="l" depth="3" NCoef="0" IVar="-1" Cut="0.0000000000000000e+00" cType="1" res="-6.6108503378927708e-03" rms="4.6581393480300903e-01" purity="4.7036024928092957e-01" nType="-99"/>
            <Node pos="r" depth="3" NCoef="0" IVar="-1" Cut="0.0000000000000000e+00" cType="1" res="1.8094910308718681e-02" rms="4.1140672564506531e-01" purity="6.8791520595550537e-01" nType="-99"/>
          </Node>
        </Node>
        <Node pos="r" depth="1" NCoef="0" IVar="-1" Cut="0.0000000000000000e+00" cType="1" res="-3.0818611383438110e-02" rms="3.5054928064346313e-01" purity="1.6232880949974060e-01" nType="-99"/>
      </Node>
    </BinaryTree>
    <BinaryTree type="DecisionTree" boostWeight="1.0000000000000000e+00" itree="18">
      <Node pos="s" depth="0" NCoef="0" IVar="3" Cut="8.1222057342529297e-01" cType="1" res="2.5094398297369480e-03" rms="4.1905075311660767e-01" purity="5.0549292564392090e-01" nType="0">
        <Node pos="l" depth="1" NCoef="0" IVar="0" Cut="4.8319543457031250e+02" cType="1" res="-9.0963110327720642e-02" rms="3.7017041444778442e-01" purity="2.5599321722984314e-01" nType="0">
          <Node pos="l" depth="2" NCoef="0" IVar="-1" Cut="0.0000000000000000e+00" cType="1" res="-3.8605194538831711e-02" rms="3.3593934774398804e-01" purity="1.5507751703262329e-01" nType="-99"/>
          <Node pos="r" depth="2" NCoef="0" IVar="-1" Cut="0.0000000000000000e+00" cType="1" res="-1.5585508197546005e-02" rms="3.8455921411514282e-01" purity="3.1221401691436768e-01" nType="-99"/>
        </Node>
        <Node pos="r" depth="1" NCoef="0" IVar="9" Cut="6.0000000000000000e+00" cType="1" res="2.9148608446121216e-02" rms="4.2785531282424927e-01" purity="5.7763803005218506e-01" nType="0">
          <Node pos="l" depth="2" NCoef="0" IVar="6" Cut="6.1904764175415039e-01" cType="1" res="7.2452314198017120e-02" rms="3.9937168359756470e-01" purity="7.6336765289306641e-01" nType="0">
            <Node pos="l" depth="3" NCoef="0" IVar="-1" Cut="0.0000000000000000e+00" cType="1" res="6.9770407862961292e-03" rms="4.3286666274070740e-01" purity="7.0442891120910645e-01" nType="-99"/>
            <Node pos="r" depth="3" NCoef="0" IVar="-1" Cut="0.0000000000000000e+00" cType="1" res="2.9449293389916420e-02" rms="3.5645949840545654e-01" purity="8.2377469539642334e-01" nType="-99"/>
          </Node>
          <Node pos="r" depth="2" NCoef="0" IVar="1" Cut="5.1999611854553223e+00" cType="1" res="-1.8024861812591553e-02" rms="4.5365414023399353e-01" purity="3.7179103493690491e-01" nType="0">
            <Node pos="l" depth="3" NCoef="0" IVar="-1" Cut="0.0000000000000000e+00" cType="1" res="-1.0973878204822540e-02" rms="4.4454783201217651e-01" purity="3.3322694897651672e-01" nType="-99"/>
            <Node pos="r" depth="3" NCoef="0" IVar="-1" Cut="0.0000000000000000e+00" cType="1" res="1.7714291810989380e-02" rms="4.6837216615676880e-01" purity="4.9573460221290588e-01" nType="-99"/>
          </Node>
        </Node>
      </Node>
    </BinaryTree>
    <BinaryTree type="DecisionTree" boostWeight="1.0000000000000000e+00" itree="19">
      <Node pos="s" depth="0" NCoef="0" IVar="9" Cut="5.0000000000000000e+00" cType="1" res="-8.1759029999375343e-03" rms="4.1678166389465332e-01" purity="4.9144288897514343e-01" nType="0">
        <Node pos="l" depth="1" NCoef="0" IVar="6" Cut="7.1428573131561279e-01" cType="1" res="8.3426095545291901e-02" rms="3.6121535301208496e-01" purity="8.1575834751129150e-01" nType="0">
          <Node pos="l" depth="2" NCoef="0" IVar="-1" Cut="0.0000000000000000e+00" cType="1" res="6.8387533538043499e-03" rms="4.0324258804321289e-01" purity="7.4279242753982544e-01" nType="-99"/>
          <Node pos="r" depth="2" NCoef="0" IVar="-1" Cut="0.0000000000000000e+00" cType="1" res="3.7829242646694183e-02" rms="3.0703988671302795e-01" purity="8.8449227809906006e-01" nType="-99"/>
        </Node>
        <Node pos="r" depth="1" NCoef="0" IVar="1" Cut="3.2668077945709229e+00" cType="1" res="-3.5900738090276718e-02" rms="4.2906543612480164e-01" purity="3.9249414205551147e-01" nType="0">
          <Node pos="l" depth="2" NCoef="0" IVar="5" Cut="7.1428573131561279e-01" cType="1" res="-1.1544937640428543e-01" rms="4.0077245235443115e-01" purity="2.8965637087821960e-01" nType="0">
            <Node pos="l" depth="3" NCoef="0" IVar="-1" Cut="0.0000000000000000e+00" cType="1" res="-3.7963010370731354e-02" rms="3.7604191899299622e-01" purity="2.1902661025524139e-01" nType="-99"/>
            <Node pos="r" depth="3" NCoef="0" IVar="-1" Cut="0.0000000000000000e+00" cType="1" res="-1.8368791788816452e-02" rms="4.1769531369209290e-01" purity="3.5153335332870483e-01" nType="-99"/>
          </Node>
          <Node pos="r" depth="2" NCoef="0" IVar="3" Cut="7.2348552942276001e-01" cType="1" res="-8.7472274899482727e-03" rms="4.3498748540878296e-01" purity="4.2759731411933899e-01" nType="0">
            <Node pos="l" depth="3" NCoef="0" IVar="-1" Cut="0.0000000000000000e+00" cType="1" res="-2.9772404581308365e-02" rms="3.4419828653335571e-01" purity="1.6320341825485229e-01" nType="-99"/>
            <Node pos="r" depth="3" NCoef="0" IVar="-1" Cut="0.0000000000000000e+00" cType="1" res="2.7749494183808565e-03" rms="4.4940483570098877e-01" purity="4.8452109098434448e-01" nType="-99"/>
          </Node>
        </Node>
      </Node>
    </BinaryTree>
    <BinaryTree type="DecisionTree" boostWeight="1.0000000000000000e+00" itree="20">
      <Node pos="s" depth="0" NCoef="0" IVar="4" Cut="7.1413856744766235e-01" cType="1" res="-2.1072707604616880e-03" rms="4.1728934645652771e-01" purity="4.9864736199378967e-01" nType="0">
        <Node pos="l" depth="1" NCoef="0" IVar="1" Cut="2.9339032173156738e+00" cType="1" res="-4.2137186974287033e-02" rms="4.0866616368293762e-01" purity="3.5158783197402954e-01" nType="0">
          <Node pos="l" depth="2" NCoef="0" IVar="-1" Cut="0.0000000000000000e+00" cType="1" res="-3.3908858895301819e-02" rms="3.7946730852127075e-01" purity="2.5589111447334290e-01" nType="-99"/>
          <Node pos="r" depth="2" NCoef="0" IVar="3" Cut="9.5296448469161987e-01" cType="1" res="-2.2243447601795197e-02" rms="4.1174814105033875e-01" purity="3.7161296606063843e-01" nType="0">
            <Node pos="l" depth="3" NCoef="0" IVar="-1" Cut="0.0000000000000000e+00" cType="1" res="-1.5986472368240356e-02" rms="3.8345196843147278e-01" purity="2.6824167370796204e-01" nType="-99"/>
            <Node pos="r" depth="3" NCoef="0" IVar="-1" Cut="0.0000000000000000e+00" cType="1" res="7.0980601012706757e-03" rms="4.4315057992935181e-01" purity="5.1692754030227661e-01" nType="-99"/>
          </Node>
        </Node>
        <Node pos="r" depth="1" NCoef="0" IVar="9" Cut="7.0000000000000000e+00" cType="1" res="4.2758274823427200e-02" rms="4.2184594273567200e-01" purity="6.6630756855010986e-01" nType="0">
          <Node pos="l" depth="2" NCoef="0" IVar="5" Cut="4.2857143282890320e-01" cType="1" res="6.8041659891605377e-02" rms="4.0358242392539978e-01" purity="7.5565683841705322e-01" nType="0">
            <Node pos="l" depth="3" NCoef="0" IVar="-1" Cut="0.0000000000000000e+00" cType="1" res="3.2733804546296597e-03" rms="4.4399714469909668e-01" purity="6.6168594360351562e-01" nType="-99"/>
            <Node pos="r" depth="3" NCoef="0" IVar="-1" Cut="0.0000000000000000e+00" cType="1" res="2.2668529301881790e-02" rms="3.8404488563537598e-01" purity="7.9338455200195312e-01" nType="-99"/>
          </Node>
          <Node pos="r" depth="2" NCoef="0" IVar="-1" Cut="0.0000000000000000e+00" cType="1" res="-7.6275966130197048e-03" rms="4.6948370337486267e-01" purity="3.7493479251861572e-01" nType="-99"/>
        </Node>
      </Node>
    </BinaryTree>
    <BinaryTree type="DecisionTree" boostWeight="1.0000000000000000e+00" itree="21">
      <Node pos="s" depth="0" NCoef="0" IVar="5" Cut="4.2857143282890320e-01" cType="1" res="1.1158053530380130e-03" rms="4.1925030946731567e-01" purity="4.9861350655555725e-01" nType="0">
        <Node pos="l" depth="1" NCoef="0" IVar="0" Cut="6.3829443359375000e+02" cType="1" res="-5.6301143020391464e-02" rms="4.1790470480918884e-01" purity="3.8570299744606018e-01" nType="0">
          <Node pos="l" depth="2" NCoef="0" IVar="6" Cut="5.2371996641159058e-01" cType="1" res="-1.0108994692564011e-01" rms="4.1119697690010071e-01" purity="3.0872401595115662e-01" nType="0">
            <Node pos="l" depth="3" NCoef="0" IVar="-1" Cut="0.0000000000000000e+00" cType="1" res="-2.9637685045599937e-02" rms="4.0519258379936218e-01" purity="2.7026289701461792e-01" nType="-99"/>
            <Node pos="r" depth="3" NCoef="0" IVar="-1" Cut="0.0000000000000000e+00" cType="1" res="-1.8730036914348602e-02" rms="4.1619870066642761e-01" purity="3.4989607334136963e-01" nType="-99"/>
          </Node>
          <Node pos="r" depth="2" NCoef="0" IVar="-1" Cut="0.0000000000000000e+00" cType="1" res="-1.5030064387246966e-03" rms="4.1965472698211670e-01" purity="4.7190779447555542e-01" nType="-99"/>
        </Node>
        <Node pos="r" depth="1" NCoef="0" IVar="9" Cut="7.0000000000000000e+00" cType="1" res="2.8304425999522209e-02" rms="4.1682660579681396e-01" purity="5.5247825384140015e-01" nType="0">
          <Node pos="l" depth="2" NCoef="0" IVar="1" Cut="2.9442572593688965e+00" cType="1" res="5.2883937954902649e-02" rms="4.1820955276489258e-01" purity="6.6451573371887207e-01" nType="0">
            <Node pos="l" depth="3" NCoef="0" IVar="-1" Cut="0.0000000000000000e+00" cType="1" res="-7.0986906066536903e-03" rms="4.4566449522972107e-01" purity="5.4367810487747192e-01" nType="-99"/>
            <Node pos="r" depth="3" NCoef="0" IVar="-1" Cut="0.0000000000000000e+00" cType="1" res="1.7964873462915421e-02" rms="4.0863561630249023e-01" purity="6.9410550594329834e-01" nType="-99"/>
          </Node>
          <Node pos="r" depth="2" NCoef="0" IVar="1" Cut="4.2025585174560547e+00" cType="1" res="-3.4741453826427460e-02" rms="4.0751886367797852e-01" purity="2.6178565621376038e-01" nType="0">
            <Node pos="l" depth="3" NCoef="0" IVar="-1" Cut="0.0000000000000000e+00" cType="1" res="-2.0914584398269653e-02" rms="3.7055590748786926e-01" purity="1.9120596349239349e-01" nType="-99"/>
            <Node pos="r" depth="3" NCoef="0" IVar="-1" Cut="0.0000000000000000e+00" cType="1" res="3.4789550118148327e-03" rms="4.4051867723464966e-01" purity="3.4159651398658752e-01" nType="-99"/>
          </Node>
        </Node>
      </Node>
    </BinaryTree>
    <BinaryTree type="DecisionTree" boostWeight="1.0000000000000000e+00" itree="22">
      <Node pos="s" depth="0" NCoef="0" IVar="4" Cut="2.8562232851982117e-01" cType="1" res="2.6596470270305872e-03" rms="4.1367101669311523e-01" purity="5.0617021322250366e-01" nType="0">
        <Node pos="l" depth="1" NCoef="0" IVar="3" Cut="9.0604096651077271e-01" cType="1" res="-8.4340602159500122e-02" rms="3.6914938688278198e-01" purity="2.1675752103328705e-01" nType="0">
          <Node pos="l" depth="2" NCoef="0" IVar="-1" Cut="0.0000000000000000e+00" cType="1" res="-3.4081894904375076e-02" rms="3.0410906672477722e-01" purity="1.2411846220493317e-01" nType="-99"/>
          <Node pos="r" depth="2" NCoef="0" IVar="-1" Cut="0.0000000000000000e+00" cType="1" res="-1.1276764795184135e-02" rms="4.3462723493576050e-01" purity="3.3303761482238770e-01" nType="-99"/>
        </Node>
        <Node pos="r" depth="1" NCoef="0" IVar="9" Cut="8.0000000000000000e+00" cType="1" res="2.1636709570884705e-02" rms="4.1968724131584167e-01" purity="5.7227712869644165e-01" nType="0">
          <Node pos="l" depth="2" NCoef="0" IVar="0" Cut="8.8178796386718750e+02" cType="1" res="3.8604669272899628e-02" rms="4.2347002029418945e-01" purity="6.3106036186218262e-01" nType="0">
            <Node pos="l" depth="3" NCoef="0" IVar="-1" Cut="0.0000000000000000e+00" cType="1" res="4.0928577072918415e-03" rms="4.3114498257637024e-01" purity="5.9476459026336670e-01" nType="-99"/>
            <Node pos="r" depth="3" NCoef="0" IVar="-1" Cut="0.0000000000000000e+00" cType="1" res="2.3658892139792442e-02" rms="3.9702495932579041e-01" purity="7.2665041685104370e-01" nType="-99"/>
          </Node>
          <Node pos="r" depth="2" NCoef="0" IVar="-1" Cut="0.0000000000000000e+00" cType="1" res="-1.9441308453679085e-02" rms="3.8871228694915771e-01" purity="2.1123832464218140e-01" nType="-99"/>
        </Node>
      </Node>
    </BinaryTree>
    <BinaryTree type="DecisionTree" boostWeight="1.0000000000000000e+00" itree="23">
      <Node pos="s" depth="0" NCoef="0" IVar="2" Cut="2.0943205356597900e+00" cType="1" res="-3.7651523598469794e-04" rms="4.1498017311096191e-01" purity="5.0165891647338867e-01" nType="0">
        <Node pos="l" depth="1" NCoef="0" IVar="0" Cut="4.5042761230468750e+02" cType="1" res="2.9170043766498566e-02" rms="4.1400814056396484e-01" purity="5.4607921838760376e-01" nType="0">
          <Node pos="l" depth="2" NCoef="0" IVar="0" Cut="3.5022924804687500e+02" cType="1" res="-4.1578598320484161e-02" rms="4.2836990952491760e-01" purity="3.8964864611625671e-01" nType="0">
            <Node pos="l" depth="3" NCoef="0" IVar="-1" Cut="0.0000000000000000e+00" cType="1" res="-2.1935785189270973e-02" rms="4.1462072730064392e-01" purity="3.1940796971321106e-01" nType="-99"/>
            <Node pos="r" depth="3" NCoef="0" IVar="-1" Cut="0.0000000000000000e+00" cType="1" res="9.7449868917465210e-04" rms="4.3571084737777710e-01" purity="4.5445400476455688e-01" nType="-99"/>
          </Node>
          <Node pos="r" depth="2" NCoef="0" IVar="9" Cut="7.0000000000000000e+00" cType="1" res="5.6117627769708633e-02" rms="4.0337541699409485e-01" purity="6.0813444852828979e-01" nType="0">
            <Node pos="l" depth="3" NCoef="0" IVar="-1" Cut="0.0000000000000000e+00" cType="1" res="2.1402642130851746e-02" rms="3.9650624990463257e-01" purity="7.2938323020935059e-01" nType="-99"/>
            <Node pos="r" depth="3" NCoef="0" IVar="-1" Cut="0.0000000000000000e+00" cType="1" res="-5.2101528272032738e-03" rms="4.1704618930816650e-01" purity="2.7323070168495178e-01" nType="-99"/>
          </Node>
        </Node>
        <Node pos="r" depth="1" NCoef="0" IVar="0" Cut="8.6822424316406250e+02" cType="1" res="-5.7900898158550262e-02" rms="4.1081467270851135e-01" purity="4.1517671942710876e-01" nType="0">
          <Node pos="l" depth="2" NCoef="0" IVar="5" Cut="6.1904764175415039e-01" cType="1" res="-8.6683794856071472e-02" rms="4.0901470184326172e-01" purity="3.6066198348999023e-01" nType="0">
            <Node pos="l" depth="3" NCoef="0" IVar="-1" Cut="0.0000000000000000e+00" cType="1" res="-3.1741980463266373e-02" rms="3.9704245328903198e-01" purity="2.7294939756393433e-01" nType="-99"/>
            <Node pos="r" depth="3" NCoef="0" IVar="-1" Cut="0.0000000000000000e+00" cType="1" res="-1.3779330067336559e-02" rms="4.1510874032974243e-01" purity="4.2766717076301575e-01" nType="-99"/>
          </Node>
          <Node pos="r" depth="2" NCoef="0" IVar="-1" Cut="0.0000000000000000e+00" cType="1" res="4.1757637518458068e-04" rms="4.0812000632286072e-01" purity="5.2795559167861938e-01" nType="-99"/>
        </Node>
      </Node>
    </BinaryTree>
    <BinaryTree type="DecisionTree" boostWeight="1.0000000000000000e+00" itree="24">
      <Node pos="s" depth="0" NCoef="0" IVar="4" Cut="7.1413856744766235e-01" cType="1" res="3.9302645018324256e-04" rms="4.1460585594177246e-01" purity="4.9784079194068909e-01" nType="0">
        <Node pos="l" depth="1" NCoef="0" IVar="1" Cut="2.9115829467773438e+00" cType="1" res="-3.3313546329736710e-02" rms="4.0553674101829529e-01" purity="3.5401108860969543e-01" nType="0">
          <Node pos="l" depth="2" NCoef="0" IVar="-1" Cut="0.0000000000000000e+00" cType="1" res="-2.9728865250945091e-02" rms="3.7944322824478149e-01" purity="2.5096803903579712e-01" nType="-99"/>
          <Node pos="r" depth="2" NCoef="0" IVar="4" Cut="1.9715753197669983e-01" cType="1" res="-1.6117939725518227e-02" rms="4.0859821438789368e-01" purity="3.7525320053100586e-01" nType="0">
            <Node pos="l" depth="3" NCoef="0" IVar="-1" Cut="0.0000000000000000e+00" cType="1" res="-2.4351809173822403e-02" rms="3.6634925007820129e-01" purity="1.8822008371353149e-01" nType="-99"/>
            <Node pos="r" depth="3" NCoef="0" IVar="-1" Cut="0.0000000000000000e+00" cType="1" res="3.2569369068369269e-04" rms="4.1654348373413086e-01" purity="4.2144143581390381e-01" nType="-99"/>
          </Node>
        </Node>
        <Node pos="r" depth="1" NCoef="0" IVar="7" Cut="3.5339859008789062e+01" cType="1" res="4.0100246667861938e-02" rms="4.2159822583198547e-01" purity="6.6727584600448608e-01" nType="0">
          <Node pos="l" depth="2" NCoef="0" IVar="-1" Cut="0.0000000000000000e+00" cType="1" res="2.7613883838057518e-02" rms="3.3050814270973206e-01" purity="8.4608721733093262e-01" nType="-99"/>
          <Node pos="r" depth="2" NCoef="0" IVar="4" Cut="9.5902723073959351e-01" cType="1" res="2.0679309964179993e-02" rms="4.4712597131729126e-01" purity="6.0555797815322876e-01" nType="0">
            <Node pos="l" depth="3" NCoef="0" IVar="-1" Cut="0.0000000000000000e+00" cType="1" res="-2.3034292098600417e-04" rms="4.4902753829956055e-01" purity="5.7565951347351074e-01" nType="-99"/>
            <Node pos="r" depth="3" NCoef="0" IVar="-1" Cut="0.0000000000000000e+00" cType="1" res="1.4100652188062668e-02" rms="4.4075006246566772e-01" purity="6.6110223531723022e-01" nType="-99"/>
          </Node>
        </Node>
      </Node>
    </BinaryTree>
    <BinaryTree type="DecisionTree" boostWeight="1.0000000000000000e+00" itree="25">
      <Node pos="s" depth="0" NCoef="0" IVar="9" Cut="5.0000000000000000e+00" cType="1" res="-2.3448602296411991e-03" rms="4.1298705339431763e-01" purity="4.9904969334602356e-01" nType="0">
        <Node pos="l" depth="1" NCoef="0" IVar="6" Cut="7.1428573131561279e-01" cType="1" res="6.4164385199546814e-02" rms="3.5516351461410522e-01" purity="8.1383341550827026e-01" nType="0">
          <Node pos="l" depth="2" NCoef="0" IVar="-1" Cut="0.0000000000000000e+00" cType="1" res="5.5037271231412888e-03" rms="3.9419433474540710e-01" purity="7.5023961067199707e-01" nType="-99"/>
          <Node pos="r" depth="2" NCoef="0" IVar="-1" Cut="0.0000000000000000e+00" cType="1" res="3.2523877918720245e-02" rms="3.0409750342369080e-01" purity="8.7843048572540283e-01" nType="-99"/>
        </Node>
        <Node pos="r" depth="1" NCoef="0" IVar="4" Cut="8.5698795318603516e-01" cType="1" res="-2.1671963855624199e-02" rms="4.2771050333976746e-01" purity="4.0374326705932617e-01" nType="0">
          <Node pos="l" depth="2" NCoef="0" IVar="1" Cut="3.5677475929260254e+00" cType="1" res="-4.4267769902944565e-02" rms="4.1343033313751221e-01" purity="3.1967398524284363e-01" nType="0">
            <Node pos="l" depth="3" NCoef="0" IVar="-1" Cut="0.0000000000000000e+00" cType="1" res="-2.2724065929651260e-02" rms="3.8504782319068909e-01" purity="2.5043714046478271e-01" nType="-99"/>
            <Node pos="r" depth="3" NCoef="0" IVar="-1" Cut="0.0000000000000000e+00" cType="1" res="-4.7632954083383083e-03" rms="4.2710655927658081e-01" purity="3.6004257202148438e-01" nType="-99"/>
          </Node>
          <Node pos="r" depth="2" NCoef="0" IVar="4" Cut="9.7264528274536133e-01" cType="1" res="3.2566472887992859e-02" rms="4.5563295483589172e-01" purity="6.0554122924804688e-01" nType="0">
            <Node pos="l" depth="3" NCoef="0" IVar="-1" Cut="0.0000000000000000e+00" cType="1" res="1.4434157637879252e-03" rms="4.5891222357749939e-01" purity="5.6965315341949463e-01" nType="-99"/>
            <Node pos="r" depth="3" NCoef="0" IVar="-1" Cut="0.0000000000000000e+00" cType="1" res="1.5354464761912823e-02" rms="4.4850546121597290e-01" purity="6.5554684400558472e-01" nType="-99"/>
          </Node>
        </Node>
      </Node>
    </BinaryTree>
    <BinaryTree type="DecisionTree" boostWeight="1.0000000000000000e+00" itree="26">
      <Node pos="s" depth="0" NCoef="0" IVar="3" Cut="7.2348552942276001e-01" cType="1" res="1.1027350556105375e-03" rms="4.1194751858711243e-01" purity="5.0193613767623901e-01" nType="0">
        <Node pos="l" depth="1" NCoef="0" IVar="-1" Cut="0.0000000000000000e+00" cType="1" res="-2.3851418867707253e-02" rms="3.4399473667144775e-01" purity="2.0810784399509430e-01" nType="-99"/>
        <Node pos="r" depth="1" NCoef="0" IVar="5" Cut="6.1904764175415039e-01" cType="1" res="1.6600865870714188e-02" rms="4.2165607213973999e-01" purity="5.5694192647933960e-01" nType="0">
          <Node pos="l" depth="2" NCoef="0" IVar="6" Cut="8.0952382087707520e-01" cType="1" res="-2.4075381457805634e-02" rms="4.3316704034805298e-01" purity="4.6100297570228577e-01" nType="0">
            <Node pos="l" depth="3" NCoef="0" IVar="-1" Cut="0.0000000000000000e+00" cType="1" res="-1.1005000211298466e-02" rms="4.3865424394607544e-01" purity="4.2205172777175903e-01" nType="-99"/>
            <Node pos="r" depth="3" NCoef="0" IVar="-1" Cut="0.0000000000000000e+00" cType="1" res="9.3537559732794762e-03" rms="4.1145348548889160e-01" purity="5.6855028867721558e-01" nType="-99"/>
          </Node>
          <Node pos="r" depth="2" NCoef="0" IVar="9" Cut="7.0000000000000000e+00" cType="1" res="4.5279286801815033e-02" rms="4.1033655405044556e-01" purity="6.2537229061126709e-01" nType="0">
            <Node pos="l" depth="3" NCoef="0" IVar="-1" Cut="0.0000000000000000e+00" cType="1" res="1.6297973692417145e-02" rms="4.0313795208930969e-01" purity="7.2591799497604370e-01" nType="-99"/>
            <Node pos="r" depth="3" NCoef="0" IVar="-1" Cut="0.0000000000000000e+00" cType="1" res="-3.4472781699150801e-03" rms="4.2923420667648315e-01" purity="3.0045410990715027e-01" nType="-99"/>
          </Node>
        </Node>
      </Node>
    </BinaryTree>
    <BinaryTree type="DecisionTree" boostWeight="1.0000000000000000e+00" itree="27">
      <Node pos="s" depth="0" NCoef="0" IVar="2" Cut="1.6455655097961426e+00" cType="1" res="-8.6468407971551642e-06" rms="4.1411942243576050e-01" purity="4.9842661619186401e-01" nType="0">
        <Node pos="l" depth="1" NCoef="0" IVar="5" Cut="3.3333334326744080e-01" cType="1" res="3.1893789768218994e-02" rms="4.1237929463386536e-01" purity="5.5127835273742676e-01" nType="0">
          <Node pos="l" depth="2" NCoef="0" IVar="-1" Cut="0.0000000000000000e+00" cType="1" res="-4.6639014035463333e-03" rms="4.2314508557319641e-01" purity="4.3069928884506226e-01" nType="-99"/>
          <Node pos="r" depth="2" NCoef="0" IVar="9" Cut="7.0000000000000000e+00" cType="1" res="5.0637356936931610e-02" rms="4.0554374456405640e-01" purity="5.9747344255447388e-01" nType="0">
            <Node pos="l" depth="3" NCoef="0" IVar="-1" Cut="0.0000000000000000e+00" cType="1" res="1.7648546025156975e-02" rms="4.0123766660690308e-01" purity="7.0905977487564087e-01" nType="-99"/>
            <Node pos="r" depth="3" NCoef="0" IVar="-1" Cut="0.0000000000000000e+00" cType="1" res="-3.4838946885429323e-04" rms="4.1676282882690430e-01" purity="2.7809351682662964e-01" nType="-99"/>
          </Node>
        </Node>
        <Node pos="r" depth="1" NCoef="0" IVar="3" Cut="7.2515881061553955e-01" cType="1" res="-3.3516179770231247e-02" rms="4.1329619288444519e-01" purity="4.4291573762893677e-01" nType="0">
          <Node pos="l" depth="2" NCoef="0" IVar="-1" Cut="0.0000000000000000e+00" cType="1" res="-3.2781567424535751e-02" rms="3.1482481956481934e-01" purity="1.6634804010391235e-01" nType="-99"/>
          <Node pos="r" depth="2" NCoef="0" IVar="0" Cut="9.2438500976562500e+02" cType="1" res="-1.8149066716432571e-02" rms="4.2906555533409119e-01" purity="4.9951663613319397e-01" nType="0">
            <Node pos="l" depth="3" NCoef="0" IVar="-1" Cut="0.0000000000000000e+00" cType="1" res="-9.3387914821505547e-03" rms="4.3300944566726685e-01" purity="4.5716121792793274e-01" nType="-99"/>
            <Node pos="r" depth="3" NCoef="0" IVar="-1" Cut="0.0000000000000000e+00" cType="1" res="7.9990392550826073e-03" rms="4.1485655307769775e-01" purity="6.0566264390945435e-01" nType="-99"/>
          </Node>
        </Node>
      </Node>
    </BinaryTree>
    <BinaryTree type="DecisionTree" boostWeight="1.0000000000000000e+00" itree="28">
      <Node pos="s" depth="0" NCoef="0" IVar="3" Cut="7.1838068962097168e-01" cType="1" res="5.3866519592702389e-03" rms="4.1369080543518066e-01" purity="5.0416254997253418e-01" nType="0">
        <Node pos="l" depth="1" NCoef="0" IVar="-1" Cut="0.0000000000000000e+00" cType="1" res="-1.9784927368164062e-02" rms="3.4416273236274719e-01" purity="2.0807005465030670e-01" nType="-99"/>
        <Node pos="r" depth="1" NCoef="0" IVar="1" Cut="2.9407527446746826e+00" cType="1" res="1.8767163157463074e-02" rms="4.2424073815345764e-01" purity="5.6016325950622559e-01" nType="0">
          <Node pos="l" depth="2" NCoef="0" IVar="-1" Cut="0.0000000000000000e+00" cType="1" res="-1.2866445817053318e-02" rms="4.2778769135475159e-01" purity="4.5662868022918701e-01" nType="-99"/>
          <Node pos="r" depth="2" NCoef="0" IVar="9" Cut="8.0000000000000000e+00" cType="1" res="3.2983455806970596e-02" rms="4.2176273465156555e-01" purity="5.8098840713500977e-01" nType="0">
            <Node pos="l" depth="3" NCoef="0" IVar="-1" Cut="0.0000000000000000e+00" cType="1" res="1.1677420698106289e-02" rms="4.2396071553230286e-01" purity="6.4490592479705811e-01" nType="-99"/>
            <Node pos="r" depth="3" NCoef="0" IVar="-1" Cut="0.0000000000000000e+00" cType="1" res="-1.1143671348690987e-02" rms="4.0327680110931396e-01" purity="2.3163212835788727e-01" nType="-99"/>
          </Node>
        </Node>
      </Node>
    </BinaryTree>
    <BinaryTree type="DecisionTree" boostWeight="1.0000000000000000e+00" itree="29">
      <Node pos="s" depth="0" NCoef="0" IVar="7" Cut="5.1076297760009766e+01" cType="1" res="-9.3902088701725006e-04" rms="4.1189643740653992e-01" purity="4.9767336249351501e-01" nType="0">
        <Node pos="l" depth="1" NCoef="0" IVar="6" Cut="5.2380955219268799e-01" cType="1" res="4.8021219670772552e-02" rms="3.7661805748939514e-01" purity="7.1193635463714600e-01" nType="0">
          <Node pos="l" depth="2" NCoef="0" IVar="-1" Cut="0.0000000000000000e+00" cType="1" res="-7.7249022433534265e-04" rms="4.0044909715652466e-01" purity="6.2405675649642944e-01" nType="-99"/>
          <Node pos="r" depth="2" NCoef="0" IVar="-1" Cut="0.0000000000000000e+00" cType="1" res="2.3196898400783539e-02" rms="3.5509014129638672e-01" purity="7.7235972881317139e-01" nType="-99"/>
        </Node>
        <Node pos="r" depth="1" NCoef="0" IVar="0" Cut="1.2610664062500000e+03" cType="1" res="-2.1927082911133766e-02" rms="4.2439991235733032e-01" purity="4.0582406520843506e-01" nType="0">
          <Node pos="l" depth="2" NCoef="0" IVar="5" Cut="6.1904764175415039e-01" cType="1" res="-3.4264538437128067e-02" rms="4.2082056403160095e-01" purity="3.8914540410041809e-01" nType="0">
            <Node pos="l" depth="3" NCoef="0" IVar="-1" Cut="0.0000000000000000e+00" cType="1" res="-1.7209080979228020e-02" rms="4.1068786382675171e-01" purity="3.1156983971595764e-01" nType="-99"/>
            <Node pos="r" depth="3" NCoef="0" IVar="-1" Cut="0.0000000000000000e+00" cType="1" res="-1.6303913434967399e-03" rms="4.2705458402633667e-01" purity="4.5348566770553589e-01" nType="-99"/>
          </Node>
          <Node pos="r" depth="2" NCoef="0" IVar="-1" Cut="0.0000000000000000e+00" cType="1" res="1.5724809840321541e-02" rms="4.3897700309753418e-01" purity="5.2107554674148560e-01" nType="-99"/>
        </Node>
      </Node>
    </BinaryTree>
    <BinaryTree type="DecisionTree" boostWeight="1.0000000000000000e+00" itree="30">
      <Node pos="s" depth="0" NCoef="0" IVar="4" Cut="4.2847371101379395e-01" cType="1" res="6.3179386779665947e-04" rms="4.0854823589324951e-01" purity="5.0062483549118042e-01" nType="0">
        <Node pos="l" depth="1" NCoef="0" IVar="0" Cut="6.9625097656250000e+02" cType="1" res="-4.5047301799058914e-02" rms="3.7975978851318359e-01" purity="2.6192328333854675e-01" nType="0">
          <Node pos="l" depth="2" NCoef="0" IVar="6" Cut="5.2380955219268799e-01" cType="1" res="-6.8070694804191589e-02" rms="3.6338290572166443e-01" purity="2.1237695217132568e-01" nType="0">
            <Node pos="l" depth="3" NCoef="0" IVar="-1" Cut="0.0000000000000000e+00" cType="1" res="-2.4982897564768791e-02" rms="3.5020524263381958e-01" purity="1.8398648500442505e-01" nType="-99"/>
            <Node pos="r" depth="3" NCoef="0" IVar="-1" Cut="0.0000000000000000e+00" cType="1" res="-1.3412569649517536e-02" rms="3.7580564618110657e-01" purity="2.4260234832763672e-01" nType="-99"/>
          </Node>
          <Node pos="r" depth="2" NCoef="0" IVar="-1" Cut="0.0000000000000000e+00" cType="1" res="-3.1925512012094259e-03" rms="3.9976009726524353e-01" purity="3.3291622996330261e-01" nType="-99"/>
        </Node>
        <Node pos="r" depth="1" NCoef="0" IVar="5" Cut="6.1904764175415039e-01" cType="1" res="2.1065076813101768e-02" rms="4.1918060183525085e-01" purity="6.0740143060684204e-01" nType="0">
          <Node pos="l" depth="2" NCoef="0" IVar="0" Cut="6.6796527099609375e+02" cType="1" res="-1.4012823812663555e-02" rms="4.3460601568222046e-01" purity="5.1559209823608398e-01" nType="0">
            <Node pos="l" depth="3" NCoef="0" IVar="-1" Cut="0.0000000000000000e+00" cType="1" res="-1.2056126259267330e-02" rms="4.4245737791061401e-01" purity="4.2250025272369385e-01" nType="-99"/>
            <Node pos="r" depth="3" NCoef="0" IVar="-1" Cut="0.0000000000000000e+00" cType="1" res="6.8905432708561420e-03" rms="4.2174723744392395e-01" purity="6.1984771490097046e-01" nType="-99"/>
          </Node>
          <Node pos="r" depth="2" NCoef="0" IVar="2" Cut="2.2436170578002930e+00" cType="1" res="4.5656517148017883e-02" rms="4.0621688961982727e-01" purity="6.7176455259323120e-01" nType="0">
            <Node pos="l" depth="3" NCoef="0" IVar="-1" Cut="0.0000000000000000e+00" cType="1" res="1.6012823209166527e-02" rms="3.9757719635963440e-01" purity="6.9978588819503784e-01" nType="-99"/>
            <Node pos="r" depth="3" NCoef="0" IVar="-1" Cut="0.0000000000000000e+00" cType="1" res="2.0457743667066097e-03" rms="4.2463028430938721e-01" purity="6.0206019878387451e-01" nType="-99"/>
          </Node>
        </Node>
      </Node>
    </BinaryTree>
    <BinaryTree type="DecisionTree" boostWeight="1.0000000000000000e+00" itree="31">
      <Node pos="s" depth="0" NCoef="0" IVar="3" Cut="9.5408231019973755e-01" cType="1" res="6.8049482069909573e-04" rms="4.1060093045234680e-01" purity="4.9977916479110718e-01" nType="0">
        <Node pos="l" depth="1" NCoef="0" IVar="8" Cut="8.4149847412109375e+02" cType="1" res="-3.0513849109411240e-02" rms="3.9334824681282043e-01" purity="3.6322399973869324e-01" nType="0">
          <Node pos="l" depth="2" NCoef="0" IVar="8" Cut="-7.0535595703125000e+02" cType="1" res="-4.5397583395242691e-02" rms="3.8981649279594421e-01" purity="3.3900302648544312e-01" nType="0">
            <Node pos="l" depth="3" NCoef="0" IVar="-1" Cut="0.0000000000000000e+00" cType="1" res="2.1430966444313526e-03" rms="4.0800893306732178e-01" purity="4.2655837535858154e-01" nType="-99"/>
            <Node pos="r" depth="3" NCoef="0" IVar="-1" Cut="0.0000000000000000e+00" cType="1" res="-1.9112113863229752e-02" rms="3.7916794419288635e-01" purity="3.0046671628952026e-01" nType="-99"/>
          </Node>
          <Node pos="r" depth="2" NCoef="0" IVar="-1" Cut="0.0000000000000000e+00" cType="1" res="8.2572791725397110e-03" rms="4.0179398655891418e-01" purity="4.6277227997779846e-01" nType="-99"/>
        </Node>
        <Node pos="r" depth="1" NCoef="0" IVar="3" Cut="9.9769133329391479e-01" cType="1" res="2.7042884379625320e-02" rms="4.2284461855888367e-01" purity="6.1518216133117676e-01" nType="0">
          <Node pos="l" depth="2" NCoef="0" IVar="9" Cut="6.0000000000000000e+00" cType="1" res="9.3193650245666504e-03" rms="4.2420604825019836e-01" purity="5.9181058406829834e-01" nType="0">
            <Node pos="l" depth="3" NCoef="0" IVar="-1" Cut="0.0000000000000000e+00" cType="1" res="9.8137296736240387e-03" rms="3.9223253726959229e-01" purity="7.7324521541595459e-01" nType="-99"/>
            <Node pos="r" depth="3" NCoef="0" IVar="-1" Cut="0.0000000000000000e+00" cType="1" res="-4.0278704836964607e-03" rms="4.5749250054359436e-01" purity="3.8710069656372070e-01" nType="-99"/>
          </Node>
          <Node pos="r" depth="2" NCoef="0" IVar="-1" Cut="0.0000000000000000e+00" cType="1" res="2.0665315911173820e-02" rms="4.1094172000885010e-01" purity="6.9245445728302002e-01" nType="-99"/>
        </Node>
      </Node>
    </BinaryTree>
    <BinaryTree type="DecisionTree" boostWeight="1.0000000000000000e+00" itree="32">
      <Node pos="s" depth="0" NCoef="0" IVar="8" Cut="1.1056927490234375e+03" cType="1" res="3.1727593159303069e-04" rms="4.0950819849967957e-01" purity="4.9746361374855042e-01" nType="0">
        <Node pos="l" depth="1" NCoef="0" IVar="7" Cut="4.0529846191406250e+01" cType="1" res="-1.2409027665853500e-02" rms="4.1126999258995056e-01" purity="4.7654137015342712e-01" nType="0">
          <Node pos="l" depth="2" NCoef="0" IVar="6" Cut="6.1904764175415039e-01" cType="1" res="4.1480600833892822e-02" rms="3.7984693050384521e-01" purity="7.1828842163085938e-01" nType="0">
            <Node pos="l" depth="3" NCoef="0" IVar="-1" Cut="0.0000000000000000e+00" cType="1" res="9.9947163835167885e-04" rms="4.0379446744918823e-01" purity="6.3809251785278320e-01" nType="-99"/>
            <Node pos="r" depth="3" NCoef="0" IVar="-1" Cut="0.0000000000000000e+00" cType="1" res="2.1458428353071213e-02" rms="3.5545873641967773e-01" purity="7.8556829690933228e-01" nType="-99"/>
          </Node>
          <Node pos="r" depth="2" NCoef="0" IVar="10" Cut="6.1401788330078125e+02" cType="1" res="-2.8793217614293098e-02" rms="4.1898646950721741e-01" purity="4.0304237604141235e-01" nType="0">
            <Node pos="l" depth="3" NCoef="0" IVar="-1" Cut="0.0000000000000000e+00" cType="1" res="-1.2339147739112377e-02" rms="4.2020344734191895e-01" purity="4.2693349719047546e-01" nType="-99"/>
            <Node pos="r" depth="3" NCoef="0" IVar="-1" Cut="0.0000000000000000e+00" cType="1" res="5.2063181065022945e-03" rms="4.1201037168502808e-01" purity="3.4522688388824463e-01" nType="-99"/>
          </Node>
        </Node>
        <Node pos="r" depth="1" NCoef="0" IVar="-1" Cut="0.0000000000000000e+00" cType="1" res="2.0451879128813744e-02" rms="3.8974857330322266e-01" purity="6.2484240531921387e-01" nType="-99"/>
      </Node>
    </BinaryTree>
    <BinaryTree type="DecisionTree" boostWeight="1.0000000000000000e+00" itree="33">
      <Node pos="s" depth="0" NCoef="0" IVar="1" Cut="2.9441883563995361e+00" cType="1" res="3.1455100979655981e-03" rms="4.0847381949424744e-01" purity="5.0454735755920410e-01" nType="0">
        <Node pos="l" depth="1" NCoef="0" IVar="5" Cut="8.0952382087707520e-01" cType="1" res="-5.8982431888580322e-02" rms="4.0731146931648254e-01" purity="3.9882713556289673e-01" nType="0">
          <Node pos="l" depth="2" NCoef="0" IVar="-1" Cut="0.0000000000000000e+00" cType="1" res="-2.5518447160720825e-02" rms="3.9361274242401123e-01" purity="3.1818515062332153e-01" nType="-99"/>
          <Node pos="r" depth="2" NCoef="0" IVar="-1" Cut="0.0000000000000000e+00" cType="1" res="-4.6326331794261932e-03" rms="4.1701647639274597e-01" purity="4.8196730017662048e-01" nType="-99"/>
        </Node>
        <Node pos="r" depth="1" NCoef="0" IVar="9" Cut="8.0000000000000000e+00" cType="1" res="1.5696074813604355e-02" rms="4.0705072879791260e-01" purity="5.2642363309860229e-01" nType="0">
          <Node pos="l" depth="2" NCoef="0" IVar="4" Cut="2.8562232851982117e-01" cType="1" res="2.9683234170079231e-02" rms="4.1284856200218201e-01" purity="5.9415668249130249e-01" nType="0">
            <Node pos="l" depth="3" NCoef="0" IVar="-1" Cut="0.0000000000000000e+00" cType="1" res="-1.0392587631940842e-02" rms="3.9689603447914124e-01" purity="2.7983266115188599e-01" nType="-99"/>
            <Node pos="r" depth="3" NCoef="0" IVar="-1" Cut="0.0000000000000000e+00" cType="1" res="1.1036380194127560e-02" rms="4.1457790136337280e-01" purity="6.5588819980621338e-01" nType="-99"/>
          </Node>
          <Node pos="r" depth="2" NCoef="0" IVar="-1" Cut="0.0000000000000000e+00" cType="1" res="-1.5199802815914154e-02" rms="3.7246140837669373e-01" purity="1.8843816220760345e-01" nType="-99"/>
        </Node>
      </Node>
    </BinaryTree>
    <BinaryTree type="DecisionTree" boostWeight="1.0000000000000000e+00" itree="34">
      <Node pos="s" depth="0" NCoef="0" IVar="9" Cut="7.0000000000000000e+00" cType="1" res="3.2229272183030844e-03" rms="4.0587687492370605e-01" purity="5.0655394792556763e-01" nType="0">
        <Node pos="l" depth="1" NCoef="0" IVar="1" Cut="2.9123930931091309e+00" cType="1" res="2.2646574303507805e-02" rms="4.1519683599472046e-01" purity="6.3142281770706177e-01" nType="0">
          <Node pos="l" depth="2" NCoef="0" IVar="-1" Cut="0.0000000000000000e+00" cType="1" res="-1.1147427372634411e-02" rms="4.3598562479019165e-01" purity="4.8744541406631470e-01" nType="-99"/>
          <Node pos="r" depth="2" NCoef="0" IVar="6" Cut="8.0952382087707520e-01" cType="1" res="3.7893801927566528e-02" rms="4.0886947512626648e-01" purity="6.6345441341400146e-01" nType="0">
            <Node pos="l" depth="3" NCoef="0" IVar="-1" Cut="0.0000000000000000e+00" cType="1" res="4.4980985112488270e-03" rms="4.2493280768394470e-01" purity="6.1822462081909180e-01" nType="-99"/>
            <Node pos="r" depth="3" NCoef="0" IVar="-1" Cut="0.0000000000000000e+00" cType="1" res="2.3286351934075356e-02" rms="3.6639603972434998e-01" purity="7.6491194963455200e-01" nType="-99"/>
          </Node>
        </Node>
        <Node pos="r" depth="1" NCoef="0" IVar="0" Cut="8.7105053710937500e+02" cType="1" res="-3.8689978420734406e-02" rms="3.8385277986526489e-01" purity="2.2365944087505341e-01" nType="0">
          <Node pos="l" depth="2" NCoef="0" IVar="9" Cut="8.0000000000000000e+00" cType="1" res="-4.1567742824554443e-02" rms="2.7006363868713379e-01" purity="1.7902457714080811e-01" nType="0">
            <Node pos="l" depth="3" NCoef="0" IVar="-1" Cut="0.0000000000000000e+00" cType="1" res="-1.0703573003411293e-02" rms="3.9610087871551514e-01" purity="2.3691104352474213e-01" nType="-99"/>
            <Node pos="r" depth="3" NCoef="0" IVar="-1" Cut="0.0000000000000000e+00" cType="1" res="-2.6893636211752892e-02" rms="3.1727150082588196e-01" purity="1.2554010748863220e-01" nType="-99"/>
          </Node>
          <Node pos="r" depth="2" NCoef="0" IVar="-1" Cut="0.0000000000000000e+00" cType="1" res="3.9137303829193115e-03" rms="4.3133035302162170e-01" purity="3.2355624437332153e-01" nType="-99"/>
        </Node>
      </Node>
    </BinaryTree>
    <BinaryTree type="DecisionTree" boostWeight="1.0000000000000000e+00" itree="35">
      <Node pos="s" depth="0" NCoef="0" IVar="7" Cut="4.7663833618164062e+01" cType="1" res="-1.9627592992037535e-03" rms="4.0940767526626587e-01" purity="4.9752900004386902e-01" nType="0">
        <Node pos="l" depth="1" NCoef="0" IVar="6" Cut="6.1904764175415039e-01" cType="1" res="4.7232989221811295e-02" rms="3.7540379166603088e-01" purity="7.2789704799652100e-01" nType="0">
          <Node pos="l" depth="2" NCoef="0" IVar="-1" Cut="0.0000000000000000e+00" cType="1" res="1.3002126943320036e-03" rms="4.0831875801086426e-01" purity="6.3413327932357788e-01" nType="-99"/>
          <Node pos="r" depth="2" NCoef="0" IVar="-1" Cut="0.0000000000000000e+00" cType="1" res="2.5434123352169991e-02" rms="3.4015059471130371e-01" purity="8.0908483266830444e-01" nType="-99"/>
        </Node>
        <Node pos="r" depth="1" NCoef="0" IVar="10" Cut="5.0037463378906250e+02" cType="1" res="-2.1484632045030594e-02" rms="4.2055076360702515e-01" purity="4.0611428022384644e-01" nType="0">
          <Node pos="l" depth="2" NCoef="0" IVar="4" Cut="5.7128912210464478e-01" cType="1" res="-4.3707728385925293e-02" rms="4.2324289679527283e-01" purity="4.4578763842582703e-01" nType="0">
            <Node pos="l" depth="3" NCoef="0" IVar="-1" Cut="0.0000000000000000e+00" cType="1" res="-2.1606925874948502e-02" rms="3.8517406582832336e-01" purity="2.6024934649467468e-01" nType="-99"/>
            <Node pos="r" depth="3" NCoef="0" IVar="-1" Cut="0.0000000000000000e+00" cType="1" res="-3.6998495925217867e-03" rms="4.4830590486526489e-01" purity="5.8871179819107056e-01" nType="-99"/>
          </Node>
          <Node pos="r" depth="2" NCoef="0" IVar="9" Cut="8.0000000000000000e+00" cType="1" res="1.3502641580998898e-02" rms="4.1253620386123657e-01" purity="3.4233275055885315e-01" nType="0">
            <Node pos="l" depth="3" NCoef="0" IVar="-1" Cut="0.0000000000000000e+00" cType="1" res="1.3819090090692043e-02" rms="4.4096222519874573e-01" purity="4.6048173308372498e-01" nType="-99"/>
            <Node pos="r" depth="3" NCoef="0" IVar="-1" Cut="0.0000000000000000e+00" cType="1" res="-1.3355223461985588e-02" rms="3.6500558257102966e-01" purity="1.7932613193988800e-01" nType="-99"/>
          </Node>
        </Node>
      </Node>
    </BinaryTree>
    <BinaryTree type="DecisionTree" boostWeight="1.0000000000000000e+00" itree="36">
      <Node pos="s" depth="0" NCoef="0" IVar="5" Cut="9.0476191043853760e-01" cType="1" res="3.1181375961750746e-03" rms="4.0686491131782532e-01" purity="5.0500917434692383e-01" nType="0">
        <Node pos="l" depth="1" NCoef="0" IVar="0" Cut="9.6936010742187500e+02" cType="1" res="-1.7293184995651245e-02" rms="4.1243845224380493e-01" purity="4.4509351253509521e-01" nType="0">
          <Node pos="l" depth="2" NCoef="0" IVar="8" Cut="-8.2972100830078125e+02" cType="1" res="-3.2838743180036545e-02" rms="4.0893441438674927e-01" purity="4.1297701001167297e-01" nType="0">
            <Node pos="l" depth="3" NCoef="0" IVar="-1" Cut="0.0000000000000000e+00" cType="1" res="6.2174280174076557e-03" rms="4.1562783718109131e-01" purity="5.0041502714157104e-01" nType="-99"/>
            <Node pos="r" depth="3" NCoef="0" IVar="-1" Cut="0.0000000000000000e+00" cType="1" res="-1.2781914323568344e-02" rms="4.0573304891586304e-01" purity="3.8923528790473938e-01" nType="-99"/>
          </Node>
          <Node pos="r" depth="2" NCoef="0" IVar="-1" Cut="0.0000000000000000e+00" cType="1" res="8.3887791261076927e-03" rms="4.1959774494171143e-01" purity="5.4771238565444946e-01" nType="-99"/>
        </Node>
        <Node pos="r" depth="1" NCoef="0" IVar="4" Cut="4.2847371101379395e-01" cType="1" res="3.7815436720848083e-02" rms="3.9479669928550720e-01" purity="6.0685992240905762e-01" nType="0">
          <Node pos="l" depth="2" NCoef="0" IVar="-1" Cut="0.0000000000000000e+00" cType="1" res="-2.5475197471678257e-03" rms="3.9891767501831055e-01" purity="3.3462399244308472e-01" nType="-99"/>
          <Node pos="r" depth="2" NCoef="0" IVar="2" Cut="1.6465913057327271e+00" cType="1" res="5.4773036390542984e-02" rms="3.9192071557044983e-01" purity="7.0453011989593506e-01" nType="0">
            <Node pos="l" depth="3" NCoef="0" IVar="-1" Cut="0.0000000000000000e+00" cType="1" res="2.1636847406625748e-02" rms="3.8363057374954224e-01" purity="7.4342644214630127e-01" nType="-99"/>
            <Node pos="r" depth="3" NCoef="0" IVar="-1" Cut="0.0000000000000000e+00" cType="1" res="7.3805162683129311e-03" rms="3.9941108226776123e-01" purity="6.6021752357482910e-01" nType="-99"/>
          </Node>
        </Node>
      </Node>
    </BinaryTree>
    <BinaryTree type="DecisionTree" boostWeight="1.0000000000000000e+00" itree="37">
      <Node pos="s" depth="0" NCoef="0" IVar="4" Cut="2.8562232851982117e-01" cType="1" res="3.2697778078727424e-04" rms="4.0582033991813660e-01" purity="5.0404226779937744e-01" nType="0">
        <Node pos="l" depth="1" NCoef="0" IVar="4" Cut="1.7675739526748657e-01" cType="1" res="-5.1482051610946655e-02" rms="3.6462366580963135e-01" purity="2.1290840208530426e-01" nType="0">
          <Node pos="l" depth="2" NCoef="0" IVar="-1" Cut="0.0000000000000000e+00" cType="1" res="-2.3412033915519714e-02" rms="3.4848904609680176e-01" purity="1.7730642855167389e-01" nType="-99"/>
          <Node pos="r" depth="2" NCoef="0" IVar="-1" Cut="0.0000000000000000e+00" cType="1" res="-8.3901090547442436e-03" rms="3.7720498442649841e-01" purity="2.4516534805297852e-01" nType="-99"/>
        </Node>
        <Node pos="r" depth="1" NCoef="0" IVar="2" Cut="1.7951443195343018e+00" cType="1" res="1.2050602585077286e-02" rms="4.1367566585540771e-01" purity="5.6992161273956299e-01" nType="0">
          <Node pos="l" depth="2" NCoef="0" IVar="0" Cut="4.7307934570312500e+02" cType="1" res="3.5092368721961975e-02" rms="4.1051927208900452e-01" purity="6.1388480663299561e-01" nType="0">
            <Node pos="l" depth="3" NCoef="0" IVar="-1" Cut="0.0000000000000000e+00" cType="1" res="-4.7459549386985600e-04" rms="4.3766367435455322e-01" purity="4.8553884029388428e-01" nType="-99"/>
            <Node pos="r" depth="3" NCoef="0" IVar="-1" Cut="0.0000000000000000e+00" cType="1" res="1.4286798425018787e-02" rms="3.9593839645385742e-01" purity="6.7415392398834229e-01" nType="-99"/>
          </Node>
          <Node pos="r" depth="2" NCoef="0" IVar="1" Cut="3.2513306140899658e+00" cType="1" res="-1.8157435581088066e-02" rms="4.1584798693656921e-01" purity="5.1228535175323486e-01" nType="0">
            <Node pos="l" depth="3" NCoef="0" IVar="-1" Cut="0.0000000000000000e+00" cType="1" res="-1.6995428130030632e-02" rms="4.1279199719429016e-01" purity="4.3677026033401489e-01" nType="-99"/>
            <Node pos="r" depth="3" NCoef="0" IVar="-1" Cut="0.0000000000000000e+00" cType="1" res="4.6790120541118085e-04" rms="4.1551473736763000e-01" purity="5.4412138462066650e-01" nType="-99"/>
          </Node>
        </Node>
      </Node>
    </BinaryTree>
    <BinaryTree type="DecisionTree" boostWeight="1.0000000000000000e+00" itree="38">
      <Node pos="s" depth="0" NCoef="0" IVar="8" Cut="7.4845733642578125e+02" cType="1" res="-8.7173626525327563e-04" rms="4.0423026680946350e-01" purity="5.0149631500244141e-01" nType="0">
        <Node pos="l" depth="1" NCoef="0" IVar="8" Cut="-1.2873010253906250e+03" cType="1" res="-1.5245380811393261e-02" rms="4.0579509735107422e-01" purity="4.7618889808654785e-01" nType="0">
          <Node pos="l" depth="2" NCoef="0" IVar="-1" Cut="0.0000000000000000e+00" cType="1" res="1.4123117551207542e-02" rms="3.9778527617454529e-01" purity="5.9482955932617188e-01" nType="-99"/>
          <Node pos="r" depth="2" NCoef="0" IVar="1" Cut="3.2614452838897705e+00" cType="1" res="-2.7034558355808258e-02" rms="4.0601611137390137e-01" purity="4.5557552576065063e-01" nType="0">
            <Node pos="l" depth="3" NCoef="0" IVar="-1" Cut="0.0000000000000000e+00" cType="1" res="-1.8628226593136787e-02" rms="3.9604797959327698e-01" purity="3.8799041509628296e-01" nType="-99"/>
            <Node pos="r" depth="3" NCoef="0" IVar="-1" Cut="0.0000000000000000e+00" cType="1" res="-2.5163607206195593e-03" rms="4.0887987613677979e-01" purity="4.8412722349166870e-01" nType="-99"/>
          </Node>
        </Node>
        <Node pos="r" depth="1" NCoef="0" IVar="7" Cut="9.0735778808593750e+01" cType="1" res="4.9657315015792847e-02" rms="3.9454612135887146e-01" purity="5.9046196937561035e-01" nType="0">
          <Node pos="l" depth="2" NCoef="0" IVar="-1" Cut="0.0000000000000000e+00" cType="1" res="2.3529052734375000e-02" rms="3.5813468694686890e-01" purity="7.3479288816452026e-01" nType="-99"/>
          <Node pos="r" depth="2" NCoef="0" IVar="-1" Cut="0.0000000000000000e+00" cType="1" res="2.8913272544741631e-03" rms="4.2846456170082092e-01" purity="4.2885202169418335e-01" nType="-99"/>
        </Node>
      </Node>
    </BinaryTree>
    <BinaryTree type="DecisionTree" boostWeight="1.0000000000000000e+00" itree="39">
      <Node pos="s" depth="0" NCoef="0" IVar="4" Cut="8.5702788829803467e-01" cType="1" res="1.9693481735885143e-03" rms="4.0578702092170715e-01" purity="4.9986824393272400e-01" nType="0">
        <Node pos="l" depth="1" NCoef="0" IVar="9" Cut="8.0000000000000000e+00" cType="1" res="-1.5228915959596634e-02" rms="4.0242618322372437e-01" purity="4.0943256020545959e-01" nType="0">
          <Node pos="l" depth="2" NCoef="0" IVar="10" Cut="5.9079602050781250e+02" cType="1" res="-1.9490589620545506e-03" rms="4.2175003886222839e-01" purity="4.7817745804786682e-01" nType="0">
            <Node pos="l" depth="3" NCoef="0" IVar="-1" Cut="0.0000000000000000e+00" cType="1" res="-3.9822785183787346e-03" rms="4.1624498367309570e-01" purity="4.9127891659736633e-01" nType="-99"/>
            <Node pos="r" depth="3" NCoef="0" IVar="-1" Cut="0.0000000000000000e+00" cType="1" res="1.6966514289379120e-02" rms="4.4225761294364929e-01" purity="4.1186913847923279e-01" nType="-99"/>
          </Node>
          <Node pos="r" depth="2" NCoef="0" IVar="-1" Cut="0.0000000000000000e+00" cType="1" res="-2.5799227878451347e-02" rms="2.9914996027946472e-01" purity="1.0860485583543777e-01" nType="-99"/>
        </Node>
        <Node pos="r" depth="1" NCoef="0" IVar="1" Cut="3.5273847579956055e+00" cType="1" res="3.8789298385381699e-02" rms="4.0982323884963989e-01" purity="6.9381749629974365e-01" nType="0">
          <Node pos="l" depth="2" NCoef="0" IVar="-1" Cut="0.0000000000000000e+00" cType="1" res="1.9786797929555178e-04" rms="4.1816189885139465e-01" purity="6.4152657985687256e-01" nType="-99"/>
          <Node pos="r" depth="2" NCoef="0" IVar="0" Cut="7.5134191894531250e+02" cType="1" res="6.0780189931392670e-02" rms="4.0328961610794067e-01" purity="7.2405725717544556e-01" nType="0">
            <Node pos="l" depth="3" NCoef="0" IVar="-1" Cut="0.0000000000000000e+00" cType="1" res="9.5389457419514656e-03" rms="4.3283396959304810e-01" purity="6.5912270545959473e-01" nType="-99"/>
